{"learner":{"attributes":{"best_iteration":"107","best_score":"0.179352811970446","scikit_learn":"{\"_estimator_type\": \"classifier\"}"},"feature_names":["temperature_2m","relative_humidity_2m","dew_point_2m","direct_radiation","wind_speed_10m","cloud_cover","apparent_temperature","precipitation","floorsaboveground","building_age","hour_of_day","minute_of_hour","day_of_week","is_weekend","energy_lag_4","energy_lag_24","energy_lag_96","energy_lag_672","rolling_mean_96","rolling_std_96","rolling_mean_672","rolling_std_672","temp_x_area","humidity_x_area","hdd","cdd","electricity_concurrent","electricity_lag_4","electricity_lag_96","electricity_rolling_mean_96","heat_concurrent","heat_lag_4","heat_lag_96","heat_rolling_mean_96","steam_concurrent","steam_lag_4","steam_lag_96","steam_rolling_mean_96","cooling_concurrent","cooling_lag_4","cooling_lag_96","cooling_rolling_mean_96"],"feature_types":["float","float","float","float","float","int","float","float","float","float","int","int","int","int","float","float","float","float","float","float","float","float","float","float","float","float","float","float","float","float","float","float","float","float","float","float","float","float","float","float","float","float"],"gradient_booster":{"model":{"cats":{"enc":[],"feature_segments":[],"sorted_idx":[]},"gbtree_model_param":{"num_parallel_tree":"1","num_trees":"158"},"iteration_indptr":[0,1,2,3,4,5,6,7,8,9,10,11,12,13,14,15,16,17,18,19,20,21,22,23,24,25,26,27,28,29,30,31,32,33,34,35,36,37,38,39,40,41,42,43,44,45,46,47,48,49,50,51,52,53,54,55,56,57,58,59,60,61,62,63,64,65,66,67,68,69,70,71,72,73,74,75,76,77,78,79,80,81,82,83,84,85,86,87,88,89,90,91,92,93,94,95,96,97,98,99,100,101,102,103,104,105,106,107,108,109,110,111,112,113,114,115,116,117,118,119,120,121,122,123,124,125,126,127,128,129,130,131,132,133,134,135,136,137,138,139,140,141,142,143,144,145,146,147,148,149,150,151,152,153,154,155,156,157,158],"tree_info":[0,0,0,0,0,0,0,0,0,0,0,0,0,0,0,0,0,0,0,0,0,0,0,0,0,0,0,0,0,0,0,0,0,0,0,0,0,0,0,0,0,0,0,0,0,0,0,0,0,0,0,0,0,0,0,0,0,0,0,0,0,0,0,0,0,0,0,0,0,0,0,0,0,0,0,0,0,0,0,0,0,0,0,0,0,0,0,0,0,0,0,0,0,0,0,0,0,0,0,0,0,0,0,0,0,0,0,0,0,0,0,0,0,0,0,0,0,0,0,0,0,0,0,0,0,0,0,0,0,0,0,0,0,0,0,0,0,0,0,0,0,0,0,0,0,0,0,0,0,0,0,0,0,0,0,0,0,0],"trees":[{"base_weights":[6.910032E-4,-9.9911354E-2,1.5478227E0,1.6719083E0,-9.800995E-2,-9.555556E-2,1.7288415E0,1.7593415E0,-9.1836736E-2,1.7903446E0,-9.1836736E-2,-8.571429E-2,9.035448E-2],"categories":[],"categories_nodes":[],"categories_segments":[],"categories_sizes":[],"default_left":[0,0,0,0,0,0,0,0,0,0,0,0,0],"id":0,"left_children":[1,-1,3,5,-1,-1,7,9,-1,11,-1,-1,-1],"loss_changes":[7.995558E3,0E0,6.376731E2,2.9055542E2,0E0,0E0,1.5402881E2,1.5663037E2,0E0,8.315234E1,0E0,0E0,0E0],"parents":[2147483647,0,0,2,2,3,3,6,6,7,7,9,9],"right_children":[2,-1,4,6,-1,-1,8,10,-1,12,-1,-1,-1],"split_conditions":[1.1820149E-6,-9.9911354E-2,4E0,1.8283882E-4,-9.800995E-2,-9.555556E-2,1.3077346E-5,5.712981E-3,-9.1836736E-2,7.908989E-1,-9.1836736E-2,-8.571429E-2,9.035448E-2],"split_indices":[19,0,12,28,0,0,15,38,0,4,0,0,0],"split_type":[0,0,0,0,0,0,0,0,0,0,0,0,0],"sum_hessian":[2.5833928E3,1.127E3,1.456393E3,1.407143E3,4.925E1,2.15E1,1.385643E3,1.374393E3,1.125E1,1.363143E3,1.125E1,6E0,1.357143E3],"tree_param":{"num_deleted":"0","num_feature":"42","num_nodes":"13","size_leaf_vector":"1"}},{"base_weights":[5.4630168E-2,-9.516146E-2,1.4981407E0,1.6122782E0,-9.344909E-2,-9.114445E-2,1.6634352E0,1.7052861E0,-9.445135E-2,1.723678E0,-9.075932E-2,8.6977005E-2,-8.240077E-2],"categories":[],"categories_nodes":[],"categories_segments":[],"categories_sizes":[],"default_left":[0,0,0,0,0,0,0,0,0,0,0,0,0],"id":1,"left_children":[1,-1,3,5,-1,-1,7,9,-1,11,-1,-1,-1],"loss_changes":[7.512955E3,0E0,5.910696E2,2.6320605E2,0E0,0E0,2.2018164E2,9.655029E1,0E0,7.965918E1,0E0,0E0,0E0],"parents":[2147483647,0,0,2,2,3,3,6,6,7,7,9,9],"right_children":[2,-1,4,6,-1,-1,8,10,-1,12,-1,-1,-1],"split_conditions":[1.1820149E-6,-9.516146E-2,4E0,1.8283882E-4,-9.344909E-2,-9.114445E-2,9.469996E1,6.726826E0,-9.445135E-2,5.712981E-3,-9.075932E-2,8.6977005E-2,-8.240077E-2],"split_indices":[19,0,12,28,0,0,1,4,0,38,0,0,0],"split_type":[0,0,0,0,0,0,0,0,0,0,0,0,0],"sum_hessian":[2.656324E3,1.1271847E3,1.5291394E3,1.4795087E3,4.963072E1,2.1201567E1,1.4583071E3,1.4418411E3,1.6466085E1,1.4348553E3,6.985682E0,1.4286185E3,6.2368402E0],"tree_param":{"num_deleted":"0","num_feature":"42","num_nodes":"13","size_leaf_vector":"1"}},{"base_weights":[-8.9906596E-2,-9.105782E-2,1.3783377E0,1.5057282E0,-8.952478E-2,-2.6219657E-1,1.6326673E0,-9.6537225E-2,8.953552E-2,1.6539388E0,-8.626946E-2,1.6717554E0,-8.5167944E-2,8.486036E-2,2.937734E-2],"categories":[],"categories_nodes":[],"categories_segments":[],"categories_sizes":[],"default_left":[0,0,0,0,0,0,0,0,0,0,0,0,0,0,0],"id":2,"left_children":[1,-1,3,5,-1,7,9,-1,-1,11,-1,13,-1,-1,-1],"loss_changes":[6.2386226E3,0E0,5.388096E2,2.870747E2,0E0,2.9950705E2,8.798926E1,0E0,0E0,7.372095E1,0E0,3.1540527E1,0E0,0E0,0E0],"parents":[2147483647,0,0,2,2,3,3,5,5,6,6,9,9,11,11],"right_children":[2,-1,4,6,-1,8,10,-1,-1,12,-1,14,-1,-1,-1],"split_conditions":[1.1820149E-6,-9.105782E-2,4E0,1.2E1,-8.952478E-2,6.58598E1,1.3077346E-5,-9.6537225E-2,8.953552E-2,6.726826E0,-8.626946E-2,6.48E2,-8.5167944E-2,8.486036E-2,2.937734E-2],"split_indices":[19,0,12,10,0,2,15,0,0,4,0,3,0,0,0],"split_type":[0,0,0,0,0,0,0,0,0,0,0,0,0,0,0],"sum_hessian":[2.4523293E3,1.125261E3,1.3270684E3,1.2762852E3,5.0783195E1,8.542842E1,1.1908568E3,4.715864E1,3.826978E1,1.1838651E3,6.991676E0,1.1781151E3,5.75E0,1.1505409E3,2.757428E1],"tree_param":{"num_deleted":"0","num_feature":"42","num_nodes":"15","size_leaf_vector":"1"}},{"base_weights":[-1.032204E-1,-8.7479554E-2,1.3039588E0,1.4298452E0,-8.607983E-2,8.5408255E-2,1.5533212E0,-9.232406E-2,8.67623E-2,1.5761081E0,-8.432939E-2,1.5990707E0,-8.3710074E-2,4.0099632E-2,8.175135E-2],"categories":[],"categories_nodes":[],"categories_segments":[],"categories_sizes":[],"default_left":[0,0,0,0,0,0,0,0,0,0,0,0,0,0,0],"id":3,"left_children":[1,-1,3,5,-1,7,9,-1,-1,11,-1,13,-1,-1,-1],"loss_changes":[5.5959062E3,0E0,4.9849878E2,2.0752051E2,0E0,3.4194467E2,8.723535E1,0E0,0E0,8.762109E1,0E0,3.1092773E1,0E0,0E0,0E0],"parents":[2147483647,0,0,2,2,3,3,5,5,6,6,9,9,11,11],"right_children":[2,-1,4,6,-1,8,10,-1,-1,12,-1,14,-1,-1,-1],"split_conditions":[1.1820149E-6,-8.7479554E-2,4E0,1.2E1,-8.607983E-2,6.58598E1,5.712981E-3,-9.232406E-2,8.67623E-2,1.3077346E-5,-8.432939E-2,3.105864E1,-8.3710074E-2,4.0099632E-2,8.175135E-2],"split_indices":[19,0,12,10,0,2,38,0,0,15,0,1,0,0,0],"split_type":[0,0,0,0,0,0,0,0,0,0,0,0,0,0,0],"sum_hessian":[2.4134397E3,1.1120826E3,1.3013572E3,1.2498799E3,5.147724E1,1.0527808E2,1.1446018E3,4.8438953E1,5.683913E1,1.1371178E3,7.4840393E0,1.1296451E3,7.472613E0,4.976483E1,1.0798804E3],"tree_param":{"num_deleted":"0","num_feature":"42","num_nodes":"15","size_leaf_vector":"1"}},{"base_weights":[-4.25102E-2,-8.433529E-2,1.2846836E0,-8.320914E-2,1.3625143E0,1.4098654E0,-8.540691E-2,1.4360964E0,-8.208132E-2,1.4620256E0,-7.736547E-2,7.396761E-2,-8.007456E-2],"categories":[],"categories_nodes":[],"categories_segments":[],"categories_sizes":[],"default_left":[0,0,0,0,0,0,0,0,0,0,0,0,0],"id":4,"left_children":[1,-1,3,-1,5,7,-1,9,-1,11,-1,-1,-1],"loss_changes":[5.3585864E3,0E0,3.1413354E2,0E0,1.94979E2,1.0680347E2,0E0,1.0238403E2,0E0,7.050537E1,0E0,0E0,0E0],"parents":[2147483647,0,0,2,2,4,4,5,5,7,7,9,9],"right_children":[2,-1,4,-1,6,8,-1,10,-1,12,-1,-1,-1],"split_conditions":[1.1820149E-6,-8.433529E-2,1.8313661E-4,-8.320914E-2,9.469996E1,1.3077346E-5,-8.540691E-2,6.146583E5,-8.208132E-2,5.712981E-3,-7.736547E-2,7.396761E-2,-8.007456E-2],"split_indices":[19,0,28,0,1,15,0,37,0,38,0,0,0],"split_type":[0,0,0,0,0,0,0,0,0,0,0,0,0],"sum_hessian":[2.4536345E3,1.0958136E3,1.3578209E3,3.439187E1,1.323429E3,1.3038635E3,1.9565456E1,1.2932758E3,1.0587787E1,1.2826381E3,1.0637641E1,1.2759387E3,6.699337E0],"tree_param":{"num_deleted":"0","num_feature":"42","num_nodes":"13","size_leaf_vector":"1"}},{"base_weights":[2.1166416E-2,-8.155347E-2,1.264675E0,1.3695368E0,-8.2359426E-2,-7.966813E-2,1.4148214E0,1.4408835E0,-7.96018E-2,1.4656644E0,-7.9225026E-2,7.407595E-2,-8.887067E-2],"categories":[],"categories_nodes":[],"categories_segments":[],"categories_sizes":[],"default_left":[0,0,0,0,0,0,0,0,0,0,0,0,0],"id":5,"left_children":[1,-1,3,5,-1,-1,7,9,-1,11,-1,-1,-1],"loss_changes":[5.163475E3,0E0,4.4009863E2,1.8803711E2,0E0,0E0,1.09208984E2,1.037688E2,0E0,7.16687E1,0E0,0E0,0E0],"parents":[2147483647,0,0,2,2,3,3,6,6,7,7,9,9],"right_children":[2,-1,4,6,-1,-1,8,10,-1,12,-1,-1,-1],"split_conditions":[1.1820149E-6,-8.155347E-2,4E0,1.8283882E-4,-8.2359426E-2,-7.966813E-2,5.712981E-3,1.3077346E-5,-7.96018E-2,7.882209E-6,-7.9225026E-2,7.407595E-2,-8.887067E-2],"split_indices":[19,0,12,28,0,0,38,15,0,18,0,0,0],"split_type":[0,0,0,0,0,0,0,0,0,0,0,0,0],"sum_hessian":[2.5111628E3,1.0782253E3,1.4329374E3,1.3836395E3,4.929782E1,2.0314447E1,1.3633251E3,1.3521263E3,1.1198807E1,1.3416523E3,1.0473947E1,1.3356659E3,5.986527E0],"tree_param":{"num_deleted":"0","num_feature":"42","num_nodes":"13","size_leaf_vector":"1"}},{"base_weights":[-1.03032514E-1,-7.907687E-2,1.1642222E0,1.2771996E0,-7.978161E-2,-7.654744E-2,1.326073E0,1.3670757E0,-8.283328E-2,1.3870205E0,-8.8517204E-2,7.025023E-2,-7.448111E-2],"categories":[],"categories_nodes":[],"categories_segments":[],"categories_sizes":[],"default_left":[0,0,0,0,0,0,0,0,0,0,0,0,0],"id":6,"left_children":[1,-1,3,5,-1,-1,7,9,-1,11,-1,-1,-1],"loss_changes":[4.2761323E3,0E0,3.8523206E2,1.6414172E2,0E0,0E0,1.443197E2,7.418701E1,0E0,6.105078E1,0E0,0E0,0E0],"parents":[2147483647,0,0,2,2,3,3,6,6,7,7,9,9],"right_children":[2,-1,4,6,-1,-1,8,10,-1,12,-1,-1,-1],"split_conditions":[1.1820149E-6,-7.907687E-2,4E0,1.8283882E-4,-7.978161E-2,-7.654744E-2,9.469996E1,6.726826E0,-8.283328E-2,5.712981E-3,-8.8517204E-2,7.025023E-2,-7.448111E-2],"split_indices":[19,0,12,28,0,0,1,4,0,38,0,0,0],"split_type":[0,0,0,0,0,0,0,0,0,0,0,0,0],"sum_hessian":[2.2802737E3,1.052304E3,1.2279698E3,1.1801947E3,4.77752E1,1.967016E1,1.1605245E3,1.1453219E3,1.5202666E1,1.1386414E3,6.680523E0,1.1320754E3,6.565864E0],"tree_param":{"num_deleted":"0","num_feature":"42","num_nodes":"13","size_leaf_vector":"1"}},{"base_weights":[4.931412E-2,-7.6861456E-2,1.190332E0,1.2844373E0,-7.725587E-2,-7.50455E-2,1.3302542E0,1.3606437E0,-7.9657294E-2,1.3835797E0,-9.199674E-2,6.991916E-2,-8.453186E-2],"categories":[],"categories_nodes":[],"categories_segments":[],"categories_sizes":[],"default_left":[0,0,0,0,0,0,0,0,0,0,0,0,0],"id":7,"left_children":[1,-1,3,5,-1,-1,7,9,-1,11,-1,-1,-1],"loss_changes":[4.493146E3,0E0,3.736211E2,1.8017847E2,0E0,0E0,1.2424927E2,1.0242261E2,0E0,6.3867188E1,0E0,0E0,0E0],"parents":[2147483647,0,0,2,2,3,3,6,6,7,7,9,9],"right_children":[2,-1,4,6,-1,-1,8,10,-1,12,-1,-1,-1],"split_conditions":[1.1820149E-6,-7.6861456E-2,4E0,1.8283882E-4,-7.725587E-2,-7.50455E-2,9.469996E1,7.881741E-6,-7.9657294E-2,6.726826E0,-9.199674E-2,6.991916E-2,-8.453186E-2],"split_indices":[19,0,12,28,0,0,1,18,0,4,0,0,0],"split_type":[0,0,0,0,0,0,0,0,0,0,0,0,0],"sum_hessian":[2.4800142E3,1.0373167E3,1.4426976E3,1.3952292E3,4.746835E1,2.2065168E1,1.3731641E3,1.3595656E3,1.3598476E1,1.3504557E3,9.109933E0,1.3445265E3,5.929236E0],"tree_param":{"num_deleted":"0","num_feature":"42","num_nodes":"13","size_leaf_vector":"1"}},{"base_weights":[3.0311255E-2,-7.486876E-2,1.1534069E0,-7.370348E-2,1.2184527E0,1.2542268E0,-7.771331E-2,8.5233396E-1,1.4309703E0,-1.05059676E-1,1.1659489E0,1.45703E0,-7.4305765E-2,6.6074245E-2,-9.6966274E-2,7.387082E-2,-7.312324E-2],"categories":[],"categories_nodes":[],"categories_segments":[],"categories_sizes":[],"default_left":[0,0,0,0,0,0,0,0,0,0,0,0,0,0,0,0,0],"id":8,"left_children":[1,-1,3,-1,5,7,-1,9,11,-1,13,15,-1,-1,-1,-1,-1],"loss_changes":[4.0981416E3,0E0,2.3705688E2,0E0,1.3524731E2,9.3059326E1,0E0,3.8026376E2,7.213196E1,0E0,1.8096552E2,5.648535E1,0E0,0E0,0E0,0E0,0E0],"parents":[2147483647,0,0,2,2,4,4,5,5,7,7,8,8,10,10,11,11],"right_children":[2,-1,4,-1,6,8,-1,10,12,-1,14,16,-1,-1,-1,-1,-1],"split_conditions":[1.1820149E-6,-7.486876E-2,1.8313661E-4,-7.370348E-2,1.721364E7,2.1810042E-4,-7.771331E-2,1.5421565E-4,1.469413E-4,-1.05059676E-1,1.0441882E-5,5.712981E-3,-7.4305765E-2,6.6074245E-2,-9.6966274E-2,7.387082E-2,-7.312324E-2],"split_indices":[19,0,28,0,23,28,0,32,31,0,21,38,0,0,0,0,0],"split_type":[0,0,0,0,0,0,0,0,0,0,0,0,0,0,0,0,0],"sum_hessian":[2.386553E3,1.0110046E3,1.3755483E3,3.270712E1,1.3428412E3,1.326277E3,1.656424E1,4.0688742E2,9.193895E2,3.851022E1,3.6837723E2,9.11745E2,7.644543E0,3.5135318E2,1.7024044E1,9.059131E2,5.831899E0],"tree_param":{"num_deleted":"0","num_feature":"42","num_nodes":"17","size_leaf_vector":"1"}},{"base_weights":[-5.3097857E-3,-7.306978E-2,1.1097624E0,1.2037919E0,-7.374575E-2,4.4249613E-3,1.302162E0,-8.52732E-2,7.320299E-2,1.3221322E0,-7.455655E-2,1.3413025E0,-7.2315134E-2,3.563776E-2,6.826105E-2],"categories":[],"categories_nodes":[],"categories_segments":[],"categories_sizes":[],"default_left":[0,0,0,0,0,0,0,0,0,0,0,0,0,0,0],"id":9,"left_children":[1,-1,3,5,-1,7,9,-1,-1,11,-1,13,-1,-1,-1],"loss_changes":[3.710894E3,0E0,3.1634583E2,1.4740723E2,0E0,2.4138042E2,6.638599E1,0E0,0E0,6.281714E1,0E0,1.6160889E1,0E0,0E0,0E0],"parents":[2147483647,0,0,2,2,3,3,5,5,6,6,9,9,11,11],"right_children":[2,-1,4,6,-1,8,10,-1,-1,12,-1,14,-1,-1,-1],"split_conditions":[1.1820149E-6,-7.306978E-2,4E0,1.2E1,-7.374575E-2,6.58598E1,1.3077346E-5,-8.52732E-2,7.320299E-2,5.712981E-3,-7.455655E-2,3.105864E1,-7.2315134E-2,3.563776E-2,6.826105E-2],"split_indices":[19,0,12,10,0,2,15,0,0,38,0,1,0,0,0],"split_type":[0,0,0,0,0,0,0,0,0,0,0,0,0,0,0],"sum_hessian":[2.28354E3,9.90202E2,1.2933381E3,1.2484541E3,4.488394E1,9.4713684E1,1.1537405E3,4.3540157E1,5.1173527E1,1.1460735E3,7.667008E0,1.1387039E3,7.369531E0,4.2872498E1,1.0958314E3],"tree_param":{"num_deleted":"0","num_feature":"42","num_nodes":"15","size_leaf_vector":"1"}},{"base_weights":[-1.3756103E-2,-7.143732E-2,1.0761528E0,-2.6910082E-1,1.2139989E0,-7.9367004E-2,7.146134E-2,1.2359105E0,-7.1501635E-2,1.2527462E0,-9.472137E-2,1.2719687E0,-7.1836405E-2,6.4512104E-2,-6.2927E-2],"categories":[],"categories_nodes":[],"categories_segments":[],"categories_sizes":[],"default_left":[0,0,0,0,0,0,0,0,0,0,0,0,0,0,0],"id":10,"left_children":[1,-1,3,5,7,-1,-1,9,-1,11,-1,13,-1,-1,-1],"loss_changes":[3.3590183E3,0E0,2.2848315E2,2.6012143E2,6.643396E1,0E0,0E0,6.0743164E1,0E0,5.8810913E1,0E0,5.225525E1,0E0,0E0,0E0],"parents":[2147483647,0,0,2,2,3,3,4,4,7,7,9,9,11,11],"right_children":[2,-1,4,6,8,-1,-1,10,-1,12,-1,14,-1,-1,-1],"split_conditions":[1.1820149E-6,-7.143732E-2,1.2E1,1.8932253E-5,5.712981E-3,-7.9367004E-2,7.146134E-2,2.2469185E-5,-7.1501635E-2,1.3077346E-5,-9.472137E-2,6.146583E5,-7.1836405E-2,6.4512104E-2,-6.2927E-2],"split_indices":[19,0,10,14,38,0,0,16,0,15,0,37,0,0,0],"split_type":[0,0,0,0,0,0,0,0,0,0,0,0,0,0,0],"sum_hessian":[2.1760574E3,9.4669104E2,1.2293665E3,1.1417444E2,1.115192E3,6.431702E1,4.9857414E1,1.1065543E3,8.637661E0,1.1012314E3,5.322904E0,1.0939398E3,7.291649E0,1.0865834E3,7.356359E0],"tree_param":{"num_deleted":"0","num_feature":"42","num_nodes":"15","size_leaf_vector":"1"}},{"base_weights":[3.896199E-2,-6.995343E-2,1.067645E0,1.153915E0,-7.0960194E-2,3.7385117E-2,1.2395967E0,-8.00491E-2,6.987486E-2,1.2596837E0,-6.929263E-2,1.2747049E0,-6.812524E-2,4.0371116E-2,6.543888E-2],"categories":[],"categories_nodes":[],"categories_segments":[],"categories_sizes":[],"default_left":[0,0,0,0,0,0,0,0,0,0,0,0,0,0,0],"id":11,"left_children":[1,-1,3,5,-1,7,9,-1,-1,11,-1,13,-1,-1,-1],"loss_changes":[3.2617598E3,0E0,2.77412E2,1.1885437E2,0E0,2.019224E2,6.2618896E1,0E0,0E0,4.6876465E1,0E0,1.7094116E1,0E0,0E0,0E0],"parents":[2147483647,0,0,2,2,3,3,5,5,6,6,9,9,11,11],"right_children":[2,-1,4,6,-1,8,10,-1,-1,12,-1,14,-1,-1,-1],"split_conditions":[1.1820149E-6,-6.995343E-2,4E0,1.2E1,-7.0960194E-2,6.58598E1,5.712981E-3,-8.00491E-2,6.987486E-2,1.3077346E-5,-6.929263E-2,3.105864E1,-6.812524E-2,4.0371116E-2,6.543888E-2],"split_indices":[19,0,12,10,0,2,38,0,0,15,0,1,0,0,0],"split_type":[0,0,0,0,0,0,0,0,0,0,0,0,0,0,0],"sum_hessian":[2.2029585E3,9.185403E2,1.2844182E3,1.241873E3,4.254522E1,8.861065E1,1.1532625E3,4.0113518E1,4.849713E1,1.1450221E3,8.240272E0,1.1390112E3,6.0109076E0,7.908684E1,1.0599243E3],"tree_param":{"num_deleted":"0","num_feature":"42","num_nodes":"15","size_leaf_vector":"1"}},{"base_weights":[-3.212859E-2,-6.8599954E-2,1.0055866E0,-9.426091E-1,1.1524969E0,-7.485368E-2,6.569327E-2,1.1936425E0,-6.722169E-2,1.2102224E0,-8.440151E-2,1.2293919E0,-6.67318E-2,4.7655962E-2,6.708787E-2],"categories":[],"categories_nodes":[],"categories_segments":[],"categories_sizes":[],"default_left":[0,0,0,0,0,0,0,0,0,0,0,0,0,0,0],"id":12,"left_children":[1,-1,3,5,7,-1,-1,9,-1,11,-1,13,-1,-1,-1],"loss_changes":[2.8648584E3,0E0,3.3342444E2,1.0452506E2,1.1258154E2,0E0,0E0,5.2841064E1,0E0,5.3240234E1,0E0,3.1327026E1,0E0,0E0,0E0],"parents":[2147483647,0,0,2,2,3,3,4,4,7,7,9,9,11,11],"right_children":[2,-1,4,6,8,-1,-1,10,-1,12,-1,14,-1,-1,-1],"split_conditions":[1.1820149E-6,-6.8599954E-2,1.2E1,6.58598E1,4E0,-7.485368E-2,6.569327E-2,6.726826E0,-6.722169E-2,5.712981E-3,-8.440151E-2,2.1810042E-4,-6.67318E-2,4.7655962E-2,6.708787E-2],"split_indices":[19,0,10,2,12,0,0,4,0,38,0,28,0,0,0],"split_type":[0,0,0,0,0,0,0,0,0,0,0,0,0,0,0],"sum_hessian":[2.058458E3,8.98289E2,1.1601691E3,8.097207E1,1.079197E3,6.5270294E1,1.5701778E1,1.0622153E3,1.6981697E1,1.0567155E3,5.4998627E0,1.0493281E3,7.3873267E0,3.0612946E2,7.4319867E2],"tree_param":{"num_deleted":"0","num_feature":"42","num_nodes":"15","size_leaf_vector":"1"}},{"base_weights":[-1.3555249E-2,-6.736096E-2,9.9347144E-1,-5.398177E-1,1.1271751E0,-7.3228784E-2,6.643507E-2,1.1675987E0,-6.6441655E-2,1.1873682E0,-6.926106E-2,1.2060707E0,-6.521608E-2,1.9614493E-2,6.200354E-2],"categories":[],"categories_nodes":[],"categories_segments":[],"categories_sizes":[],"default_left":[0,0,0,0,0,0,0,0,0,0,0,0,0,0,0],"id":13,"left_children":[1,-1,3,5,7,-1,-1,9,-1,11,-1,13,-1,-1,-1],"loss_changes":[2.729805E3,0E0,2.3802808E2,1.6361789E2,1.0733984E2,0E0,0E0,5.4576416E1,0E0,5.009851E1,0E0,2.8124878E1,0E0,0E0,0E0],"parents":[2147483647,0,0,2,2,3,3,4,4,7,7,9,9,11,11],"right_children":[2,-1,4,6,8,-1,-1,10,-1,12,-1,14,-1,-1,-1],"split_conditions":[1.1820149E-6,-6.736096E-2,1.2E1,6.58598E1,4E0,-7.3228784E-2,6.643507E-2,1.3077346E-5,-6.6441655E-2,5.712981E-3,-6.926106E-2,3.105864E1,-6.521608E-2,1.9614493E-2,6.200354E-2],"split_indices":[19,0,10,2,12,0,0,15,0,38,0,1,0,0,0],"split_type":[0,0,0,0,0,0,0,0,0,0,0,0,0,0,0],"sum_hessian":[2.030567E3,8.73458E2,1.157109E3,9.2564026E1,1.064545E3,6.2063873E1,3.0500154E1,1.0478234E3,1.672162E1,1.040302E3,7.5213766E0,1.0330638E3,7.2381535E0,4.193384E1,9.9113E2],"tree_param":{"num_deleted":"0","num_feature":"42","num_nodes":"15","size_leaf_vector":"1"}},{"base_weights":[-5.321755E-3,-6.622397E-2,9.716653E-1,1.0563446E0,-6.664464E-2,-6.6650294E-2,1.0924424E0,1.1243755E0,-7.070032E-2,1.1426857E0,-6.7436226E-2,5.777491E-2,-6.1657693E-2],"categories":[],"categories_nodes":[],"categories_segments":[],"categories_sizes":[],"default_left":[0,0,0,0,0,0,0,0,0,0,0,0,0],"id":14,"left_children":[1,-1,3,5,-1,-1,7,9,-1,11,-1,-1,-1],"loss_changes":[2.569713E3,0E0,2.2495203E2,9.6802734E1,0E0,0E0,8.8797E1,5.0284424E1,0E0,3.396692E1,0E0,0E0,0E0],"parents":[2147483647,0,0,2,2,3,3,6,6,7,7,9,9],"right_children":[2,-1,4,6,-1,-1,8,10,-1,12,-1,-1,-1],"split_conditions":[1.1820149E-6,-6.622397E-2,4E0,1.8283882E-4,-6.664464E-2,-6.6650294E-2,1.721364E7,1.3077346E-5,-7.070032E-2,5.712981E-3,-6.7436226E-2,5.777491E-2,-6.1657693E-2],"split_indices":[19,0,12,28,0,0,23,15,0,38,0,0,0],"split_type":[0,0,0,0,0,0,0,0,0,0,0,0,0],"sum_hessian":[1.9918816E3,8.4737476E2,1.144507E3,1.1044657E3,4.0041195E1,1.5902923E1,1.0885627E3,1.0754131E3,1.3149759E1,1.0680435E3,7.3695636E0,1.0628254E3,5.217971E0],"tree_param":{"num_deleted":"0","num_feature":"42","num_nodes":"13","size_leaf_vector":"1"}},{"base_weights":[-2.9502675E-2,-6.5177165E-2,9.359484E-1,1.021807E0,-6.542516E-2,-3.1660836E-2,1.1134039E0,-7.393352E-2,6.493237E-2,1.1313112E0,-8.50375E-2,1.1495239E0,-6.201188E-2,4.54272E-2,6.2976666E-2],"categories":[],"categories_nodes":[],"categories_segments":[],"categories_sizes":[],"default_left":[0,0,0,0,0,0,0,0,0,0,0,0,0,0,0],"id":15,"left_children":[1,-1,3,5,-1,7,9,-1,-1,11,-1,13,-1,-1,-1],"loss_changes":[2.3177566E3,0E0,2.079176E2,9.972046E1,0E0,1.6286713E2,4.9821045E1,0E0,0E0,4.224463E1,0E0,2.3731567E1,0E0,0E0,0E0],"parents":[2147483647,0,0,2,2,3,3,5,5,6,6,9,9,11,11],"right_children":[2,-1,4,6,-1,8,10,-1,-1,12,-1,14,-1,-1,-1],"split_conditions":[1.1820149E-6,-6.5177165E-2,4E0,1.2E1,-6.542516E-2,6.58598E1,6.726826E0,-7.393352E-2,6.493237E-2,5.712981E-3,-8.50375E-2,2.1915694E-4,-6.201188E-2,4.54272E-2,6.2976666E-2],"split_indices":[19,0,12,10,0,2,4,0,0,38,0,28,0,0,0],"split_type":[0,0,0,0,0,0,0,0,0,0,0,0,0,0,0],"sum_hessian":[1.8823264E3,8.1132513E2,1.0710013E3,1.0320657E3,3.8935623E1,8.261013E1,9.4945557E2,3.9516026E1,4.30941E1,9.440463E2,5.409235E0,9.373629E2,6.683373E0,2.9669644E2,6.406665E2],"tree_param":{"num_deleted":"0","num_feature":"42","num_nodes":"15","size_leaf_vector":"1"}},{"base_weights":[-3.0704824E-2,-6.421321E-2,9.207173E-1,9.959472E-1,-6.416475E-2,-6.411692E-2,1.0328424E0,1.0653362E0,-7.048323E-2,1.082844E0,-7.939496E-2,5.503827E-2,-6.688207E-2],"categories":[],"categories_nodes":[],"categories_segments":[],"categories_sizes":[],"default_left":[0,0,0,0,0,0,0,0,0,0,0,0,0],"id":16,"left_children":[1,-1,3,5,-1,-1,7,9,-1,11,-1,-1,-1],"loss_changes":[2.1787153E3,0E0,1.7347864E2,8.578912E1,0E0,0E0,8.002551E1,4.710144E1,0E0,4.3599365E1,0E0,0E0,0E0],"parents":[2147483647,0,0,2,2,3,3,6,6,7,7,9,9],"right_children":[2,-1,4,6,-1,-1,8,10,-1,12,-1,-1,-1],"split_conditions":[1.1820149E-6,-6.421321E-2,4E0,1.8283882E-4,-6.416475E-2,-6.411692E-2,9.469996E1,6.726826E0,-7.048323E-2,1.3077346E-5,-7.939496E-2,5.503827E-2,-6.688207E-2],"split_indices":[19,0,12,28,0,0,1,4,0,15,0,0,0],"split_type":[0,0,0,0,0,0,0,0,0,0,0,0,0],"sum_hessian":[1.8247721E3,7.872156E2,1.0375565E3,1.0038404E3,3.371611E1,1.5459476E1,9.883809E2,9.7596106E2,1.2419841E1,9.701513E2,5.809807E0,9.6356226E2,6.5890064E0],"tree_param":{"num_deleted":"0","num_feature":"42","num_nodes":"13","size_leaf_vector":"1"}},{"base_weights":[-1.2506107E-2,-6.332151E-2,9.093343E-1,9.8910093E-1,-6.324356E-2,1.0200992E0,-7.741636E-2,-9.437636E-2,1.0448645E0,1.0710206E0,-7.008674E-2,-6.3146956E-2,5.477739E-2],"categories":[],"categories_nodes":[],"categories_segments":[],"categories_sizes":[],"default_left":[0,0,0,0,0,0,0,0,0,0,0,0,0],"id":17,"left_children":[1,-1,3,5,-1,7,-1,-1,9,11,-1,-1,-1],"loss_changes":[2.0541982E3,0E0,1.7887439E2,7.933093E1,0E0,7.2336914E1,0E0,0E0,6.3546997E1,5.633191E1,0E0,0E0,0E0],"parents":[2147483647,0,0,2,2,3,3,5,5,8,8,9,9],"right_children":[2,-1,4,6,-1,8,-1,-1,10,12,-1,-1,-1],"split_conditions":[1.1820149E-6,-6.332151E-2,4E0,7.881741E-6,-6.324356E-2,7.908989E-1,-7.741636E-2,-9.437636E-2,1.721364E7,1.8283882E-4,-7.008674E-2,-6.3146956E-2,5.477739E-2],"split_indices":[19,0,12,18,0,4,0,0,23,28,0,0,0],"split_type":[0,0,0,0,0,0,0,0,0,0,0,0,0],"sum_hessian":[1.7751183E3,7.5193396E2,1.0231843E3,9.875003E2,3.5684055E1,9.761729E2,1.1327356E1,7.60899E0,9.6856396E2,9.5887506E2,9.688877E0,9.446753E0,9.494283E2],"tree_param":{"num_deleted":"0","num_feature":"42","num_nodes":"13","size_leaf_vector":"1"}},{"base_weights":[1.42884785E-2,-6.249715E-2,8.858965E-1,-1.0861557E-1,9.9872726E-1,-6.992429E-2,6.2606685E-2,-1.1024594E-1,1.0184999E0,1.0348104E0,-8.072709E-2,1.0518976E0,-6.537214E-2,5.3464767E-2,-6.218837E-2],"categories":[],"categories_nodes":[],"categories_segments":[],"categories_sizes":[],"default_left":[0,0,0,0,0,0,0,0,0,0,0,0,0,0,0],"id":18,"left_children":[1,-1,3,5,7,-1,-1,-1,9,11,-1,13,-1,-1,-1],"loss_changes":[1.9654064E3,0E0,1.1857507E2,1.9214542E2,6.231317E1,0E0,0E0,0E0,4.2175232E1,3.891382E1,0E0,3.8541504E1,0E0,0E0,0E0],"parents":[2147483647,0,0,2,2,3,3,4,4,8,8,9,9,11,11],"right_children":[2,-1,4,6,8,-1,-1,-1,10,12,-1,14,-1,-1,-1],"split_conditions":[2.3405401E-7,-6.249715E-2,1.2E1,6.58598E1,7.908989E-1,-6.992429E-2,6.2606685E-2,-1.1024594E-1,6.726826E0,1.3077346E-5,-8.072709E-2,5.712981E-3,-6.537214E-2,5.3464767E-2,-6.218837E-2],"split_indices":[18,0,10,2,4,0,0,0,4,15,0,38,0,0,0],"split_type":[0,0,0,0,0,0,0,0,0,0,0,0,0,0,0],"sum_hessian":[1.781624E3,7.268802E2,1.0547438E3,1.0747505E2,9.4726874E2,5.516026E1,5.231479E1,5.1326814E0,9.4213605E2,9.369391E2,5.196974E0,9.307004E2,6.238716E0,9.242303E2,6.4700704E0],"tree_param":{"num_deleted":"0","num_feature":"42","num_nodes":"15","size_leaf_vector":"1"}},{"base_weights":[3.569012E-2,-6.1732795E-2,8.9659786E-1,-3.0350503E-1,1.0137416E0,-6.885352E-2,6.134466E-2,1.0333227E0,-1.068178E-1,1.0502689E0,-7.9454884E-2,1.0656612E0,-5.452581E-2,5.4005604E-2,-5.8970828E-2],"categories":[],"categories_nodes":[],"categories_segments":[],"categories_sizes":[],"default_left":[0,0,0,0,0,0,0,0,0,0,0,0,0,0,0],"id":19,"left_children":[1,-1,3,5,7,-1,-1,9,-1,11,-1,13,-1,-1,-1],"loss_changes":[1.9014905E3,0E0,1.4599774E2,1.5437184E2,6.0459595E1,0E0,0E0,4.3408264E1,0E0,3.1932129E1,0E0,3.1369751E1,0E0,0E0,0E0],"parents":[2147483647,0,0,2,2,3,3,4,4,7,7,9,9,11,11],"right_children":[2,-1,4,6,8,-1,-1,10,-1,12,-1,14,-1,-1,-1],"split_conditions":[1.1820149E-6,-6.1732795E-2,1.2E1,6.58598E1,2.2469185E-5,-6.885352E-2,6.134466E-2,6.726826E0,-1.068178E-1,6.146583E5,-7.9454884E-2,5.712981E-3,-5.452581E-2,5.4005604E-2,-5.8970828E-2],"split_indices":[19,0,10,2,16,0,0,4,0,37,0,38,0,0,0],"split_type":[0,0,0,0,0,0,0,0,0,0,0,0,0,0,0],"sum_hessian":[1.736651E3,7.0133484E2,1.0353162E3,9.192997E1,9.4338617E2,5.408785E1,3.784212E1,9.3822614E2,5.1600757E0,9.3279785E2,5.4282684E0,9.266375E2,6.160322E0,9.2122675E2,5.4107842E0],"tree_param":{"num_deleted":"0","num_feature":"42","num_nodes":"15","size_leaf_vector":"1"}},{"base_weights":[1.2578708E-2,-6.1022487E-2,8.5277504E-1,-1.0565055E-1,9.6037674E-1,-6.8263076E-2,6.0941316E-2,9.8021036E-1,-6.5600164E-2,9.978999E-1,-6.0095448E-2,1.0151094E0,-5.4239273E-2,3.6613274E-2,5.7341136E-2],"categories":[],"categories_nodes":[],"categories_segments":[],"categories_sizes":[],"default_left":[0,0,0,0,0,0,0,0,0,0,0,0,0,0,0],"id":20,"left_children":[1,-1,3,5,7,-1,-1,9,-1,11,-1,13,-1,-1,-1],"loss_changes":[1.7231456E3,0E0,1.0211743E2,1.6974683E2,4.13739E1,0E0,0E0,3.525836E1,0E0,3.2491455E1,0E0,3.1539185E1,0E0,0E0,0E0],"parents":[2147483647,0,0,2,2,3,3,4,4,7,7,9,9,11,11],"right_children":[2,-1,4,6,8,-1,-1,10,-1,12,-1,14,-1,-1,-1],"split_conditions":[2.3405401E-7,-6.1022487E-2,1.2E1,1.8932253E-5,1.3077346E-5,-6.8263076E-2,6.0941316E-2,5.712981E-3,-6.5600164E-2,6.146583E5,-6.0095448E-2,2.1810042E-4,-5.4239273E-2,3.6613274E-2,5.7341136E-2],"split_indices":[18,0,10,14,15,0,0,38,0,37,0,28,0,0,0],"split_type":[0,0,0,0,0,0,0,0,0,0,0,0,0,0,0],"sum_hessian":[1.6612859E3,6.730704E2,9.882156E2,9.9749405E1,8.884662E2,5.1110878E1,4.863853E1,8.8134235E2,7.1238346E0,8.7479346E2,6.548884E0,8.6813257E2,6.6609106E0,2.7790753E2,5.90225E2],"tree_param":{"num_deleted":"0","num_feature":"42","num_nodes":"15","size_leaf_vector":"1"}},{"base_weights":[-3.7534915E-2,-6.0361233E-2,8.061776E-1,-8.2543486E-1,9.2501163E-1,-6.5668605E-2,5.663695E-2,9.6773463E-1,-6.1624933E-2,9.9105877E-1,-6.474528E-2,1.0094014E0,-5.8376726E-2,5.2337464E-2,4.7946144E-3],"categories":[],"categories_nodes":[],"categories_segments":[],"categories_sizes":[],"default_left":[0,0,0,0,0,0,0,0,0,0,0,0,0,0,0],"id":21,"left_children":[1,-1,3,5,7,-1,-1,9,-1,11,-1,13,-1,-1,-1],"loss_changes":[1.5138376E3,0E0,1.7355615E2,5.9798805E1,7.780463E1,0E0,0E0,4.4324768E1,0E0,3.3163513E1,0E0,2.7246582E1,0E0,0E0,0E0],"parents":[2147483647,0,0,2,2,3,3,4,4,7,7,9,9,11,11],"right_children":[2,-1,4,6,8,-1,-1,10,-1,12,-1,14,-1,-1,-1],"split_conditions":[1.1820149E-6,-6.0361233E-2,1.2E1,6.58598E1,4E0,-6.5668605E-2,5.663695E-2,1.3077346E-5,-6.1624933E-2,5.712981E-3,-6.474528E-2,6.48E2,-5.8376726E-2,5.2337464E-2,4.7946144E-3],"split_indices":[19,0,10,2,12,0,0,15,0,38,0,3,0,0,0],"split_type":[0,0,0,0,0,0,0,0,0,0,0,0,0,0,0],"sum_hessian":[1.5319742E3,6.4179047E2,8.901838E2,6.0028984E1,8.301548E2,4.8318325E1,1.1710658E1,8.1457605E2,1.5578766E1,8.06821E2,7.7550287E0,8.005507E2,6.2703E0,7.6896655E2,3.1584179E1],"tree_param":{"num_deleted":"0","num_feature":"42","num_nodes":"15","size_leaf_vector":"1"}},{"base_weights":[1.873262E-2,-5.9746522E-2,8.35499E-1,3.6870056E-1,1.1001637E0,-2.1874905E0,7.0971763E-1,1.1275139E0,-7.195462E-2,-1.4653008E-1,-1.8212056E0,9.01081E-1,-7.493492E-2,1.1586146E0,6.931651E-1,-7.3638596E-2,-1.1726985E-1,1.0031806E0,-6.261277E-2,1.1820987E0,6.955208E-1,5.9662074E-2,-1.0887288E-1,-5.696655E-2,5.4774355E-2,4.4211585E-2,6.017008E-2,1.603763E-2,5.433574E-2],"categories":[],"categories_nodes":[],"categories_segments":[],"categories_sizes":[],"default_left":[0,0,0,0,0,0,0,0,0,0,0,0,0,0,0,0,0,0,0,0,0,0,0,0,0,0,0,0,0],"id":22,"left_children":[1,-1,3,5,7,9,11,13,-1,-1,15,17,-1,19,21,-1,-1,23,-1,25,27,-1,-1,-1,-1,-1,-1,-1,-1],"loss_changes":[1.5307812E3,0E0,1.1363153E2,2.9399838E2,4.249707E1,5.4778748E0,1.26761505E2,7.0703125E0,0E0,0E0,1.8893661E0,6.1433655E1,0E0,5.076721E0,6.2078094E1,0E0,0E0,5.3039337E1,0E0,2.2025146E0,3.8455906E0,0E0,0E0,0E0,0E0,0E0,0E0,0E0,0E0],"parents":[2147483647,0,0,2,2,3,3,4,4,5,5,6,6,7,7,10,10,11,11,13,13,14,14,17,17,19,19,20,20],"right_children":[2,-1,4,6,8,10,12,14,-1,-1,16,18,-1,20,22,-1,-1,24,-1,26,28,-1,-1,-1,-1,-1,-1,-1,-1],"split_conditions":[1.1820149E-6,-5.9746522E-2,2.1810042E-4,1.5421565E-4,1.469413E-4,1.588679E-6,1.2824767E-6,2.2857127E-4,-7.195462E-2,-1.4653008E-1,9.338303E-6,8.8574265E1,-7.493492E-2,6.48E2,6.1346706E1,-7.3638596E-2,-1.1726985E-1,1.8210012E-4,-6.261277E-2,2.1012509E-4,1.396176E-6,5.9662074E-2,-1.0887288E-1,-5.696655E-2,5.4774355E-2,4.4211585E-2,6.017008E-2,1.603763E-2,5.433574E-2],"split_indices":[19,0,28,32,31,18,20,27,0,0,21,1,0,3,1,0,0,28,0,26,18,0,0,0,0,0,0,0,0],"split_type":[0,0,0,0,0,0,0,0,0,0,0,0,0,0,0,0,0,0,0,0,0,0,0,0,0,0,0,0,0],"sum_hessian":[1.5422412E3,6.2020013E2,9.220411E2,3.3448727E2,5.875538E2,3.8733635E1,2.9575366E2,5.818428E2,5.711015E0,1.0477078E1,2.8256557E1,2.7271442E2,2.3039234E1,5.414087E2,4.0434067E1,1.9262348E1,8.994209E0,2.6087906E2,1.1835349E1,5.1380054E2,2.7608139E1,3.493291E1,5.501155E0,1.0306793E1,2.5057227E2,3.7130623E1,4.7666995E2,1.5029571E1,1.25785675E1],"tree_param":{"num_deleted":"0","num_feature":"42","num_nodes":"29","size_leaf_vector":"1"}},{"base_weights":[-5.3610555E-3,-5.9173387E-2,8.045764E-1,8.78008E-1,-5.968404E-2,-8.4350236E-2,9.0552247E-1,9.287091E-1,-6.620455E-2,9.487722E-1,-7.7259175E-2,4.8359524E-2,-5.8906015E-2],"categories":[],"categories_nodes":[],"categories_segments":[],"categories_sizes":[],"default_left":[0,0,0,0,0,0,0,0,0,0,0,0,0],"id":23,"left_children":[1,-1,3,5,-1,-1,7,9,-1,11,-1,-1,-1],"loss_changes":[1.4076818E3,0E0,1.293294E2,6.1080444E1,0E0,0E0,4.442383E1,4.2538513E1,0E0,3.331958E1,0E0,0E0,0E0],"parents":[2147483647,0,0,2,2,3,3,6,6,7,7,9,9],"right_children":[2,-1,4,6,-1,-1,8,10,-1,12,-1,-1,-1],"split_conditions":[2.7312386E-9,-5.9173387E-2,4E0,7.908989E-1,-5.968404E-2,-8.4350236E-2,9.469996E1,6.726826E0,-6.620455E-2,7.882209E-6,-7.7259175E-2,4.8359524E-2,-5.8906015E-2],"split_indices":[18,0,12,4,0,0,1,4,0,18,0,0,0],"split_type":[0,0,0,0,0,0,0,0,0,0,0,0,0],"sum_hessian":[1.4732614E3,6.000249E2,8.7323645E2,8.428251E2,3.041138E1,8.304779E0,8.3452026E2,8.2650854E2,8.011728E0,8.2047107E2,6.0374627E0,8.139676E2,6.5034804E0],"tree_param":{"num_deleted":"0","num_feature":"42","num_nodes":"13","size_leaf_vector":"1"}},{"base_weights":[2.5514714E-4,-5.8637954E-2,7.8478223E-1,8.5579824E-1,-5.89233E-2,-8.317146E-2,8.812786E-1,9.0680516E-1,-6.8168156E-2,9.2492336E-1,-7.323979E-2,-2.6482572E-3,4.839262E-2],"categories":[],"categories_nodes":[],"categories_segments":[],"categories_sizes":[],"default_left":[0,0,0,0,0,0,0,0,0,0,0,0,0],"id":24,"left_children":[1,-1,3,5,-1,-1,7,9,-1,11,-1,-1,-1],"loss_changes":[1.3159745E3,0E0,1.2047876E2,5.458777E1,0E0,0E0,4.8216675E1,3.6216125E1,0E0,3.387726E1,0E0,0E0,0E0],"parents":[2147483647,0,0,2,2,3,3,6,6,7,7,9,9],"right_children":[2,-1,4,6,-1,-1,8,10,-1,12,-1,-1,-1],"split_conditions":[1.1820149E-6,-5.8637954E-2,4E0,7.908989E-1,-5.89233E-2,-8.317146E-2,9.469996E1,6.726826E0,-6.8168156E-2,3.1148241E1,-7.323979E-2,-2.6482572E-3,4.839262E-2],"split_indices":[19,0,12,4,0,0,1,4,0,1,0,0,0],"split_type":[0,0,0,0,0,0,0,0,0,0,0,0,0],"sum_hessian":[1.4280007E3,5.7210394E2,8.558968E2,8.2656195E2,2.933489E1,7.6327457E0,8.189292E2,8.103101E2,8.619037E0,8.04772E2,5.5381684E0,3.38337E1,7.709383E2],"tree_param":{"num_deleted":"0","num_feature":"42","num_nodes":"13","size_leaf_vector":"1"}},{"base_weights":[2.3995265E-2,-5.8136255E-2,7.8269094E-1,-5.5332184E-1,8.9531225E-1,-6.545099E-2,5.654893E-2,9.177796E-1,-1.02845214E-1,9.3607676E-1,-7.465194E-2,9.5487344E-1,-6.134605E-2,3.7106115E-2,5.3093392E-2],"categories":[],"categories_nodes":[],"categories_segments":[],"categories_sizes":[],"default_left":[0,0,0,0,0,0,0,0,0,0,0,0,0,0,0],"id":25,"left_children":[1,-1,3,5,7,-1,-1,9,-1,11,-1,13,-1,-1,-1],"loss_changes":[1.2689218E3,0E0,1.2984833E2,8.733684E1,5.4502563E1,0E0,0E0,3.615454E1,0E0,3.2990845E1,0E0,1.688623E1,0E0,0E0,0E0],"parents":[2147483647,0,0,2,2,3,3,4,4,7,7,9,9,11,11],"right_children":[2,-1,4,6,8,-1,-1,10,-1,12,-1,14,-1,-1,-1],"split_conditions":[1.1820149E-6,-5.8136255E-2,1.2E1,6.58598E1,2.2469185E-5,-6.545099E-2,5.654893E-2,6.726826E0,-1.02845214E-1,1.3077346E-5,-7.465194E-2,2.1810042E-4,-6.134605E-2,3.7106115E-2,5.3093392E-2],"split_indices":[19,0,10,2,16,0,0,4,0,15,0,28,0,0,0],"split_type":[0,0,0,0,0,0,0,0,0,0,0,0,0,0,0],"sum_hessian":[1.4073394E3,5.4864264E2,8.5869666E2,6.645353E1,7.9224316E2,4.6025845E1,2.0427685E1,7.8694336E2,5.299793E0,7.8162286E2,5.320468E0,7.7544275E2,6.180152E0,2.6213696E2,5.133058E2],"tree_param":{"num_deleted":"0","num_feature":"42","num_nodes":"15","size_leaf_vector":"1"}},{"base_weights":[1.9812163E-2,-5.7667393E-2,7.666018E-1,8.324586E-1,-5.811218E-2,-8.349371E-2,8.5759836E-1,5.641996E-1,1.0482184E0,-2.4333494E0,8.5094273E-1,1.1115108E0,7.129523E-1,-6.883544E-2,-1.3702412E-1,4.941732E-2,-7.804031E-2,5.838089E-2,3.3514913E-2,-1.7819923E-1,5.7343025E-2],"categories":[],"categories_nodes":[],"categories_segments":[],"categories_sizes":[],"default_left":[0,0,0,0,0,0,0,0,0,0,0,0,0,0,0,0,0,0,0,0,0],"id":26,"left_children":[1,-1,3,5,-1,-1,7,9,11,13,15,17,19,-1,-1,-1,-1,-1,-1,-1,-1],"loss_changes":[1.1881445E3,0E0,1.0622931E2,5.1876587E1,0E0,0E0,4.3846558E1,2.7289557E2,9.403137E0,5.2388306E0,9.708624E1,9.178436E0,1.5086238E2,0E0,0E0,0E0,0E0,0E0,0E0,0E0,0E0],"parents":[2147483647,0,0,2,2,3,3,6,6,7,7,8,8,9,9,10,10,11,11,12,12],"right_children":[2,-1,4,6,-1,-1,8,10,12,14,16,18,20,-1,-1,-1,-1,-1,-1,-1,-1],"split_conditions":[1.1820149E-6,-5.7667393E-2,4E0,7.908989E-1,-5.811218E-2,-8.349371E-2,2.1810042E-4,1.5421565E-4,2.248275E-4,1E0,1.2824767E-6,8.3919285E-6,7.874016E-3,-6.883544E-2,-1.3702412E-1,4.941732E-2,-7.804031E-2,5.838089E-2,3.3514913E-2,-1.7819923E-1,5.7343025E-2],"split_indices":[19,0,12,4,0,0,28,32,28,3,20,14,7,0,0,0,0,0,0,0,0],"split_type":[0,0,0,0,0,0,0,0,0,0,0,0,0,0,0,0,0,0,0,0,0],"sum_hessian":[1.3541597E3,5.265065E2,8.276532E2,8.008772E2,2.6776033E1,7.3152547E0,7.9356195E2,3.1408615E2,4.7947577E2,2.676846E1,2.873177E2,4.013858E2,7.808998E1,7.263171E0,1.9505287E1,2.7238916E2,1.4928533E1,3.546413E2,4.6744503E1,6.5282974E0,7.156168E1],"tree_param":{"num_deleted":"0","num_feature":"42","num_nodes":"21","size_leaf_vector":"1"}},{"base_weights":[-6.2461593E-3,-5.7230093E-2,7.43439E-1,8.127601E-1,-5.7649326E-2,-7.943273E-2,8.3692956E-1,8.6045915E-1,-6.478345E-2,8.8037056E-1,-6.985815E-2,4.4924453E-2,-5.799825E-2],"categories":[],"categories_nodes":[],"categories_segments":[],"categories_sizes":[],"default_left":[0,0,0,0,0,0,0,0,0,0,0,0,0],"id":27,"left_children":[1,-1,3,5,-1,-1,7,9,-1,11,-1,-1,-1],"loss_changes":[1.1080135E3,0E0,1.0384735E2,4.5196503E1,0E0,0E0,3.8694946E1,3.455536E1,0E0,2.823114E1,0E0,0E0,0E0],"parents":[2147483647,0,0,2,2,3,3,6,6,7,7,9,9],"right_children":[2,-1,4,6,-1,-1,8,10,-1,12,-1,-1,-1],"split_conditions":[1.1820149E-6,-5.7230093E-2,4E0,7.908989E-1,-5.7649326E-2,-7.943273E-2,9.469996E1,6.726826E0,-6.478345E-2,1.3077346E-5,-6.985815E-2,4.4924453E-2,-5.799825E-2],"split_indices":[19,0,12,4,0,0,1,4,0,15,0,0,0],"split_type":[0,0,0,0,0,0,0,0,0,0,0,0,0],"sum_hessian":[1.2963423E3,5.1453E2,7.818122E2,7.547933E2,2.701894E1,6.8760524E0,7.4791724E2,7.403453E2,7.5719385E0,7.344775E2,5.8677807E0,7.285673E2,5.9101567E0],"tree_param":{"num_deleted":"0","num_feature":"42","num_nodes":"13","size_leaf_vector":"1"}},{"base_weights":[-7.520168E-2,-5.681588E-2,6.8120396E-1,5.935746E-2,1.003416E0,-2.0972211E0,4.7428122E-1,1.0317011E0,-5.8264565E-2,-2.5946922E0,-1.6560984E0,7.1726125E-1,-7.468529E-2,-4.1341553E-3,1.0639852E0,-1.5081316E-1,-7.9313174E-2,-5.6835122E-2,-1.9833802E0,8.625868E-1,-6.797124E-2,5.145951E-1,1.090205E0,-1.1620321E-1,-6.322812E-2,4.854287E-2,-5.9238058E-2,3.923301E-2,1.1096623E-2,5.751924E-2,4.590649E-2],"categories":[],"categories_nodes":[],"categories_segments":[],"categories_sizes":[],"default_left":[0,0,0,0,0,0,0,0,0,0,0,0,0,0,0,0,0,0,0,0,0,0,0,0,0,0,0,0,0,0,0],"id":28,"left_children":[1,-1,3,5,7,9,11,13,-1,15,17,19,-1,-1,21,-1,-1,-1,23,25,-1,27,29,-1,-1,-1,-1,-1,-1,-1,-1],"loss_changes":[9.422346E2,0E0,1.3727792E2,2.1128009E2,2.8893677E1,4.064575E0,9.570387E1,1.6138916E1,0E0,2.0784073E0,1.648426E0,5.4538376E1,0E0,0E0,5.685791E0,0E0,0E0,0E0,1.8152237E-1,3.791916E1,0E0,1.5368428E0,3.220642E0,0E0,0E0,0E0,0E0,0E0,0E0,0E0,0E0],"parents":[2147483647,0,0,2,2,3,3,4,4,5,5,6,6,7,7,9,9,10,10,11,11,14,14,18,18,19,19,21,21,22,22],"right_children":[2,-1,4,6,8,10,12,14,-1,16,18,20,-1,-1,22,-1,-1,-1,24,26,-1,28,30,-1,-1,-1,-1,-1,-1,-1,-1],"split_conditions":[1.1820149E-6,-5.681588E-2,2.1810042E-4,1.5421565E-4,5.712981E-3,1.1711962E-2,1.2095126E-6,5.0278776E-3,-5.8264565E-2,1.9778918E-4,3.9544947E0,1.6325038E-4,-7.468529E-2,-4.1341553E-3,1.8805794E-4,-1.5081316E-1,-7.9313174E-2,-5.6835122E-2,5.490912E0,8.8574265E1,-6.797124E-2,1.6265844E-6,2.2383161E-4,-1.1620321E-1,-6.322812E-2,4.854287E-2,-5.9238058E-2,3.923301E-2,1.1096623E-2,5.751924E-2,4.590649E-2],"split_indices":[19,0,28,32,38,34,20,40,0,29,4,32,0,0,29,0,0,0,4,1,0,20,28,0,0,0,0,0,0,0,0],"split_type":[0,0,0,0,0,0,0,0,0,0,0,0,0,0,0,0,0,0,0,0,0,0,0,0,0,0,0,0,0,0,0],"sum_hessian":[1.1719635E3,4.8753198E2,6.844315E2,2.3400417E2,4.5042734E2,3.7103443E1,1.9690073E2,4.4514587E2,5.281481E0,1.5143512E1,2.195993E1,1.758275E2,2.1073233E1,1.2488998E1,4.3265686E2,9.275048E0,5.8684635E0,1.0217664E1,1.1742266E1,1.648743E2,1.0953197E1,2.0647621E1,4.1200925E2,6.4514303E0,5.290836E0,1.5709253E2,7.781771E0,9.864075E0,1.0783546E1,3.010409E2,1.1096836E2],"tree_param":{"num_deleted":"0","num_feature":"42","num_nodes":"31","size_leaf_vector":"1"}},{"base_weights":[7.2425924E-2,-5.6428373E-2,7.590859E-1,3.9656034E-1,1.0034347E0,-2.0097473E0,7.1202034E-1,1.0537006E0,7.013773E-1,-2.154625E0,-5.6905698E-2,8.784527E-1,-1.4853207E0,1.09332E0,6.903579E-1,1.0303437E0,-1.5403081E-1,-1.2550114E-1,-1.5042095E0,9.506835E-1,-5.8630854E-2,-9.0416975E-2,-5.7778418E-2,1.1271249E0,8.0492806E-1,5.65879E-2,-1.039862E-1,2.5719255E-2,5.6114446E-2,-9.377154E-2,-5.2822568E-2,-5.406749E-2,5.1117945E-2,5.7249296E-2,4.537837E-2,2.2254383E-2,5.6784768E-2],"categories":[],"categories_nodes":[],"categories_segments":[],"categories_sizes":[],"default_left":[0,0,0,0,0,0,0,0,0,0,0,0,0,0,0,0,0,0,0,0,0,0,0,0,0,0,0,0,0,0,0,0,0,0,0,0,0],"id":29,"left_children":[1,-1,3,5,7,9,11,13,15,17,-1,19,21,23,25,27,-1,-1,29,31,-1,-1,-1,33,35,-1,-1,-1,-1,-1,-1,-1,-1,-1,-1,-1,-1],"loss_changes":[1.053481E3,0E0,7.159308E1,2.510771E2,6.622101E0,2.3943024E0,1.0790698E2,5.2000732E0,9.295244E1,3.5727081E0,0E0,4.135231E1,1.3606644E-1,2.7123413E0,5.5401E1,2.607605E0,0E0,0E0,3.0054665E-1,3.9397842E1,0E0,0E0,0E0,2.5427246E-1,4.547394E0,0E0,0E0,0E0,0E0,0E0,0E0,0E0,0E0,0E0,0E0,0E0,0E0],"parents":[2147483647,0,0,2,2,3,3,4,4,5,5,6,6,7,7,8,8,9,9,11,11,12,12,13,13,14,14,15,15,18,18,19,19,23,23,24,24],"right_children":[2,-1,4,6,8,10,12,14,16,18,-1,20,22,24,26,28,-1,-1,30,32,-1,-1,-1,34,36,-1,-1,-1,-1,-1,-1,-1,-1,-1,-1,-1,-1],"split_conditions":[1.1820149E-6,-5.6428373E-2,2.1810042E-4,1.5421565E-4,2.2388124E-4,5.2842383E-6,1.2824767E-6,1.5656528E-4,1.3873662E-4,5.2298528E5,-5.6905698E-2,8.8574265E1,1.5834301E-4,8.3919285E-6,6.486077E1,2.094808E-4,-1.5403081E-1,-1.2550114E-1,7.780878E-6,1.8210012E-4,-5.8630854E-2,-9.0416975E-2,-5.7778418E-2,1.1515019E-7,7.745519E-6,5.65879E-2,-1.039862E-1,2.5719255E-2,5.6114446E-2,-9.377154E-2,-5.2822568E-2,-5.406749E-2,5.1117945E-2,5.7249296E-2,4.537837E-2,2.2254383E-2,5.6784768E-2],"split_indices":[19,0,28,32,26,15,20,33,30,37,0,1,30,14,6,29,0,0,19,28,0,0,0,16,18,0,0,0,0,0,0,0,0,0,0,0,0],"split_type":[0,0,0,0,0,0,0,0,0,0,0,0,0,0,0,0,0,0,0,0,0,0,0,0,0,0,0,0,0,0,0,0,0,0,0,0,0],"sum_hessian":[1.2754125E3,4.6371478E2,8.116977E2,3.2787387E2,4.838238E2,3.737895E1,2.904949E2,4.1266336E2,7.116045E1,3.0789381E1,6.5895677E0,2.7059924E2,1.9895672E1,3.702785E2,4.238484E1,6.613541E1,5.025042E0,1.8061287E1,1.2728093E1,2.619122E2,8.687044E0,7.785357E0,1.2110314E1,3.288257E2,4.1452805E1,3.7069427E1,5.31541E0,1.100038E1,5.513503E1,5.215559E0,7.5125346E0,8.443654E0,2.5346855E2,3.0019037E2,2.8635342E1,2.0977303E1,2.0475502E1],"tree_param":{"num_deleted":"0","num_feature":"42","num_nodes":"37","size_leaf_vector":"1"}},{"base_weights":[-1.9629879E-2,-5.606563E-2,6.878732E-1,1.7861214E-1,9.719602E-1,-2.1770544E0,7.457666E-1,1.0089366E0,4.9033394E-1,-2.9879532E0,-1.5914906E0,-5.529902E-2,8.872662E-1,1.0616342E0,7.321395E-1,-8.5944526E-2,5.5388566E-2,-1.8438457E-1,-9.7176395E-2,-6.1283983E-2,-9.260257E-2,9.771602E-1,-5.946992E-2,5.6491937E-2,8.1199074E-1,2.1855313E-1,5.69681E-2,2.9986268E-2,5.5829197E-2,5.6417E-2,-1.476547E-1,5.440819E-2,-4.4675108E-2],"categories":[],"categories_nodes":[],"categories_segments":[],"categories_sizes":[],"default_left":[0,0,0,0,0,0,0,0,0,0,0,0,0,0,0,0,0,0,0,0,0,0,0,0,0,0,0,0,0,0,0,0,0],"id":30,"left_children":[1,-1,3,5,7,9,11,13,15,17,19,-1,21,23,25,-1,-1,-1,-1,-1,-1,27,-1,-1,29,31,-1,-1,-1,-1,-1,-1,-1],"loss_changes":[8.992122E2,0E0,1.01463715E2,3.3935696E2,7.532318E0,1.865741E1,5.4560005E1,5.31485E0,4.839522E1,7.110153E0,6.63002E-1,0E0,3.6728622E1,5.0186768E0,1.4395039E1,0E0,0E0,0E0,0E0,0E0,0E0,8.969101E0,0E0,0E0,9.6671295E1,3.211421E1,0E0,0E0,0E0,0E0,0E0,0E0,0E0],"parents":[2147483647,0,0,2,2,3,3,4,4,5,5,6,6,7,7,8,8,9,9,10,10,12,12,13,13,14,14,21,21,24,24,25,25],"right_children":[2,-1,4,6,8,10,12,14,16,18,20,-1,22,24,26,-1,-1,-1,-1,-1,-1,28,-1,-1,30,32,-1,-1,-1,-1,-1,-1,-1],"split_conditions":[1.1820149E-6,-5.606563E-2,2.1810042E-4,1.5623517E-4,1.1515019E-7,3.985797E-5,1.8313661E-4,1.538666E-6,1.968504E-2,4.1755936E-3,1.9E1,-5.529902E-2,8.8574265E1,2.248275E-4,8.5405594E1,-8.5944526E-2,5.5388566E-2,-1.8438457E-1,-9.7176395E-2,-6.1283983E-2,-9.260257E-2,1.916358E-4,-5.946992E-2,5.6491937E-2,7.10798E1,4.270871E-6,5.69681E-2,2.9986268E-2,5.5829197E-2,5.6417E-2,-1.476547E-1,5.440819E-2,-4.4675108E-2],"split_indices":[19,0,28,32,16,34,28,14,7,38,10,0,1,28,6,0,0,0,0,0,0,28,0,0,0,19,0,0,0,0,0,0,0],"split_type":[0,0,0,0,0,0,0,0,0,0,0,0,0,0,0,0,0,0,0,0,0,0,0,0,0,0,0,0,0,0,0,0,0],"sum_hessian":[1.1516691E3,4.501448E2,7.0152423E2,2.517894E2,4.4973486E2,4.8307293E1,2.034821E2,4.1665195E2,3.308293E1,1.8535849E1,2.9771444E1,1.3961221E1,1.8952087E2,3.4763293E2,6.9019E1,6.836751E0,2.6246181E1,9.583988E0,8.951859E0,1.4757234E1,1.5014211E1,1.8216484E2,7.3560395E0,2.7026785E2,7.736508E1,3.1202854E1,3.7816143E1,5.056943E1,1.3159541E2,7.20146E1,5.350482E0,1.7522223E1,1.3680632E1],"tree_param":{"num_deleted":"0","num_feature":"42","num_nodes":"33","size_leaf_vector":"1"}},{"base_weights":[-2.3462163E-2,-5.572274E-2,6.817926E-1,7.479133E-1,-5.5580165E-2,-5.831961E-2,7.82235E-1,8.041954E-1,-6.63886E-2,8.2769156E-1,-5.7567533E-2,3.0807419E-2,4.8036635E-2],"categories":[],"categories_nodes":[],"categories_segments":[],"categories_sizes":[],"default_left":[0,0,0,0,0,0,0,0,0,0,0,0,0],"id":31,"left_children":[1,-1,3,5,-1,-1,7,9,-1,11,-1,-1,-1],"loss_changes":[8.44448E2,0E0,7.9878784E1,4.319232E1,0E0,0E0,3.0388245E1,2.9756592E1,0E0,1.6857758E1,0E0,0E0,0E0],"parents":[2147483647,0,0,2,2,3,3,6,6,7,7,9,9],"right_children":[2,-1,4,6,-1,-1,8,10,-1,12,-1,-1,-1],"split_conditions":[2.7312386E-9,-5.572274E-2,4E0,1.8283882E-4,-5.5580165E-2,-5.831961E-2,7.881741E-6,9.469996E1,-6.63886E-2,2.1739688E-4,-5.7567533E-2,3.0807419E-2,4.8036635E-2],"split_indices":[18,0,12,28,0,0,18,1,0,28,0,0,0],"split_type":[0,0,0,0,0,0,0,0,0,0,0,0,0],"sum_hessian":[1.0955138E3,4.2990018E2,6.656135E2,6.425079E2,2.3105656E1,1.0735713E1,6.3177216E2,6.258771E2,5.895091E0,6.190163E2,6.860819E0,2.4117122E2,3.7784506E2],"tree_param":{"num_deleted":"0","num_feature":"42","num_nodes":"13","size_leaf_vector":"1"}},{"base_weights":[6.126988E-2,-5.5399675E-2,7.1033216E-1,-5.3058785E-1,8.1155837E-1,-6.262815E-2,5.389152E-2,8.409864E-1,-5.3568352E-2,5.7729244E-1,9.81071E-1,-2.151347E0,9.27538E-1,1.0333956E0,6.780018E-1,-1.176311E-1,-6.194785E-2,1.9786507E-2,5.4152448E-2,2.684687E-2,5.363912E-2,-1.2838513E-1,5.2313127E-2],"categories":[],"categories_nodes":[],"categories_segments":[],"categories_sizes":[],"default_left":[0,0,0,0,0,0,0,0,0,0,0,0,0,0,0,0,0,0,0,0,0,0,0],"id":32,"left_children":[1,-1,3,5,7,-1,-1,9,-1,11,13,15,17,19,21,-1,-1,-1,-1,-1,-1,-1,-1],"loss_changes":[8.6060406E2,0E0,9.202057E1,6.591171E1,3.8277985E1,0E0,0E0,2.398819E1,0E0,2.2471509E2,6.1607666E0,2.0089645E0,1.6709991E1,6.6015625E0,8.230426E1,0E0,0E0,0E0,0E0,0E0,0E0,0E0,0E0],"parents":[2147483647,0,0,2,2,3,3,4,4,7,7,9,9,10,10,11,11,12,12,13,13,14,14],"right_children":[2,-1,4,6,8,-1,-1,10,-1,12,14,16,18,20,22,-1,-1,-1,-1,-1,-1,-1,-1],"split_conditions":[1.1820149E-6,-5.5399675E-2,1.2E1,1.8932253E-5,4E0,-6.262815E-2,5.389152E-2,2.1810042E-4,-5.3568352E-2,1.5421565E-4,2.2388124E-4,1.538666E-6,1.5623517E-4,5.0278776E-3,7.874016E-3,-1.176311E-1,-6.194785E-2,1.9786507E-2,5.4152448E-2,2.684687E-2,5.363912E-2,-1.2838513E-1,5.2313127E-2],"split_indices":[19,0,10,14,12,0,0,28,0,32,26,15,32,40,7,0,0,0,0,0,0,0,0],"split_type":[0,0,0,0,0,0,0,0,0,0,0,0,0,0,0,0,0,0,0,0,0,0,0],"sum_hessian":[1.131941E3,4.0380078E2,7.281403E2,5.459727E1,6.73543E2,3.783529E1,1.6761984E1,6.6372314E2,9.8199E0,2.3204497E2,4.3167816E2,2.5811817E1,2.0623315E2,3.660672E2,6.561098E1,1.9853558E1,5.958259E0,4.7463787E1,1.5876936E2,2.7982935E1,3.3808426E2,6.077119E0,5.953386E1],"tree_param":{"num_deleted":"0","num_feature":"42","num_nodes":"23","size_leaf_vector":"1"}},{"base_weights":[-1.6019868E-2,-5.5097383E-2,6.5417594E-1,3.2270163E-1,9.1519845E-1,-1.799497E0,6.4678925E-1,9.5373905E-1,-7.078489E-2,-1.8971003E0,-5.2112874E-2,8.2562655E-1,-7.122373E-2,1.0061309E0,4.0031135E-2,-5.899126E-2,-1.0216687E-1,9.112306E-1,-5.83916E-2,1.0621208E0,7.8521025E-1,-3.318423E-2,5.0096042E-2,-5.1935162E-2,4.923394E-2,3.0950025E-2,5.4611035E-2,5.27799E-2,-1.1168646E-1],"categories":[],"categories_nodes":[],"categories_segments":[],"categories_sizes":[],"default_left":[0,0,0,0,0,0,0,0,0,0,0,0,0,0,0,0,0,0,0,0,0,0,0,0,0,0,0,0,0],"id":33,"left_children":[1,-1,3,5,7,9,11,13,-1,15,-1,17,-1,19,21,-1,-1,23,-1,25,27,-1,-1,-1,-1,-1,-1,-1,-1],"loss_changes":[7.467135E2,0E0,5.4599976E1,1.944681E2,3.31882E1,7.942505E-1,9.176465E1,1.6678223E1,0E0,9.4558716E-1,0E0,3.9588425E1,0E0,3.2511292E0,1.4189994E1,0E0,0E0,3.2104065E1,0E0,2.8003845E0,5.9997795E1,0E0,0E0,0E0,0E0,0E0,0E0,0E0,0E0],"parents":[2147483647,0,0,2,2,3,3,4,4,5,5,6,6,7,7,9,9,11,11,13,13,14,14,17,17,19,19,20,20],"right_children":[2,-1,4,6,8,10,12,14,-1,16,-1,18,-1,20,22,-1,-1,24,-1,26,28,-1,-1,-1,-1,-1,-1,-1,-1],"split_conditions":[1.1820149E-6,-5.5097383E-2,2.1810042E-4,1.5421565E-4,1.469413E-4,1.0288503E-5,1.2824767E-6,1.8881638E-5,-7.078489E-2,2E0,-5.2112874E-2,8.8574265E1,-7.122373E-2,2.2388124E-4,7.745519E-6,-5.899126E-2,-1.0216687E-1,1.8210012E-4,-5.83916E-2,5.0278776E-3,7.879799E0,-3.318423E-2,5.0096042E-2,-5.1935162E-2,4.923394E-2,3.0950025E-2,5.4611035E-2,5.27799E-2,-1.1168646E-1],"split_indices":[19,0,28,32,31,15,20,14,0,3,0,1,0,26,18,0,0,28,0,40,25,0,0,0,0,0,0,0,0],"split_type":[0,0,0,0,0,0,0,0,0,0,0,0,0,0,0,0,0,0,0,0,0,0,0,0,0,0,0,0,0],"sum_hessian":[1.0240188E3,3.9055414E2,6.3346466E2,2.8005597E2,3.5340872E2,3.6499104E1,2.4355685E2,3.482415E2,5.1672263E0,3.0998333E1,5.500773E0,2.2475262E2,1.8804228E1,3.2926056E2,1.8980934E1,6.785269E0,2.4213064E1,2.1601912E2,8.733509E0,2.5964807E2,6.961248E1,1.1140556E1,7.8403788E0,7.3643775E0,2.0865474E2,1.7886993E1,2.4176108E2,6.448711E1,5.125372E0],"tree_param":{"num_deleted":"0","num_feature":"42","num_nodes":"29","size_leaf_vector":"1"}},{"base_weights":[-4.9229204E-3,-5.4807425E-2,6.518972E-1,-5.179496E-1,7.519601E-1,-6.1218865E-2,5.2444834E-2,-5.07102E-1,8.277035E-1,7.500407E-1,-1.2041197E-1,8.84654E-1,-2.756565E-1,2.334456E-2,5.1263686E-2,9.0607744E-1,-4.88253E-2,-9.978011E-2,5.254006E-2,4.870371E-2,2.2750115E-2],"categories":[],"categories_nodes":[],"categories_segments":[],"categories_sizes":[],"default_left":[0,0,0,0,0,0,0,0,0,0,0,0,0,0,0,0,0,0,0,0,0],"id":34,"left_children":[1,-1,3,5,7,-1,-1,9,11,13,-1,15,17,-1,-1,19,-1,-1,-1,-1,-1],"loss_changes":[7.049626E2,0E0,7.226355E1,5.5490288E1,5.4399506E1,0E0,0E0,8.005348E1,3.3816986E1,1.1165857E0,0E0,2.115216E1,6.366501E1,0E0,0E0,1.4985809E1,0E0,0E0,0E0,0E0,0E0],"parents":[2147483647,0,0,2,2,3,3,4,4,7,7,8,8,9,9,11,11,12,12,15,15],"right_children":[2,-1,4,6,8,-1,-1,10,12,14,-1,16,18,-1,-1,20,-1,-1,-1,-1,-1],"split_conditions":[2.7312386E-9,-5.4807425E-2,1.2E1,2.0398515E-4,3.1148241E1,-6.1218865E-2,5.2444834E-2,2.8012041E1,1.1515019E-7,1.7750594E-6,-1.2041197E-1,4E0,1.968504E-2,2.334456E-2,5.1263686E-2,5.1060476E0,-4.88253E-2,-9.978011E-2,5.254006E-2,4.870371E-2,2.2750115E-2],"split_indices":[18,0,10,27,1,0,0,1,16,20,0,12,7,0,0,4,0,0,0,0,0],"split_type":[0,0,0,0,0,0,0,0,0,0,0,0,0,0,0,0,0,0,0,0,0],"sum_hessian":[9.815725E2,3.6857E2,6.130025E2,4.797264E1,5.6502985E2,3.3215626E1,1.4757013E1,3.1739405E1,5.3329047E2,1.947011E1,1.2269293E1,5.0730392E2,2.5986532E1,1.0926096E1,8.544015E0,5.020382E2,5.2657027E0,1.1095343E1,1.489119E1,4.3526523E2,6.6773E1],"tree_param":{"num_deleted":"0","num_feature":"42","num_nodes":"21","size_leaf_vector":"1"}},{"base_weights":[-2.8992701E-2,-5.454126E-2,6.1854583E-1,-3.2690284E-1,7.157668E-1,-6.0731143E-2,5.318767E-2,-4.365246E-1,7.859628E-1,-1.0846758E-1,5.3638365E-2,8.321269E-1,-5.838507E-1,5.68856E-1,9.7043437E-1,-9.520175E-2,3.934231E-2,-1.3407366E-1,3.6034178E-2,2.2576472E-2,5.0736703E-2],"categories":[],"categories_nodes":[],"categories_segments":[],"categories_sizes":[],"default_left":[0,0,0,0,0,0,0,0,0,0,0,0,0,0,0,0,0,0,0,0,0],"id":35,"left_children":[1,-1,3,5,7,-1,-1,9,11,-1,-1,13,15,17,19,-1,-1,-1,-1,-1,-1],"loss_changes":[6.530649E2,0E0,5.4468185E1,7.0057434E1,4.364386E1,0E0,0E0,8.440151E1,3.241681E1,0E0,0E0,1.7249817E1,3.23516E1,8.621925E1,6.8771057E0,0E0,0E0,0E0,0E0,0E0,0E0],"parents":[2147483647,0,0,2,2,3,3,4,4,7,7,8,8,11,11,12,12,13,13,14,14],"right_children":[2,-1,4,6,8,-1,-1,10,12,-1,-1,14,16,18,20,-1,-1,-1,-1,-1,-1],"split_conditions":[1.1820149E-6,-5.454126E-2,1.2E1,6.58598E1,3.1148241E1,-6.0731143E-2,5.318767E-2,6.554973E-8,8.299432E1,-1.0846758E-1,5.3638365E-2,1E0,5.661497E-3,3.0535504E-3,1.3903016E-4,-9.520175E-2,3.934231E-2,-1.3407366E-1,3.6034178E-2,2.2576472E-2,5.0736703E-2],"split_indices":[19,0,10,2,1,0,0,17,1,0,0,5,39,41,32,0,0,0,0,0,0],"split_type":[0,0,0,0,0,0,0,0,0,0,0,0,0,0,0,0,0,0,0,0,0],"sum_hessian":[9.478242E2,3.5879245E2,5.8903174E2,5.470242E1,5.3432935E2,3.346607E1,2.1236351E1,3.0381865E1,5.0394745E2,1.3939971E1,1.6441895E1,4.8789734E2,1.6050116E1,1.6979747E2,3.1809988E2,7.9775004E0,8.072616E0,6.8339853E0,1.6296349E2,2.590099E1,2.9219888E2],"tree_param":{"num_deleted":"0","num_feature":"42","num_nodes":"21","size_leaf_vector":"1"}},{"base_weights":[2.5061464E-2,-5.4284222E-2,6.5254575E-1,8.5402626E-1,8.367321E-2,8.80152E-1,-5.4512527E-2,-1.7936752E0,5.985382E-1,-1.4205529E-2,9.109242E-1,-1.2242129E-1,-6.9119364E-2,-5.355788E-2,7.784446E-1,9.6349895E-1,1.8609408E-1,8.908157E-1,-5.6451853E-2,4.9910795E-2,2.570424E-2,-1.8208794E-1,5.4650813E-2,5.0561476E-2,-5.5711783E-2],"categories":[],"categories_nodes":[],"categories_segments":[],"categories_sizes":[],"default_left":[0,0,0,0,0,0,0,0,0,0,0,0,0,0,0,0,0,0,0,0,0,0,0,0,0],"id":36,"left_children":[1,-1,3,5,7,9,-1,11,13,-1,15,-1,-1,-1,17,19,21,23,-1,-1,-1,-1,-1,-1,-1],"loss_changes":[6.552527E2,0E0,6.878244E1,2.3487823E1,1.540117E2,1.5957367E1,0E0,5.853203E0,3.8358833E1,0E0,1.6097809E1,0E0,0E0,0E0,2.5301811E1,5.6966553E0,1.0856418E2,2.7105896E1,0E0,0E0,0E0,0E0,0E0,0E0,0E0],"parents":[2147483647,0,0,2,2,3,3,4,4,5,5,7,7,8,8,10,10,14,14,15,15,16,16,17,17],"right_children":[2,-1,4,6,8,10,-1,12,14,-1,16,-1,-1,-1,18,20,22,24,-1,-1,-1,-1,-1,-1,-1],"split_conditions":[1.1820149E-6,-5.4284222E-2,1.4796417E-4,5.712981E-3,1.5696013E-4,3.4417675E-7,-5.4512527E-2,1.1756002E-5,1.8313661E-4,-1.4205529E-2,1.8881638E-5,-1.2242129E-1,-6.9119364E-2,-5.355788E-2,1.2487881E-6,8.43098E1,9.9E1,8.8574265E1,-5.6451853E-2,4.9910795E-2,2.570424E-2,-1.8208794E-1,5.4650813E-2,5.0561476E-2,-5.5711783E-2],"split_indices":[19,0,31,38,32,20,0,34,28,0,14,0,0,0,20,0,5,1,0,0,0,0,0,0,0],"split_type":[0,0,0,0,0,0,0,0,0,0,0,0,0,0,0,0,0,0,0,0,0,0,0,0,0],"sum_hessian":[9.381207E2,3.3838892E2,5.997318E2,4.4250595E2,1.5722586E2,4.3717877E2,5.3271785E0,3.330442E1,1.2392143E2,1.104537E1,4.2613342E2,1.0938225E1,2.2366196E1,1.1571676E1,1.12349754E2,3.970076E2,2.9125803E1,1.066027E2,5.747054E0,3.674047E2,2.960291E1,5.0012937E0,2.412451E1,1.0103093E2,5.5717764E0],"tree_param":{"num_deleted":"0","num_feature":"42","num_nodes":"25","size_leaf_vector":"1"}},{"base_weights":[4.5865893E-2,-5.4040592E-2,6.560694E-1,7.083324E-1,-5.276818E-2,4.0965435E-1,9.1937697E-1,-1.7684155E0,7.1255493E-1,9.951512E-1,4.443806E-1,-5.4679137E-2,-1.9098698E0,8.563729E-1,-6.867592E-2,1.0493512E0,5.3909504E-1,-8.200167E-2,5.324608E-2,-1.0334184E-1,-5.718121E-2,1.3185538E-2,4.7661167E-2,2.7949644E-2,5.3846676E-2,-8.78083E-2,5.324046E-2,5.1389705E-2,-6.0879856E-2],"categories":[],"categories_nodes":[],"categories_segments":[],"categories_sizes":[],"default_left":[0,0,0,0,0,0,0,0,0,0,0,0,0,0,0,0,0,0,0,0,0,0,0,0,0,0,0,0,0],"id":37,"left_children":[1,-1,3,5,-1,7,9,11,13,15,17,-1,19,21,-1,23,25,27,-1,-1,-1,-1,-1,-1,-1,-1,-1,-1,-1],"loss_changes":[6.335735E2,0E0,5.421295E1,3.6223236E1,0E0,1.6105408E2,1.1774567E1,7.6161194E-1,6.518433E1,6.6500854E0,1.5930933E1,0E0,4.4407654E-1,1.1240356E1,0E0,2.9125977E0,4.176753E1,3.54955E1,0E0,0E0,0E0,0E0,0E0,0E0,0E0,0E0,0E0,0E0,0E0],"parents":[2147483647,0,0,2,2,3,3,5,5,6,6,7,7,8,8,9,9,10,10,12,12,13,13,15,15,16,16,17,17],"right_children":[2,-1,4,6,-1,8,10,12,14,16,18,-1,20,22,-1,24,26,28,-1,-1,-1,-1,-1,-1,-1,-1,-1,-1,-1],"split_conditions":[2.7312386E-9,-5.4040592E-2,4E0,2.1810042E-4,-5.276818E-2,1.5421565E-4,8.3919285E-6,2E0,1.2824767E-6,2.2388124E-4,8.5405594E1,-5.4679137E-2,1.538666E-6,1.4929623E-4,-6.867592E-2,4.757955E-3,1.1035833E-6,8.3280224E-7,5.324608E-2,-1.0334184E-1,-5.718121E-2,1.3185538E-2,4.7661167E-2,2.7949644E-2,5.3846676E-2,-8.78083E-2,5.324046E-2,5.1389705E-2,-6.0879856E-2],"split_indices":[18,0,12,28,0,32,14,3,20,26,6,0,15,30,0,38,20,20,0,0,0,0,0,0,0,0,0,0,0],"split_type":[0,0,0,0,0,0,0,0,0,0,0,0,0,0,0,0,0,0,0,0,0,0,0,0,0,0,0,0,0],"sum_hessian":[9.195264E2,3.2277832E2,5.967481E2,5.796336E2,1.7114506E1,2.4120804E2,3.3842557E2,2.8858282E1,2.1234975E2,2.9092105E2,4.750453E1,6.513846E0,2.2344437E1,1.9920561E2,1.3144143E1,2.5885635E2,3.206469E1,2.6171803E1,2.133273E1,1.7136612E1,5.207825E0,2.8503778E1,1.7070183E2,1.4917605E1,2.4393875E2,5.539364E0,2.6525326E1,1.3284268E1,1.2887533E1],"tree_param":{"num_deleted":"0","num_feature":"42","num_nodes":"29","size_leaf_vector":"1"}},{"base_weights":[2.993492E-2,-5.3813953E-2,6.3701326E-1,2.8316358E-1,8.989036E-1,-8.106421E-2,5.9458685E-1,9.8119247E-1,5.755028E-1,7.7916986E-1,-6.846624E-2,1.0231873E0,3.3416748E-1,-1.3771908E-1,9.956535E-1,8.6083186E-1,-5.5115063E-2,1.066888E0,7.9451114E-1,1.4996177E-3,3.2034513E-2,6.705057E-1,5.4035958E-2,-5.019595E-2,4.679623E-2,4.341307E-2,5.4716744E-2,5.3330857E-2,-6.188344E-3,4.744882E-2,1.8465688E-2],"categories":[],"categories_nodes":[],"categories_segments":[],"categories_sizes":[],"default_left":[0,0,0,0,0,0,0,0,0,0,0,0,0,0,0,0,0,0,0,0,0,0,0,0,0,0,0,0,0,0,0],"id":38,"left_children":[1,-1,3,5,7,-1,9,11,13,15,-1,17,19,-1,21,23,-1,25,27,-1,-1,29,-1,-1,-1,-1,-1,-1,-1,-1,-1],"loss_changes":[5.867457E2,0E0,5.201973E1,1.4412564E2,8.049957E0,0E0,7.653684E1,6.6311646E0,9.798819E1,3.0286003E1,0E0,1.5557709E0,1.577575E0,0E0,9.6770096E-1,2.6643356E1,0E0,1.3471985E-1,1.0752422E1,0E0,0E0,9.3468237E-1,0E0,0E0,0E0,0E0,0E0,0E0,0E0,0E0,0E0],"parents":[2147483647,0,0,2,2,3,3,4,4,6,6,7,7,8,8,9,9,11,11,12,12,14,14,15,15,17,17,18,18,21,21],"right_children":[2,-1,4,6,8,-1,10,12,14,16,-1,18,20,-1,22,24,-1,26,28,-1,-1,30,-1,-1,-1,-1,-1,-1,-1,-1,-1],"split_conditions":[2.3405401E-7,-5.3813953E-2,2.1810042E-4,1.5421565E-4,2.248275E-4,-8.106421E-2,1.2824767E-6,6.48E2,1.3305392E7,1.6004838E7,-6.846624E-2,2.21671E-4,2.1807512E-6,-1.3771908E-1,7.3E1,1.8210012E-4,-5.5115063E-2,2.1148274E-4,3.862455E-6,1.4996177E-3,3.2034513E-2,4.3352208E-7,5.4035958E-2,-5.019595E-2,4.679623E-2,4.341307E-2,5.4716744E-2,5.3330857E-2,-6.188344E-3,4.744882E-2,1.8465688E-2],"split_indices":[18,0,28,32,28,0,20,3,23,23,0,26,18,0,5,28,0,26,19,0,0,18,0,0,0,0,0,0,0,0,0],"split_type":[0,0,0,0,0,0,0,0,0,0,0,0,0,0,0,0,0,0,0,0,0,0,0,0,0,0,0,0,0,0,0],"sum_hessian":[8.716866E2,3.0859467E2,5.630919E2,2.4038295E2,3.2270898E2,3.319281E1,2.0719014E2,2.5563025E2,6.707874E1,1.899413E2,1.7248838E1,2.3950401E2,1.6126225E1,6.8929877E0,6.0185753E1,1.8256006E2,7.3812327E0,1.9800008E2,4.1503937E1,8.645142E0,7.481083E0,1.4322576E1,4.586318E1,6.5882154E0,1.7597185E2,2.800057E1,1.6999951E2,3.1892073E1,9.611865E0,6.3244715E0,7.9981036E0],"tree_param":{"num_deleted":"0","num_feature":"42","num_nodes":"31","size_leaf_vector":"1"}},{"base_weights":[3.633434E-2,-5.3592224E-2,6.274662E-1,6.782601E-1,-5.1762518E-2,4.1995302E-1,8.694251E-1,-1.7079972E0,7.07477E-1,9.445664E-1,3.7541234E-1,-5.1239934E-2,-9.098066E-2,8.523421E-1,-6.94127E-2,1.0156047E0,4.2372945E-1,8.819637E-1,-1.1859806E-1,2.0980135E-2,5.0027367E-2,1.6384376E-2,5.3023886E-2,-6.157815E-3,5.2524667E-2,3.311644E-2,5.1867213E-2],"categories":[],"categories_nodes":[],"categories_segments":[],"categories_sizes":[],"default_left":[0,0,0,0,0,0,0,0,0,0,0,0,0,0,0,0,0,0,0,0,0,0,0,0,0,0,0],"id":39,"left_children":[1,-1,3,5,-1,7,9,11,13,15,17,-1,-1,19,-1,21,23,25,-1,-1,-1,-1,-1,-1,-1,-1,-1],"loss_changes":[5.4573956E2,0E0,4.6582504E1,2.5694687E1,0E0,1.3972247E2,1.0869095E1,2.1256256E-1,6.1948364E1,9.255325E0,5.995493E1,0E0,0E0,1.1626404E1,0E0,6.7413483E0,1.14871025E1,5.358448E-1,0E0,0E0,0E0,0E0,0E0,0E0,0E0,0E0,0E0],"parents":[2147483647,0,0,2,2,3,3,5,5,6,6,7,7,8,8,9,9,10,10,13,13,15,15,16,16,17,17],"right_children":[2,-1,4,6,-1,8,10,12,14,16,18,-1,-1,20,-1,22,24,26,-1,-1,-1,-1,-1,-1,-1,-1,-1],"split_conditions":[2.7312386E-9,-5.3592224E-2,4E0,2.1810042E-4,-5.1762518E-2,1.5421565E-4,2.2388124E-4,2E0,1.2824767E-6,8.3919285E-6,1.3873662E-4,-5.1239934E-2,-9.098066E-2,3.985797E-5,-6.94127E-2,2.0797297E-6,7.745519E-6,7.3880936E1,-1.1859806E-1,2.0980135E-2,5.0027367E-2,1.6384376E-2,5.3023886E-2,-6.157815E-3,5.2524667E-2,3.311644E-2,5.1867213E-2],"split_indices":[18,0,12,28,0,32,26,3,20,14,30,0,0,34,0,36,18,1,0,0,0,0,0,0,0,0,0],"split_type":[0,0,0,0,0,0,0,0,0,0,0,0,0,0,0,0,0,0,0,0,0,0,0,0,0,0,0],"sum_hessian":[8.3106195E2,2.8881506E2,5.422469E2,5.267475E2,1.5499383E1,2.2539069E2,3.013568E2,2.6241117E1,1.9914957E2,2.6077924E2,4.0577595E1,5.114828E0,2.112629E1,1.8682854E2,1.2321028E1,2.2864394E2,3.2135296E1,3.4834E1,5.743594E0,4.8639336E1,1.381892E2,1.4509594E1,2.1413434E2,1.7590302E1,1.4544994E1,1.6613274E1,1.8220726E1],"tree_param":{"num_deleted":"0","num_feature":"42","num_nodes":"27","size_leaf_vector":"1"}},{"base_weights":[3.8482264E-2,-5.339065E-2,6.187891E-1,1.8704045E-1,8.783806E-1,-2.0650043E0,4.7210613E-1,9.428317E-1,5.028289E-1,-1.501984E-1,-7.860511E-2,6.640327E-1,-1.9242694E0,9.972405E-1,3.1385246E-1,-1.1016615E-1,4.930612E-2,8.1045043E-1,-6.0844686E-2,-1.1209712E-1,-5.8452483E-2,3.6271584E-1,1.0523266E0,-2.0117758E-2,3.9326012E-2,4.6050675E-2,-6.192679E-2,-2.5444029E-2,4.7499247E-2,5.315817E-2,3.0262252E-2],"categories":[],"categories_nodes":[],"categories_segments":[],"categories_sizes":[],"default_left":[0,0,0,0,0,0,0,0,0,0,0,0,0,0,0,0,0,0,0,0,0,0,0,0,0,0,0,0,0,0,0],"id":40,"left_children":[1,-1,3,5,7,9,11,13,15,-1,-1,17,19,21,23,-1,-1,25,-1,-1,-1,27,29,-1,-1,-1,-1,-1,-1,-1,-1],"loss_changes":[5.2615546E2,0E0,6.0082184E1,1.3136836E2,7.644867E0,5.925659E0,8.457257E1,9.44548E0,6.923462E1,0E0,0E0,4.7368767E1,6.62426E-1,8.775726E0,8.495979E0,0E0,0E0,3.6674988E1,0E0,0E0,0E0,1.1976614E1,5.219116E-1,0E0,0E0,0E0,0E0,0E0,0E0,0E0,0E0],"parents":[2147483647,0,0,2,2,3,3,4,4,5,5,6,6,7,7,8,8,11,11,12,12,13,13,14,14,17,17,21,21,22,22],"right_children":[2,-1,4,6,8,10,12,14,16,-1,-1,18,20,22,24,-1,-1,26,-1,-1,-1,28,30,-1,-1,-1,-1,-1,-1,-1,-1],"split_conditions":[2.7312386E-9,-5.339065E-2,2.1810042E-4,1.4929623E-4,2.2388124E-4,3.628843E5,7.49498E1,1.5656528E-4,7.874016E-3,-1.501984E-1,-7.860511E-2,1.0441882E-5,1.9280603E-6,5.0278776E-3,1.5762521E-4,-1.1016615E-1,4.930612E-2,1E2,-6.0844686E-2,-1.1209712E-1,-5.8452483E-2,2.4963126E-6,1.1906804E-5,-2.0117758E-2,3.9326012E-2,4.6050675E-2,-6.192679E-2,-2.5444029E-2,4.7499247E-2,5.315817E-2,3.0262252E-2],"split_indices":[18,0,28,30,26,37,0,33,7,0,0,21,18,40,33,0,0,5,0,0,0,18,21,0,0,0,0,0,0,0,0],"split_type":[0,0,0,0,0,0,0,0,0,0,0,0,0,0,0,0,0,0,0,0,0,0,0,0,0,0,0,0,0,0,0],"sum_hessian":[8.1753955E2,2.8100064E2,5.3653894E2,2.0211122E2,3.3442767E2,2.2007334E1,1.801039E2,2.8415186E2,5.027582E1,5.822051E0,1.6185282E1,1.6741821E2,1.2685684E1,2.6098987E2,2.3161993E1,7.078957E0,4.3196865E1,1.5585504E2,1.1563166E1,7.543864E0,5.14182E0,2.14537E1,2.3953616E2,9.267784E0,1.3894209E1,1.4839801E2,7.457036E0,8.68996E0,1.276374E1,2.3252205E2,7.014112E0],"tree_param":{"num_deleted":"0","num_feature":"42","num_nodes":"31","size_leaf_vector":"1"}},{"base_weights":[1.5135447E-2,-5.3199213E-2,5.983251E-1,6.504491E-1,-5.170987E-2,-4.1247672E-1,7.0603615E-1,-1.0461718E-1,5.121674E-2,1.8155437E-2,7.752073E-1,-5.8781516E-2,5.2109867E-2,8.89637E-1,3.3855844E-1,2.9450506E-2,5.0099563E-2,2.8168542E-2,-1.1362376E-1],"categories":[],"categories_nodes":[],"categories_segments":[],"categories_sizes":[],"default_left":[0,0,0,0,0,0,0,0,0,0,0,0,0,0,0,0,0,0,0],"id":41,"left_children":[1,-1,3,5,-1,7,9,-1,-1,11,13,-1,-1,15,17,-1,-1,-1,-1],"loss_changes":[4.8621735E2,0E0,4.3349487E1,2.9043304E1,0E0,6.203825E1,2.200705E1,0E0,0E0,5.4171577E1,2.0709244E1,0E0,0E0,1.0642914E1,5.348117E1,0E0,0E0,0E0,0E0],"parents":[2147483647,0,0,2,2,3,3,5,5,6,6,9,9,10,10,13,13,14,14],"right_children":[2,-1,4,6,-1,8,10,-1,-1,12,14,-1,-1,16,18,-1,-1,-1,-1],"split_conditions":[1.1820149E-6,-5.3199213E-2,4E0,3.1148241E1,-5.170987E-2,6.554973E-8,1.2E1,-1.0461718E-1,5.121674E-2,6.58598E1,4.5529957E0,-5.8781516E-2,5.2109867E-2,3.823169E-3,2.1998459E-4,2.9450506E-2,5.0099563E-2,2.8168542E-2,-1.1362376E-1],"split_indices":[19,0,12,1,0,17,10,0,0,2,4,0,0,39,26,0,0,0,0],"split_type":[0,0,0,0,0,0,0,0,0,0,0,0,0,0,0,0,0,0,0],"sum_hessian":[7.705819E2,2.7005478E2,5.0052713E2,4.8562344E2,1.4903667E1,2.3815088E1,4.6180838E2,1.0768599E1,1.3046489E1,4.2310364E1,4.1949802E2,1.9467697E1,2.2842667E1,3.3156857E2,8.792943E1,9.190375E1,2.3966483E2,8.168086E1,6.248563E0],"tree_param":{"num_deleted":"0","num_feature":"42","num_nodes":"19","size_leaf_vector":"1"}},{"base_weights":[9.837141E-3,-5.301231E-2,5.773902E-1,-3.361522E-1,6.6586196E-1,-5.8167096E-2,5.0840236E-2,-8.4023364E-2,7.211232E-1,-9.389364E-2,5.2109063E-2,7.7468944E-1,-8.997615E-2,8.8018095E-1,3.7829384E-1,-9.7606294E-2,5.0930917E-2,2.9219145E-2,5.0047707E-2,3.5463147E-2,-1.23451725E-1],"categories":[],"categories_nodes":[],"categories_segments":[],"categories_sizes":[],"default_left":[0,0,0,0,0,0,0,0,0,0,0,0,0,0,0,0,0,0,0,0,0],"id":42,"left_children":[1,-1,3,5,7,-1,-1,9,11,-1,-1,13,15,17,19,-1,-1,-1,-1,-1,-1],"loss_changes":[4.4875146E2,0E0,3.924547E1,4.9634666E1,1.8315231E1,0E0,0E0,6.484758E1,1.789975E1,0E0,0E0,1.5768951E1,5.6320923E1,1.0252884E1,7.967633E1,0E0,0E0,0E0,0E0,0E0,0E0],"parents":[2147483647,0,0,2,2,3,3,4,4,7,7,8,8,11,11,12,12,13,13,14,14],"right_children":[2,-1,4,6,8,-1,-1,10,12,-1,-1,14,16,18,20,-1,-1,-1,-1,-1,-1],"split_conditions":[1.1820149E-6,-5.301231E-2,1.2E1,6.58598E1,5.61211E6,-5.8167096E-2,5.0840236E-2,6.554973E-8,1.1515019E-7,-9.389364E-2,5.2109063E-2,4.5529957E0,1.968504E-2,1E0,1.12170655E-8,-9.7606294E-2,5.0930917E-2,2.9219145E-2,5.0047707E-2,3.5463147E-2,-1.23451725E-1],"split_indices":[19,0,10,2,23,0,0,17,16,0,0,4,7,5,14,0,0,0,0,0,0],"split_type":[0,0,0,0,0,0,0,0,0,0,0,0,0,0,0,0,0,0,0,0,0],"sum_hessian":[7.368855E2,2.5508037E2,4.818051E2,4.2293293E1,4.395118E2,2.6333376E1,1.5959917E1,3.0130188E1,4.0938162E2,1.1363176E1,1.8767012E1,3.8406247E2,2.5319155E1,3.0237256E2,8.168992E1,9.164419E0,1.6154736E1,8.935723E1,2.1301532E2,7.385593E1,7.8339977E0],"tree_param":{"num_deleted":"0","num_feature":"42","num_nodes":"21","size_leaf_vector":"1"}},{"base_weights":[-4.2569403E-2,-5.2837547E-2,5.2907455E-1,7.43656E-1,-2.9390771E-2,-3.8677657E-1,8.205858E-1,-1.6768622E0,5.4151183E-1,-1.1951106E-1,5.0373286E-2,8.7409985E-1,3.2180864E-2,-1.0777938E-1,-6.4777866E-2,-3.885126E-1,9.789256E-1,9.20971E-1,9.787592E-2,-8.2717195E-2,5.05359E-2,-5.7353295E-2,4.9014967E-2,5.2046027E-2,3.0879417E-2,4.928087E-2,3.0790586E-2,-7.832822E-2,4.933859E-2],"categories":[],"categories_nodes":[],"categories_segments":[],"categories_sizes":[],"default_left":[0,0,0,0,0,0,0,0,0,0,0,0,0,0,0,0,0,0,0,0,0,0,0,0,0,0,0,0,0],"id":43,"left_children":[1,-1,3,5,7,9,11,13,15,-1,-1,17,19,-1,-1,21,23,25,27,-1,-1,-1,-1,-1,-1,-1,-1,-1,-1],"loss_changes":[3.942004E2,0E0,5.21382E1,2.7642868E1,1.15353645E2,6.0230904E1,1.2397736E1,2.968048E0,3.7448975E1,0E0,0E0,9.942581E0,3.4279636E1,0E0,0E0,3.2132355E1,7.5178146E-1,4.5209045E0,2.643409E1,0E0,0E0,0E0,0E0,0E0,0E0,0E0,0E0,0E0,0E0],"parents":[2147483647,0,0,2,2,3,3,4,4,5,5,6,6,7,7,8,8,11,11,12,12,15,15,16,16,17,17,18,18],"right_children":[2,-1,4,6,8,10,12,14,16,-1,-1,18,20,-1,-1,22,24,26,28,-1,-1,-1,-1,-1,-1,-1,-1,-1,-1],"split_conditions":[1.1820149E-6,-5.2837547E-2,1.4796417E-4,2.0807078E-4,1.5696013E-4,6.379706E-8,8.43098E1,1.1756002E-5,1.2E1,-1.1951106E-1,5.0373286E-2,2.2857127E-4,3.820813E-8,-1.0777938E-1,-6.4777866E-2,1.8932253E-5,1.5354007E-6,8.3919285E-6,2.1E1,-8.2717195E-2,5.05359E-2,-5.7353295E-2,4.9014967E-2,5.2046027E-2,3.0879417E-2,4.928087E-2,3.0790586E-2,-7.832822E-2,4.933859E-2],"split_indices":[19,0,31,27,32,17,0,34,10,0,0,27,17,0,0,14,18,14,10,0,0,0,0,0,0,0,0,0,0],"split_type":[0,0,0,0,0,0,0,0,0,0,0,0,0,0,0,0,0,0,0,0,0,0,0,0,0,0,0,0,0],"sum_hessian":[6.7798376E2,2.4408752E2,4.3389624E2,3.1321625E2,1.2067999E2,1.9700644E1,2.935156E2,3.0558672E1,9.012132E1,7.7910333E0,1.190961E1,2.7475735E2,1.8758244E1,1.1485515E1,1.9073158E1,2.8863611E1,6.1257713E1,2.5893546E2,1.5821905E1,6.633929E0,1.2124315E1,1.8675966E1,1.0187645E1,5.0681496E1,1.0576218E1,2.1183044E2,4.710502E1,5.2426934E0,1.0579212E1],"tree_param":{"num_deleted":"0","num_feature":"42","num_nodes":"29","size_leaf_vector":"1"}},{"base_weights":[-8.948709E-3,-5.267058E-2,5.609322E-1,1.5304421E-1,8.2860523E-1,-1.0075579E0,6.3200045E-1,9.067524E-1,3.0932716E-1,-1.7434467E0,4.319772E-2,-6.265436E-1,9.285031E-1,1.5487605E-1,9.4780594E-1,-1.05250515E-1,4.6800416E-2,-1.2116796E-1,-7.323125E-2,-5.6364346E-2,4.5699593E-2,5.2140493E-2,5.811555E-1,4.5301452E-2,-2.3924133E-2,1.0069203E0,3.1093752E-1,3.9947905E-2,1.0944744E-2,5.2835282E-2,3.2424193E-2,4.876122E-2,-2.325101E-2],"categories":[],"categories_nodes":[],"categories_segments":[],"categories_sizes":[],"default_left":[0,0,0,0,0,0,0,0,0,0,0,0,0,0,0,0,0,0,0,0,0,0,0,0,0,0,0,0,0,0,0,0,0],"id":44,"left_children":[1,-1,3,5,7,9,11,13,15,17,-1,19,21,23,25,-1,-1,-1,-1,-1,-1,-1,27,-1,-1,29,31,-1,-1,-1,-1,-1,-1],"loss_changes":[3.968093E2,0E0,4.6966324E1,9.6320244E1,1.0278549E1,7.128902E1,4.6279625E1,6.8183136E0,5.576404E1,3.408081E0,0E0,1.9503313E1,3.3451004E0,6.5602818E0,7.7349396E0,0E0,0E0,0E0,0E0,0E0,0E0,0E0,1.9474669E0,0E0,0E0,2.7974548E0,1.0558365E1,0E0,0E0,0E0,0E0,0E0,0E0],"parents":[2147483647,0,0,2,2,3,3,4,4,5,5,6,6,7,7,8,8,9,9,11,11,12,12,13,13,14,14,22,22,25,25,26,26],"right_children":[2,-1,4,6,8,10,12,14,16,18,-1,20,22,24,26,-1,-1,-1,-1,-1,-1,-1,28,-1,-1,30,32,-1,-1,-1,-1,-1,-1],"split_conditions":[2.7312386E-9,-5.267058E-2,2.1810042E-4,1.5623517E-4,2.2388124E-4,2.1096157E-4,1E0,1.8805794E-4,7.874016E-3,3.628843E5,4.319772E-2,6.56798E1,3E0,3.5011162E5,1.1515019E-7,-1.05250515E-1,4.6800416E-2,-1.2116796E-1,-7.323125E-2,-5.6364346E-2,4.5699593E-2,5.2140493E-2,1.2666193E-6,4.5301452E-2,-2.3924133E-2,6.27E2,4.480598E-6,3.9947905E-2,1.0944744E-2,5.2835282E-2,3.2424193E-2,4.876122E-2,-2.325101E-2],"split_indices":[18,0,28,32,26,29,3,29,7,37,0,2,12,37,16,0,0,0,0,0,0,0,18,0,0,3,21,0,0,0,0,0,0],"split_type":[0,0,0,0,0,0,0,0,0,0,0,0,0,0,0,0,0,0,0,0,0,0,0,0,0,0,0,0,0,0,0,0,0],"sum_hessian":[6.646677E2,2.3433542E2,4.3033234E2,1.7113046E2,2.5920187E2,4.9669106E1,1.2146135E2,2.2464796E2,3.455389E1,3.5700073E1,1.3969034E1,2.2946947E1,9.8514404E1,1.1878133E1,2.1276984E2,6.6346E0,2.7919292E1,8.145552E0,2.755452E1,1.752031E1,5.426639E0,7.261555E1,2.5898857E1,5.236827E0,6.6413054E0,1.941662E2,1.8603647E1,1.5421491E1,1.0477367E1,1.6877591E2,2.5390284E1,9.884694E0,8.718953E0],"tree_param":{"num_deleted":"0","num_feature":"42","num_nodes":"33","size_leaf_vector":"1"}},{"base_weights":[-4.0032882E-2,-5.251375E-2,5.1255566E-1,-5.069269E-1,6.0194075E-1,-5.5787574E-2,4.8331745E-2,6.620034E-1,-5.014603E-1,7.027446E-1,-1.1891614E-1,-1.2888278E-1,4.292896E-2,7.603788E-1,-8.630856E-2,-7.777905E-2,4.2338405E-2,4.2492628E-2,7.4630375E-3,-9.150992E-2,5.0155085E-2],"categories":[],"categories_nodes":[],"categories_segments":[],"categories_sizes":[],"default_left":[0,0,0,0,0,0,0,0,0,0,0,0,0,0,0,0,0,0,0,0,0],"id":45,"left_children":[1,-1,3,5,7,-1,-1,9,11,13,15,-1,-1,17,19,-1,-1,-1,-1,-1,-1],"loss_changes":[3.5513342E2,0E0,3.7782913E1,3.1307854E1,2.5421478E1,0E0,0E0,1.1520142E1,5.900538E1,1.5608765E1,2.7231693E1,0E0,0E0,1.729512E1,4.774187E1,0E0,0E0,0E0,0E0,0E0,0E0],"parents":[2147483647,0,0,2,2,3,3,4,4,7,7,8,8,9,9,10,10,13,13,14,14],"right_children":[2,-1,4,6,8,-1,-1,10,12,14,16,-1,-1,18,20,-1,-1,-1,-1,-1,-1],"split_conditions":[1.1820149E-6,-5.251375E-2,1.2E1,6.58598E1,6.48E2,-5.5787574E-2,4.8331745E-2,8.299432E1,8.5405594E1,1.12170655E-8,5.0642242E0,-1.2888278E-1,4.292896E-2,5.1060476E0,7.3E1,-7.777905E-2,4.2338405E-2,4.2492628E-2,7.4630375E-3,-9.150992E-2,5.0155085E-2],"split_indices":[19,0,10,2,3,0,0,1,6,16,4,0,0,4,5,0,0,0,0,0,0],"split_type":[0,0,0,0,0,0,0,0,0,0,0,0,0,0,0,0,0,0,0,0,0],"sum_hessian":[6.341925E2,2.2392052E2,4.10272E2,3.26952E1,3.775768E2,2.3307976E1,9.387226E0,3.5846414E2,1.9112656E1,3.4078522E2,1.7678923E1,7.2103195E0,1.1902335E1,3.176218E2,2.3163448E1,6.8609347E0,1.0817988E1,2.7671698E2,4.09048E1,8.64494E0,1.4518508E1],"tree_param":{"num_deleted":"0","num_feature":"42","num_nodes":"21","size_leaf_vector":"1"}},{"base_weights":[4.7927294E-2,-5.2362878E-2,5.862855E-1,6.353044E-1,-5.0373126E-2,-1.6239385E-1,6.954656E-1,-5.666375E-2,4.9639035E-2,7.537525E-1,-4.3582988E-1,6.335517E-1,9.9790233E-1,4.991895E-2,-1.1718642E-1,-1.0223378E-1,3.8827058E-2,5.3087153E-2,3.8643964E-2],"categories":[],"categories_nodes":[],"categories_segments":[],"categories_sizes":[],"default_left":[0,0,0,0,0,0,0,0,0,0,0,0,0,0,0,0,0,0,0],"id":46,"left_children":[1,-1,3,5,-1,7,9,-1,-1,11,13,15,17,-1,-1,-1,-1,-1,-1],"loss_changes":[3.843316E2,0E0,3.477745E1,2.0486877E1,0E0,3.5425644E1,2.6371826E1,0E0,0E0,1.0401398E1,5.70271E1,9.911786E1,9.362564E-1,0E0,0E0,0E0,0E0,0E0,0E0],"parents":[2147483647,0,0,2,2,3,3,5,5,6,6,9,9,10,10,11,11,12,12],"right_children":[2,-1,4,6,-1,8,10,-1,-1,12,14,16,18,-1,-1,-1,-1,-1,-1],"split_conditions":[1.1820149E-6,-5.2362878E-2,4E0,1.2E1,-5.0373126E-2,6.58598E1,1.8881638E-5,-5.666375E-2,4.9639035E-2,1.5623517E-4,1.4583457E0,4.2272587E-3,7.49498E1,4.991895E-2,-1.1718642E-1,-1.0223378E-1,3.8827058E-2,5.3087153E-2,3.8643964E-2],"split_indices":[19,0,12,10,0,2,14,0,0,32,4,40,0,0,0,0,0,0,0],"split_type":[0,0,0,0,0,0,0,0,0,0,0,0,0,0,0,0,0,0,0],"sum_hessian":[6.4980817E2,2.1384232E2,4.3596582E2,4.2354037E2,1.2425451E1,2.9583513E1,3.9395685E2,1.6084255E1,1.3499259E1,3.7497122E2,1.8985628E1,2.5367558E2,1.2129565E2,1.1110407E1,7.875222E0,1.2183125E1,2.4149246E2,9.1591965E1,2.970368E1],"tree_param":{"num_deleted":"0","num_feature":"42","num_nodes":"19","size_leaf_vector":"1"}},{"base_weights":[-2.5401827E-2,-5.2221205E-2,5.187122E-1,1.7348935E-1,7.843968E-1,-9.673739E-1,6.6257054E-1,-1.8469015E-2,8.323932E-1,-1.6216651E0,4.1066032E-2,-1.672893E-1,9.303127E-1,8.873881E-1,2.1411794E-1,-1.8851746E0,-6.5330856E-2,-5.487559E-2,4.9337845E-2,5.1366266E-2,6.691286E-1,9.548653E-1,2.514199E-1,4.3394763E-2,-2.4726393E-2,-7.502368E-2,-1.19581155E-1,-9.90438E-3,5.073282E-2,3.4515295E-2,5.1834058E-2,-2.4394754E-2,4.6679255E-2],"categories":[],"categories_nodes":[],"categories_segments":[],"categories_sizes":[],"default_left":[0,0,0,0,0,0,0,0,0,0,0,0,0,0,0,0,0,0,0,0,0,0,0,0,0,0,0,0,0,0,0,0,0],"id":47,"left_children":[1,-1,3,5,7,9,11,-1,13,15,-1,17,19,21,23,25,-1,-1,-1,-1,27,29,31,-1,-1,-1,-1,-1,-1,-1,-1,-1,-1],"loss_changes":[3.2991266E2,0E0,3.5444504E1,9.5492714E1,1.243129E1,6.1503777E1,2.672456E1,0E0,6.9672394E0,6.898804E-1,0E0,3.330658E1,1.607254E0,8.041473E0,9.005722E0,9.3078613E-4,0E0,0E0,0E0,0E0,8.409944E0,3.0531006E0,1.04761715E1,0E0,0E0,0E0,0E0,0E0,0E0,0E0,0E0,0E0,0E0],"parents":[2147483647,0,0,2,2,3,3,4,4,5,5,6,6,8,8,9,9,11,11,12,12,13,13,14,14,15,15,20,20,21,21,22,22],"right_children":[2,-1,4,6,8,10,12,-1,14,16,-1,18,20,22,24,26,-1,-1,-1,-1,28,30,32,-1,-1,-1,-1,-1,-1,-1,-1,-1,-1],"split_conditions":[1.1820149E-6,-5.2221205E-2,2.1810042E-4,1.5623517E-4,1.36E2,5.472789E-3,1.2E1,-1.8469015E-2,5.1060476E0,3.985797E-5,4.1066032E-2,6.56798E1,4.8759804E1,5.8841156E5,4.444231E-6,1.5350438E-4,-6.5330856E-2,-5.487559E-2,4.9337845E-2,5.1366266E-2,4.0069083E-3,2.1919454E-4,8.475937E-6,4.3394763E-2,-2.4726393E-2,-7.502368E-2,-1.19581155E-1,-9.90438E-3,5.073282E-2,3.4515295E-2,5.1834058E-2,-2.4394754E-2,4.6679255E-2],"split_indices":[19,0,28,32,3,38,10,0,4,34,0,2,2,37,21,32,0,0,0,0,41,26,19,0,0,0,0,0,0,0,0,0,0],"split_type":[0,0,0,0,0,0,0,0,0,0,0,0,0,0,0,0,0,0,0,0,0,0,0,0,0,0,0,0,0,0,0,0,0],"sum_hessian":[5.930345E2,2.0611003E2,3.8692444E2,1.6899292E2,2.1793152E2,5.0414577E1,1.1857834E2,8.436326E0,2.0949518E2,3.6980694E1,1.3433884E1,2.9016777E1,8.956156E1,1.9198323E2,1.7511953E1,1.7423628E1,1.9557068E1,1.6093527E1,1.2923249E1,6.3166176E1,2.6395384E1,1.7311414E2,1.8869099E1,8.991717E0,8.520237E0,1.2154068E1,5.269559E0,7.6419916E0,1.8753393E1,4.3119717E1,1.2999442E2,9.191907E0,9.677193E0],"tree_param":{"num_deleted":"0","num_feature":"42","num_nodes":"33","size_leaf_vector":"1"}},{"base_weights":[5.4892423E-3,-5.2082457E-2,5.254937E-1,2.2938454E-1,7.579534E-1,4.1994563E-1,-8.030862E-2,8.242359E-1,-1.9987357E-1,5.8971536E-1,-6.0724825E-2,-2.0363426E-1,9.039267E-1,-5.2270878E-2,4.6804868E-2,6.8955207E-1,-5.2117884E-2,4.8507366E-2,-1.09843254E-1,9.6345735E-1,2.8811637E-1,-5.21966E-2,3.8578894E-2,5.0157677E-2,1.78544E-2,4.2904984E-2,-1.5367189E-2],"categories":[],"categories_nodes":[],"categories_segments":[],"categories_sizes":[],"default_left":[0,0,0,0,0,0,0,0,0,0,0,0,0,0,0,0,0,0,0,0,0,0,0,0,0,0,0],"id":48,"left_children":[1,-1,3,5,7,9,-1,11,13,15,-1,17,19,-1,-1,21,-1,-1,-1,23,25,-1,-1,-1,-1,-1,-1],"loss_changes":[3.225317E2,0E0,2.706874E1,6.205925E1,1.4213409E1,4.505169E1,0E0,1.7152618E1,1.5508059E1,2.4413311E1,0E0,3.8913296E1,6.776993E0,0E0,0E0,2.0376175E1,0E0,0E0,0E0,3.8552399E0,6.5052023E0,0E0,0E0,0E0,0E0,0E0,0E0],"parents":[2147483647,0,0,2,2,3,3,4,4,5,5,7,7,8,8,9,9,11,11,12,12,15,15,19,19,20,20],"right_children":[2,-1,4,6,8,10,-1,12,14,16,-1,18,20,-1,-1,22,-1,-1,-1,24,26,-1,-1,-1,-1,-1,-1],"split_conditions":[1.1820149E-6,-5.2082457E-2,2.1810042E-4,2.0654273E-4,1.8881638E-5,1.1287561E-5,-8.030862E-2,3.047738E-6,7.881741E-6,8.8574265E1,-6.0724825E-2,6.57698E1,5.1060476E0,-5.2270878E-2,4.6804868E-2,1.8283882E-4,-5.2117884E-2,4.8507366E-2,-1.09843254E-1,6.48E2,4.444231E-6,-5.21966E-2,3.8578894E-2,5.0157677E-2,1.78544E-2,4.2904984E-2,-1.5367189E-2],"split_indices":[19,0,28,26,14,21,0,36,18,1,0,0,4,0,0,28,0,0,0,3,21,0,0,0,0,0,0],"split_type":[0,0,0,0,0,0,0,0,0,0,0,0,0,0,0,0,0,0,0,0,0,0,0,0,0,0,0],"sum_hessian":[5.903214E2,1.9554576E2,3.9477567E2,1.7449245E2,2.2028322E2,1.5877971E2,1.5712735E1,2.0615646E2,1.4126751E1,1.4441817E2,1.4361539E1,1.4721376E1,1.9143509E2,8.1443405E0,5.9824104E0,1.3663733E2,7.780842E0,9.588275E0,5.1331015E0,1.740455E2,1.7389591E1,5.6435285E0,1.309938E2,1.6273746E2,1.1308038E1,8.65951E0,8.730081E0],"tree_param":{"num_deleted":"0","num_feature":"42","num_nodes":"27","size_leaf_vector":"1"}},{"base_weights":[-5.743314E-3,-5.194912E-2,5.176209E-1,7.162609E-1,2.2555549E-2,2.6578462E-1,8.2139796E-1,-1.6498656E0,3.7489757E-1,-1.3490334E-1,6.9634926E-1,9.039009E-1,3.967876E-1,-1.01779E-1,-6.397423E-2,5.523135E-1,-8.179775E-2,-6.7026266E-3,4.6892237E-2,2.6629895E-1,9.5414793E-1,-8.743956E-2,5.1567525E-2,9.284915E-1,-1.7502905E-1,-1.1840931E-2,4.0044215E-2,4.959249E-2,2.8372863E-2,5.0609674E-2,1.7692752E-2,-5.5075385E-2,4.9072526E-2],"categories":[],"categories_nodes":[],"categories_segments":[],"categories_sizes":[],"default_left":[0,0,0,0,0,0,0,0,0,0,0,0,0,0,0,0,0,0,0,0,0,0,0,0,0,0,0,0,0,0,0,0,0],"id":49,"left_children":[1,-1,3,5,7,9,11,13,15,-1,17,19,21,-1,-1,23,-1,-1,-1,25,27,-1,-1,29,31,-1,-1,-1,-1,-1,-1,-1,-1],"loss_changes":[3.0072076E2,0E0,3.6284897E1,1.2257004E1,6.3513138E1,6.737193E1,7.1059875E0,7.539368E-2,3.2646206E1,0E0,9.271601E0,5.4368744E0,5.142945E1,0E0,0E0,2.27379E1,0E0,0E0,0E0,4.0527864E0,1.832077E0,0E0,0E0,2.2651825E0,3.2118847E1,0E0,0E0,0E0,0E0,0E0,0E0,0E0,0E0],"parents":[2147483647,0,0,2,2,3,3,4,4,5,5,6,6,7,7,8,8,10,10,11,11,12,12,15,15,19,19,20,20,23,23,24,24],"right_children":[2,-1,4,6,8,10,12,14,16,-1,18,20,22,-1,-1,24,-1,-1,-1,26,28,-1,-1,30,32,-1,-1,-1,-1,-1,-1,-1,-1],"split_conditions":[2.3405401E-7,-5.194912E-2,1.4796417E-4,5.0278776E-3,1.5442607E-4,1.435386E-4,5.1060476E0,1.1756002E-5,7.49498E1,-1.3490334E-1,1.0537944E-6,2.0797297E-6,1.12170655E-8,-1.01779E-1,-6.397423E-2,3E0,-8.179775E-2,-6.7026266E-3,4.6892237E-2,7.745519E-6,1.538666E-6,-8.743956E-2,5.1567525E-2,1.953418E-4,6.56798E1,-1.1840931E-2,4.0044215E-2,4.959249E-2,2.8372863E-2,5.0609674E-2,1.7692752E-2,-5.5075385E-2,4.9072526E-2],"split_indices":[18,0,31,40,30,31,4,34,0,0,18,36,16,0,0,12,0,0,0,18,14,0,0,29,2,0,0,0,0,0,0,0,0],"split_type":[0,0,0,0,0,0,0,0,0,0,0,0,0,0,0,0,0,0,0,0,0,0,0,0,0,0,0,0,0,0,0,0,0],"sum_hessian":[5.5411273E2,1.8597365E2,3.681391E2,2.6240497E2,1.0573413E2,5.03217E1,2.1208328E2,1.7758648E1,8.797549E1,5.7150455E0,4.4606655E1,1.7663402E2,3.544926E1,6.496889E0,1.1261759E1,8.1509315E1,6.4661674E0,1.0149991E1,3.4456665E1,1.3363222E1,1.632708E2,7.690455E0,2.7758804E1,5.3541412E1,2.7967907E1,7.171175E0,6.192047E0,1.473403E2,1.5930495E1,4.6069447E1,7.4719653E0,1.5554458E1,1.2413449E1],"tree_param":{"num_deleted":"0","num_feature":"42","num_nodes":"33","size_leaf_vector":"1"}},{"base_weights":[2.7293311E-2,-5.182224E-2,5.3348315E-1,2.4903406E-1,7.6348346E-1,-7.626683E-1,6.9494504E-1,-1.5566401E-1,8.24864E-1,-1.6068573E0,4.3179497E-2,-4.9690552E-2,8.081815E-1,-2.7925065E-2,1.745428E-2,8.7378114E-1,5.4198876E-2,-6.958445E-2,-1.18538916E-1,2.7783513E-1,9.510395E-1,1.0011696E0,6.136599E-1,-1.9655375E-2,2.8661668E-2,-5.2779175E-2,4.9684413E-2,5.231896E-2,3.0369854E-2,2.9106919E-2,5.1544137E-2,-8.8839136E-2,4.584139E-2],"categories":[],"categories_nodes":[],"categories_segments":[],"categories_sizes":[],"default_left":[0,0,0,0,0,0,0,0,0,0,0,0,0,0,0,0,0,0,0,0,0,0,0,0,0,0,0,0,0,0,0,0,0],"id":50,"left_children":[1,-1,3,5,7,9,11,13,15,17,-1,-1,19,-1,-1,21,23,-1,-1,25,27,29,31,-1,-1,-1,-1,-1,-1,-1,-1,-1,-1],"loss_changes":[2.966174E2,0E0,2.4227028E1,7.6474174E1,1.1743416E1,7.274369E1,2.3247051E1,2.9864912E0,7.234009E0,2.3820267E0,0E0,0E0,8.110947E0,0E0,0E0,5.4016113E0,3.1492937E0,0E0,0E0,2.4788645E1,2.2040634E0,8.97522E-1,4.6753746E1,0E0,0E0,0E0,0E0,0E0,0E0,0E0,0E0,0E0,0E0],"parents":[2147483647,0,0,2,2,3,3,4,4,5,5,6,6,7,7,8,8,9,9,12,12,15,15,16,16,19,19,20,20,21,21,22,22],"right_children":[2,-1,4,6,8,10,12,14,16,18,-1,-1,20,-1,-1,22,24,-1,-1,26,28,30,32,-1,-1,-1,-1,-1,-1,-1,-1,-1,-1],"split_conditions":[1.1820149E-6,-5.182224E-2,2.1810042E-4,1.5623517E-4,5.0278776E-3,5.472789E-3,1.8313661E-4,1.5786246E-6,1.5656528E-4,1.5546456E-4,4.3179497E-2,-4.9690552E-2,1.2E1,-2.7925065E-2,1.745428E-2,5.26724E-3,1.578827E-4,-6.958445E-2,-1.18538916E-1,6.56798E1,7.49498E1,3.701428E-3,1.4558173E-5,-1.9655375E-2,2.8661668E-2,-5.2779175E-2,4.9684413E-2,5.231896E-2,3.0369854E-2,2.9106919E-2,5.1544137E-2,-8.8839136E-2,4.584139E-2],"split_indices":[19,0,28,32,40,38,28,20,33,32,0,0,10,0,0,39,33,0,0,2,0,41,35,0,0,0,0,0,0,0,0,0,0],"split_type":[0,0,0,0,0,0,0,0,0,0,0,0,0,0,0,0,0,0,0,0,0,0,0,0,0,0,0,0,0,0,0,0,0],"sum_hessian":[5.488423E2,1.7662474E2,3.7221753E2,1.6734239E2,2.0487514E2,5.0975834E1,1.1636656E2,1.2728912E1,1.9214622E2,3.3564476E1,1.7411356E1,6.8237624E0,1.095428E2,7.0198913E0,5.7090206E0,1.8055208E2,1.159415E1,2.8389872E1,5.174605E0,2.387054E1,8.5672264E1,1.1928575E2,6.126633E1,6.357685E0,5.2364645E0,8.172694E0,1.5697847E1,6.546481E1,2.0207443E1,9.261868E0,1.1002389E2,6.3484926E0,5.4917835E1],"tree_param":{"num_deleted":"0","num_feature":"42","num_nodes":"33","size_leaf_vector":"1"}},{"base_weights":[-2.1439604E-2,-5.1699232E-2,4.8426E-1,1.5240861E-1,7.368692E-1,4.366307E-1,-6.622264E-2,7.938957E-1,-3.2559585E-2,5.781023E-1,-9.160705E-2,-9.765932E-2,8.5826284E-1,7.192023E-1,-5.200317E-2,-2.261362E-2,1.7519223E-2,9.508323E-1,5.371904E-1,1.8746782E-3,4.1422796E-2,5.1388275E-2,2.6962955E-2,-1.0205641E-1,5.162067E-2],"categories":[],"categories_nodes":[],"categories_segments":[],"categories_sizes":[],"default_left":[0,0,0,0,0,0,0,0,0,0,0,0,0,0,0,0,0,0,0,0,0,0,0,0,0],"id":51,"left_children":[1,-1,3,5,7,9,-1,11,-1,13,-1,15,17,19,-1,-1,-1,21,23,-1,-1,-1,-1,-1,-1],"loss_changes":[2.574529E2,0E0,2.7999825E1,6.1947952E1,1.5568451E1,4.065338E1,0E0,1.059111E1,0E0,2.7434135E1,0E0,2.2599425E0,4.5677032E0,8.019814E0,0E0,0E0,0E0,3.60421E0,5.3867596E1,0E0,0E0,0E0,0E0,0E0,0E0],"parents":[2147483647,0,0,2,2,3,3,4,4,5,5,7,7,9,9,11,11,12,12,13,13,17,17,18,18],"right_children":[2,-1,4,6,8,10,-1,12,-1,14,-1,16,18,20,-1,-1,-1,22,24,-1,-1,-1,-1,-1,-1],"split_conditions":[1.1820149E-6,-5.1699232E-2,2.1810042E-4,1.2824767E-6,6.4149796E1,5.95E2,-6.622264E-2,5.0278776E-3,-3.2559585E-2,8.8574265E1,-9.160705E-2,1.5604867E-6,2.248275E-4,1.8436208E-4,-5.200317E-2,-2.261362E-2,1.7519223E-2,8.3919285E-6,7.874016E-3,1.8746782E-3,4.1422796E-2,5.1388275E-2,2.6962955E-2,-1.0205641E-1,5.162067E-2],"split_indices":[19,0,28,20,2,3,0,40,0,1,0,20,28,28,0,0,0,14,7,0,0,0,0,0,0],"split_type":[0,0,0,0,0,0,0,0,0,0,0,0,0,0,0,0,0,0,0,0,0,0,0,0,0],"sum_hessian":[5.0081696E2,1.6646503E2,3.3435193E2,1.4520294E2,1.8914897E2,1.2235925E2,2.2843695E1,1.8209589E2,7.0530953E0,1.1587871E2,6.480544E0,1.2226615E1,1.6986926E2,1.0709577E2,8.782939E0,6.819639E0,5.4069757E0,1.3033153E2,3.953774E1,1.49783945E1,9.211738E1,1.0854466E2,2.1786865E1,5.8675275E0,3.367021E1],"tree_param":{"num_deleted":"0","num_feature":"42","num_nodes":"25","size_leaf_vector":"1"}},{"base_weights":[1.7490417E-2,-5.158605E-2,4.9889272E-1,-4.9228078E-1,5.747263E-1,-5.3874433E-2,4.5970496E-2,-2.3714094E-1,6.363958E-1,7.91343E-1,-8.767738E-2,6.965085E-1,-1.9465423E-1,2.2426095E-2,4.7362115E-2,7.865974E-1,1.7707215E-1,-8.6998634E-2,4.872544E-2,4.5366812E-2,2.3933424E-2,4.790058E-2,-1.14626184E-1],"categories":[],"categories_nodes":[],"categories_segments":[],"categories_sizes":[],"default_left":[0,0,0,0,0,0,0,0,0,0,0,0,0,0,0,0,0,0,0,0,0,0,0],"id":52,"left_children":[1,-1,3,5,7,-1,-1,9,11,13,-1,15,17,-1,-1,19,21,-1,-1,-1,-1,-1,-1],"loss_changes":[2.5933636E2,0E0,2.6735657E1,2.2099112E1,1.6542099E1,0E0,0E0,3.856987E1,1.5349426E1,3.712101E-1,0E0,1.3160736E1,4.0222576E1,0E0,0E0,8.559998E0,8.5701355E1,0E0,0E0,0E0,0E0,0E0,0E0],"parents":[2147483647,0,0,2,2,3,3,4,4,7,7,8,8,9,9,11,11,12,12,15,15,16,16],"right_children":[2,-1,4,6,8,-1,-1,10,12,14,-1,16,18,-1,-1,20,22,-1,-1,-1,-1,-1,-1],"split_conditions":[2.7312386E-9,-5.158605E-2,1.2E1,1.8932253E-5,3.1148241E1,-5.3874433E-2,4.5970496E-2,2.8012041E1,1.1515019E-7,1.7750594E-6,-8.767738E-2,1.538666E-6,1.968504E-2,2.2426095E-2,4.7362115E-2,3E0,1.4583457E0,-8.6998634E-2,4.872544E-2,4.5366812E-2,2.3933424E-2,4.790058E-2,-1.14626184E-1],"split_indices":[18,0,10,14,1,0,0,1,16,20,0,14,7,0,0,12,4,0,0,0,0,0,0],"split_type":[0,0,0,0,0,0,0,0,0,0,0,0,0,0,0,0,0,0,0,0,0,0,0],"sum_hessian":[5.1142395E2,1.6049141E2,3.5093256E2,2.4550932E1,3.2638162E2,1.7523436E1,7.0274963E0,2.2840866E1,3.0354077E2,1.3894941E1,8.945925E0,2.832166E2,2.0324144E1,5.5554833E0,8.3394575E0,2.4091843E2,4.2298195E1,8.543594E0,1.178055E1,1.7166286E2,6.925556E1,3.26011E1,9.697093E0],"tree_param":{"num_deleted":"0","num_feature":"42","num_nodes":"23","size_leaf_vector":"1"}},{"base_weights":[9.549549E-3,-5.147959E-2,4.852992E-1,-6.98325E-2,5.2229106E-1,5.6157833E-1,-4.7627933E-2,-2.2675341E-1,6.171997E-1,-8.686342E-2,4.8829567E-2,5.4297037E-2,6.678298E-1,-5.3269893E-2,4.8956897E-2,2.608716E-2,4.9367215E-2],"categories":[],"categories_nodes":[],"categories_segments":[],"categories_sizes":[],"default_left":[0,0,0,0,0,0,0,0,0,0,0,0,0,0,0,0,0],"id":53,"left_children":[1,-1,3,-1,5,7,-1,9,11,-1,-1,13,15,-1,-1,-1,-1],"loss_changes":[2.4471155E2,0E0,2.4366371E1,0E0,1.9871155E1,1.4420494E1,0E0,4.2040962E1,8.641541E0,0E0,0E0,2.8190252E1,1.2520348E1,0E0,0E0,0E0,0E0],"parents":[2147483647,0,0,2,2,4,4,5,5,7,7,8,8,11,11,12,12],"right_children":[2,-1,4,-1,6,8,-1,10,12,-1,-1,14,16,-1,-1,-1,-1],"split_conditions":[1.1820149E-6,-5.147959E-2,2.5901222E-3,-6.98325E-2,4E0,3.1148241E1,-4.7627933E-2,6.554973E-8,1.2E1,-8.686342E-2,4.8829567E-2,6.58598E1,1.5623517E-4,-5.3269893E-2,4.8956897E-2,2.608716E-2,4.9367215E-2],"split_indices":[19,0,40,0,12,1,0,17,10,0,0,2,32,0,0,0,0],"split_type":[0,0,0,0,0,0,0,0,0,0,0,0,0,0,0,0,0],"sum_hessian":[4.9298486E2,1.5445569E2,3.3852917E2,5.8173547E0,3.3271182E2,3.2468213E2,8.029709E0,2.1195642E1,3.0348648E2,9.201559E0,1.1994083E1,2.5215395E1,2.782711E2,1.1337377E1,1.3878019E1,1.927678E2,8.550327E1],"tree_param":{"num_deleted":"0","num_feature":"42","num_nodes":"17","size_leaf_vector":"1"}},{"base_weights":[4.625217E-3,-5.1369634E-2,4.786392E-1,1.0309404E-1,6.7114586E-1,-1.1023664E0,6.444064E-1,7.502655E-1,-5.407676E-2,-1.7917757E0,4.732078E-2,-4.8512336E-2,8.649659E-1,9.390891E-1,4.858707E-1,-1.03188634E-1,-6.107275E-2,9.406021E-1,1.782514E-2,7.296814E-4,9.862134E-1,7.4268097E-1,-1.1401774E-1,2.814785E-2,5.1725816E-2,5.1158097E-2,2.6807332E-2,1.4906024E-2,5.0018627E-2],"categories":[],"categories_nodes":[],"categories_segments":[],"categories_sizes":[],"default_left":[0,0,0,0,0,0,0,0,0,0,0,0,0,0,0,0,0,0,0,0,0,0,0,0,0,0,0,0,0],"id":54,"left_children":[1,-1,3,5,7,9,11,13,-1,15,-1,-1,17,19,21,-1,-1,23,-1,-1,25,27,-1,-1,-1,-1,-1,-1,-1],"loss_changes":[2.2817268E2,0E0,2.3037468E1,7.215994E1,3.008783E1,5.0144142E1,2.7974398E1,9.657928E0,0E0,1.5140762E0,0E0,0E0,2.2631607E0,5.087837E0,6.3126904E1,0E0,0E0,1.481987E0,0E0,0E0,1.3042603E0,8.853424E0,0E0,0E0,0E0,0E0,0E0,0E0,0E0],"parents":[2147483647,0,0,2,2,3,3,4,4,5,5,6,6,7,7,9,9,12,12,13,13,14,14,17,17,20,20,21,21],"right_children":[2,-1,4,6,8,10,12,14,-1,16,-1,-1,18,20,22,-1,-1,24,-1,-1,26,28,-1,-1,-1,-1,-1,-1,-1],"split_conditions":[1.1820149E-6,-5.1369634E-2,5.0546E-3,1.5623517E-4,1.4994998E-4,1.3077346E-5,1.2E1,3.5032446E0,-5.407676E-2,3.2460479E4,4.732078E-2,-4.8512336E-2,2.1E1,1.4756029E-4,8.3919285E-6,-1.03188634E-1,-6.107275E-2,3.0535504E-3,1.782514E-2,7.296814E-4,1.5445465E-4,6.8229485E1,-1.1401774E-1,2.814785E-2,5.1725816E-2,5.1158097E-2,2.6807332E-2,1.4906024E-2,5.0018627E-2],"split_indices":[19,0,40,32,31,17,10,4,0,35,0,0,10,33,14,0,0,41,0,0,33,1,0,0,0,0,0,0,0],"split_type":[0,0,0,0,0,0,0,0,0,0,0,0,0,0,0,0,0,0,0,0,0,0,0,0,0,0,0,0,0],"sum_hessian":[4.6442352E2,1.4580693E2,3.186166E2,1.0849612E2,2.1012048E2,3.3300972E1,7.5195145E1,2.0159213E2,8.52835E0,2.5010466E1,8.290505E0,8.628604E0,6.656654E1,1.1611446E2,8.547768E1,1.5161186E1,9.849278E0,5.720687E1,9.359673E0,5.695155E0,1.10419304E2,7.888563E1,6.5920506E0,1.2786111E1,4.442076E1,1.0086533E2,9.553974E0,2.9738565E1,4.914706E1],"tree_param":{"num_deleted":"0","num_feature":"42","num_nodes":"29","size_leaf_vector":"1"}},{"base_weights":[-4.671294E-2,-5.126598E-2,4.3237048E-1,3.2356273E-2,7.122023E-1,-9.392005E-1,5.64352E-1,-1.5001766E-2,7.815743E-1,-1.5012684E0,3.719227E-2,-4.9907293E-2,7.070705E-1,1.0056115E-1,8.5523826E-1,-6.618089E-2,-9.977487E-2,7.116388E-2,8.9478713E-1,-3.6766503E-2,4.557177E-2,9.7846437E-1,3.309514E-1,-5.1380813E-2,4.7069892E-2,5.0373223E-2,3.0485233E-2,5.023973E-2,2.9265627E-2,-8.251872E-2,4.4478986E-2],"categories":[],"categories_nodes":[],"categories_segments":[],"categories_sizes":[],"default_left":[0,0,0,0,0,0,0,0,0,0,0,0,0,0,0,0,0,0,0,0,0,0,0,0,0,0,0,0,0,0,0],"id":55,"left_children":[1,-1,3,5,7,9,11,-1,13,15,-1,-1,17,19,21,-1,-1,23,25,-1,-1,27,29,-1,-1,-1,-1,-1,-1,-1,-1],"loss_changes":[1.9988126E2,0E0,3.2022846E1,6.1977867E1,1.20597E1,4.1264587E1,1.7975935E1,0E0,7.8340454E0,1.8119049E-1,0E0,0E0,8.477158E0,1.1883478E1,8.871704E0,0E0,0E0,1.7599054E1,1.1574707E0,0E0,0E0,5.995941E-1,3.3121162E1,0E0,0E0,0E0,0E0,0E0,0E0,0E0,0E0],"parents":[2147483647,0,0,2,2,3,3,4,4,5,5,6,6,8,8,9,9,12,12,13,13,14,14,17,17,18,18,21,21,22,22],"right_children":[2,-1,4,6,8,10,12,-1,14,16,-1,-1,18,20,22,-1,-1,24,26,-1,-1,28,30,-1,-1,-1,-1,-1,-1,-1,-1],"split_conditions":[2.7312386E-9,-5.126598E-2,2.1810042E-4,1.5623517E-4,2.1148274E-4,5.472789E-3,1.8313661E-4,-1.5001766E-2,5.0278776E-3,1.5546456E-4,3.719227E-2,-4.9907293E-2,1.2E1,2.4963126E-6,2.2388124E-4,-6.618089E-2,-9.977487E-2,6.56798E1,7.49498E1,-3.6766503E-2,4.557177E-2,1.8041177E-6,7.874016E-3,-5.1380813E-2,4.7069892E-2,5.0373223E-2,3.0485233E-2,5.023973E-2,2.9265627E-2,-8.251872E-2,4.4478986E-2],"split_indices":[18,0,28,32,26,38,28,0,40,32,0,0,10,18,26,0,0,2,0,0,0,20,7,0,0,0,0,0,0,0,0],"split_type":[0,0,0,0,0,0,0,0,0,0,0,0,0,0,0,0,0,0,0,0,0,0,0,0,0,0,0,0,0,0,0],"sum_hessian":[4.2439117E2,1.391054E2,2.852858E2,1.17885864E2,1.6739993E2,4.1440235E1,7.6445625E1,1.0523389E1,1.5687654E2,3.114657E1,1.0293665E1,5.896483E0,7.054914E1,1.5543563E1,1.4133298E2,2.561677E1,5.5297995E0,1.639357E1,5.415557E1,7.69959E0,7.8439727E0,1.1373494E2,2.7598045E1,7.1654434E0,9.2281275E0,3.699826E1,1.715731E1,1.05137886E2,8.597048E0,5.6399856E0,2.195806E1],"tree_param":{"num_deleted":"0","num_feature":"42","num_nodes":"31","size_leaf_vector":"1"}},{"base_weights":[6.0752664E-2,-5.1168162E-2,4.9975017E-1,6.6557425E-1,9.10879E-2,7.4527085E-1,-4.691555E-1,-6.9861405E-2,5.955459E-1,-2.629353E-2,8.063465E-1,4.764952E-2,-1.1284673E-1,-1.128288E-1,8.628047E-1,8.4313565E-1,-1.7662844E-4,-5.1259484E-2,4.7048416E-2,5.151507E-2,3.4796363E-1,4.8731755E-2,3.361785E-2,-1.8656708E-2,4.6327617E-2],"categories":[],"categories_nodes":[],"categories_segments":[],"categories_sizes":[],"default_left":[0,0,0,0,0,0,0,0,0,0,0,0,0,0,0,0,0,0,0,0,0,0,0,0,0],"id":56,"left_children":[1,-1,3,5,7,9,11,-1,13,-1,15,-1,-1,17,19,21,-1,-1,-1,-1,23,-1,-1,-1,-1],"loss_changes":[2.2109372E2,0E0,2.2340607E1,2.1600883E1,7.334069E1,1.7500496E1,4.291946E1,0E0,1.3885403E1,0E0,6.2678375E0,0E0,0E0,2.0996168E1,4.211445E0,3.8616486E0,0E0,0E0,0E0,0E0,6.403257E0,0E0,0E0,0E0,0E0],"parents":[2147483647,0,0,2,2,3,3,4,4,5,5,6,6,8,8,10,10,13,13,14,14,15,15,20,20],"right_children":[2,-1,4,6,8,10,12,-1,14,-1,16,-1,-1,18,20,22,-1,-1,-1,-1,24,-1,-1,-1,-1],"split_conditions":[1.1820149E-6,-5.1168162E-2,1.4796417E-4,1.8881638E-5,1.5696013E-4,3.1041989E-6,1.4583457E0,-6.9861405E-2,1.2E1,-2.629353E-2,1.1515019E-7,4.764952E-2,-1.1284673E-1,6.56798E1,3.3217752E0,4.1833594E5,-1.7662844E-4,-5.1259484E-2,4.7048416E-2,5.151507E-2,4.5648453E-6,4.8731755E-2,3.361785E-2,-1.8656708E-2,4.6327617E-2],"split_indices":[19,0,31,14,32,21,4,0,10,0,16,0,0,2,4,37,0,0,0,0,21,0,0,0,0],"split_type":[0,0,0,0,0,0,0,0,0,0,0,0,0,0,0,0,0,0,0,0,0,0,0,0,0],"sum_hessian":[4.6248196E2,1.3291463E2,3.2956732E2,2.3399133E2,9.5576004E1,2.1895636E2,1.5034963E1,2.374645E1,7.182956E1,9.689184E0,2.0926718E2,8.633841E0,6.401122E0,1.983482E1,5.1994736E1,2.0013489E2,9.132299E0,1.0645372E1,9.189448E0,3.8475914E1,1.3518823E1,1.1041127E2,8.972362E1,6.176329E0,7.342493E0],"tree_param":{"num_deleted":"0","num_feature":"42","num_nodes":"25","size_leaf_vector":"1"}},{"base_weights":[5.2086677E-2,-5.107022E-2,4.8829824E-1,5.524155E-1,-1.1258526E0,-6.252649E-2,5.89095E-1,-1.014083E-1,7.373842E-3,6.2214655E-1,-4.4956427E-2,8.114837E-1,3.5406542E-1,2.7001996E-2,4.5678735E-2,-9.154565E-2,2.590754E-2],"categories":[],"categories_nodes":[],"categories_segments":[],"categories_sizes":[],"default_left":[0,0,0,0,0,0,0,0,0,0,0,0,0,0,0,0,0],"id":57,"left_children":[1,-1,3,5,7,-1,9,-1,-1,11,-1,13,15,-1,-1,-1,-1],"loss_changes":[2.0516841E2,0E0,3.2857002E1,2.0591644E1,1.434895E1,0E0,1.5066444E1,0E0,0E0,1.4387421E1,0E0,4.1807404E0,4.4489693E1,0E0,0E0,0E0,0E0],"parents":[2147483647,0,0,2,2,3,3,4,4,6,6,9,9,11,11,12,12],"right_children":[2,-1,4,6,8,-1,10,-1,-1,12,-1,14,16,-1,-1,-1,-1],"split_conditions":[1.1820149E-6,-5.107022E-2,6.48E2,2.5901222E-3,1.351269E-6,-6.252649E-2,4E0,-1.014083E-1,7.373842E-3,3.3217752E0,-4.4956427E-2,3.975146E-3,4.2103763E0,2.7001996E-2,4.5678735E-2,-9.154565E-2,2.590754E-2],"split_indices":[19,0,3,40,18,0,12,0,0,4,0,39,4,0,0,0,0],"split_type":[0,0,0,0,0,0,0,0,0,0,0,0,0,0,0,0,0],"sum_hessian":[4.3607697E2,1.256119E2,3.1046506E2,2.9923654E2,1.1228502E1,5.306511E0,2.9393002E2,6.2247095E0,5.0037923E0,2.8811334E2,5.8166833E0,1.6766788E2,1.2044547E2,4.7544468E1,1.2012341E2,7.7037144E0,1.1274175E2],"tree_param":{"num_deleted":"0","num_feature":"42","num_nodes":"17","size_leaf_vector":"1"}},{"base_weights":[7.78493E-2,-5.097192E-2,4.939657E-1,2.017126E-1,7.128627E-1,4.0057033E-1,-7.179843E-2,8.3372235E-1,1.5688543E-1,-8.939565E-2,7.247685E-1,9.097553E-1,1.1491653E-1,5.0536223E-2,-1.23027444E-1,-1.4479489E0,5.095983E-1,9.15834E-1,-5.4938704E-2,2.8313285E-1,9.7157556E-1,2.0677734E-2,-1.6794866E-2,-4.72417E-2,-8.3722554E-2,4.5714587E-2,-6.320871E-2,5.0444413E-2,2.377729E-2,4.539006E-2,-2.2664057E-2,3.0647108E-2,5.108731E-2],"categories":[],"categories_nodes":[],"categories_segments":[],"categories_sizes":[],"default_left":[0,0,0,0,0,0,0,0,0,0,0,0,0,0,0,0,0,0,0,0,0,0,0,0,0,0,0,0,0,0,0,0,0],"id":58,"left_children":[1,-1,3,5,7,9,-1,11,13,15,17,19,21,-1,-1,23,25,27,-1,29,31,-1,-1,-1,-1,-1,-1,-1,-1,-1,-1,-1,-1],"loss_changes":[1.9788112E2,0E0,1.9949883E1,4.483439E1,1.1909981E1,1.9439281E1,0E0,7.92733E0,7.674951E1,4.0985424E1,2.661898E1,4.867737E0,2.185653E0,0E0,0E0,1.7219925E-1,2.6326115E1,2.2687607E0,0E0,6.54471E0,1.5405426E0,0E0,0E0,0E0,0E0,0E0,0E0,0E0,0E0,0E0,0E0,0E0,0E0],"parents":[2147483647,0,0,2,2,3,3,4,4,5,5,7,7,8,8,9,9,10,10,11,11,12,12,15,15,16,16,17,17,19,19,20,20],"right_children":[2,-1,4,6,8,10,-1,12,14,16,18,20,22,-1,-1,24,26,28,-1,30,32,-1,-1,-1,-1,-1,-1,-1,-1,-1,-1,-1,-1],"split_conditions":[1.1820149E-6,-5.097192E-2,2.1810042E-4,2.0510553E-4,8.3919285E-6,5E0,-7.179843E-2,2.2388124E-4,1.4583457E0,4.431858E0,1E2,3.047738E-6,9.1547345E-6,5.0536223E-2,-1.23027444E-1,1.3E1,2.1E1,2.4428408E0,-5.4938704E-2,1.4611256E-4,5.0278776E-3,2.0677734E-2,-1.6794866E-2,-4.72417E-2,-8.3722554E-2,4.5714587E-2,-6.320871E-2,5.0444413E-2,2.377729E-2,4.539006E-2,-2.2664057E-2,3.0647108E-2,5.108731E-2],"split_indices":[19,0,28,28,14,5,0,26,4,4,5,36,19,0,0,3,10,4,0,33,40,0,0,0,0,0,0,0,0,0,0,0,0],"split_type":[0,0,0,0,0,0,0,0,0,0,0,0,0,0,0,0,0,0,0,0,0,0,0,0,0,0,0,0,0,0,0,0,0],"sum_hessian":[4.3127734E2,1.18182755E2,3.130946E2,1.3490378E2,1.7819083E2,1.2097021E2,1.3933574E1,1.4596175E2,3.2229076E1,4.8458435E1,7.2511765E1,1.3175906E2,1.4202688E1,2.476446E1,7.4646187E0,1.4394216E1,3.406422E1,6.608531E1,6.4264555E0,1.2332669E1,1.1942639E2,8.592982E0,5.609706E0,6.0739493E0,8.320266E0,2.8130648E1,5.9335723E0,5.3489056E1,1.2596256E1,6.5466747E0,5.7859945E0,1.6278727E1,1.0314767E2],"tree_param":{"num_deleted":"0","num_feature":"42","num_nodes":"33","size_leaf_vector":"1"}},{"base_weights":[2.9626882E-2,-5.0888386E-2,4.611963E-1,1.1343636E-1,7.025586E-1,-6.111899E-2,4.1011974E-1,7.952203E-1,2.56385E-1,5.542019E-1,-5.3053726E-2,8.73844E-1,9.173648E-2,8.055819E-1,-8.568799E-2,-1.0495388E-1,8.119721E-1,8.119151E-2,9.695412E-1,-3.0967558E-2,3.6191855E-2,4.8338573E-2,2.7353307E-2,4.8364032E-2,-6.0793675E-2,-9.268025E-4,4.8377264E-2,-3.8611896E-2,3.875396E-2,5.0573852E-2,3.1961318E-2],"categories":[],"categories_nodes":[],"categories_segments":[],"categories_sizes":[],"default_left":[0,0,0,0,0,0,0,0,0,0,0,0,0,0,0,0,0,0,0,0,0,0,0,0,0,0,0,0,0,0,0],"id":59,"left_children":[1,-1,3,5,7,-1,9,11,13,15,-1,17,19,21,-1,23,25,27,29,-1,-1,-1,-1,-1,-1,-1,-1,-1,-1,-1,-1],"loss_changes":[1.7864555E2,0E0,2.340905E1,4.6411457E1,6.617653E0,0E0,2.0839664E1,7.4502335E0,3.367815E1,1.4981901E1,0E0,9.201645E0,7.102379E0,4.7215652E-1,0E0,3.1589808E1,8.176044E0,9.049521E0,8.6431885E-1,0E0,0E0,0E0,0E0,0E0,0E0,0E0,0E0,0E0,0E0,0E0,0E0],"parents":[2147483647,0,0,2,2,3,3,4,4,6,6,7,7,8,8,9,9,11,11,12,12,13,13,15,15,16,16,17,17,18,18],"right_children":[2,-1,4,6,8,-1,10,12,14,16,-1,18,20,22,-1,24,26,28,30,-1,-1,-1,-1,-1,-1,-1,-1,-1,-1,-1,-1],"split_conditions":[1.1820149E-6,-5.0888386E-2,2.1810042E-4,1.5421565E-4,2.2388124E-4,-6.111899E-2,1.2824767E-6,6.48E2,1.3873662E-4,3.985797E-5,-5.3053726E-2,2.1148274E-4,1.7677985E-6,7.05398E1,-8.568799E-2,1.8389183E-4,2E0,1.5762521E-4,1.1515019E-7,-3.0967558E-2,3.6191855E-2,4.8338573E-2,2.7353307E-2,4.8364032E-2,-6.0793675E-2,-9.268025E-4,4.8377264E-2,-3.8611896E-2,3.875396E-2,5.0573852E-2,3.1961318E-2],"split_indices":[19,0,28,32,26,0,20,3,30,34,0,26,20,0,0,29,3,33,16,0,0,0,0,0,0,0,0,0,0,0,0],"split_type":[0,0,0,0,0,0,0,0,0,0,0,0,0,0,0,0,0,0,0,0,0,0,0,0,0,0,0,0,0,0,0],"sum_hessian":[3.9317462E2,1.14334045E2,2.7884058E2,1.14842705E2,1.6399785E2,2.0303972E1,9.4538734E1,1.351479E2,2.8849955E1,8.667361E1,7.865125E0,1.2134394E2,1.3803964E1,2.3023138E1,5.826818E0,2.453272E1,6.214089E1,1.3270858E1,1.0807308E2,6.5055985E0,7.298365E0,1.2493502E1,1.0529635E1,1.2549513E1,1.1983209E1,9.942886E0,5.2198E1,5.9006224E0,7.370235E0,9.406828E1,1.4004793E1],"tree_param":{"num_deleted":"0","num_feature":"42","num_nodes":"31","size_leaf_vector":"1"}},{"base_weights":[9.236631E-3,-5.1680516E-2,3.483398E-1,-5.545176E-2,6.5399903E-1,-5.9416007E-2,2.1840946E-1,7.812362E-1,-1.165592E-1,5.834235E-1,-4.995209E-1,9.1207653E-1,-1.19479224E-1,4.9164962E-2,-1.149735E-1,-5.763764E-2,8.712137E-1,-1.06228E0,5.6223077E-1,2.7411807E-1,9.836466E-1,-8.869235E-2,4.5554593E-2,4.716319E-2,2.3167523E-2,-7.190739E-2,7.512729E-3,3.407124E-2,1.8520594E-2,-2.4992822E-2,4.116379E-2,5.095889E-2,3.4478E-2],"categories":[],"categories_nodes":[],"categories_segments":[],"categories_sizes":[],"default_left":[0,0,0,0,0,0,0,0,0,0,0,0,0,0,0,0,0,0,0,0,0,0,0,0,0,0,0,0,0,0,0,0,0],"id":60,"left_children":[1,-1,3,5,7,-1,9,11,13,15,17,19,21,-1,-1,-1,23,25,27,29,31,-1,-1,-1,-1,-1,-1,-1,-1,-1,-1,-1,-1],"loss_changes":[1.3584464E2,0E0,3.58115E1,3.92903E1,1.6273636E1,0E0,2.7062384E1,1.6819244E1,6.0511612E1,3.507379E1,2.149325E1,5.3885727E0,3.3786514E1,0E0,0E0,0E0,1.2985191E0,1.0790932E1,3.9532185E-2,6.313771E0,4.5747375E-1,0E0,0E0,0E0,0E0,0E0,0E0,0E0,0E0,0E0,0E0,0E0,0E0],"parents":[2147483647,0,0,2,2,3,3,4,4,6,6,7,7,8,8,9,9,10,10,11,11,12,12,16,16,17,17,18,18,19,19,20,20],"right_children":[2,-1,4,6,8,-1,10,12,14,16,18,20,22,-1,-1,-1,24,26,28,30,32,-1,-1,-1,-1,-1,-1,-1,-1,-1,-1,-1,-1],"split_conditions":[2.5901222E-3,-5.1680516E-2,2.1810042E-4,1.5421565E-4,8.3919285E-6,-5.9416007E-2,3.3217752E0,2.248275E-4,1.4583457E0,5E0,7.819987E1,5.0278776E-3,1.4228999E7,4.9164962E-2,-1.149735E-1,-5.763764E-2,1.2082024E-6,1.6696562E-4,1.5E1,1.5635204E-6,1.435386E-4,-8.869235E-2,4.5554593E-2,4.716319E-2,2.3167523E-2,