{"learner":{"attributes":{"best_iteration":"232","best_score":"0.0025860867237979","scikit_learn":"{\"_estimator_type\": \"regressor\"}"},"feature_names":["temperature_2m","relative_humidity_2m","dew_point_2m","direct_radiation","wind_speed_10m","cloud_cover","apparent_temperature","precipitation","grossarea","floorsaboveground","building_age","hour_of_day","minute_of_hour","day_of_week","is_weekend","energy_lag_4","energy_lag_24","energy_lag_96","energy_lag_672","rolling_mean_96","rolling_std_96","rolling_mean_672","rolling_std_672","temp_x_area","humidity_x_area"],"feature_types":["float","float","float","float","float","int","float","float","int","float","float","int","int","int","int","float","float","float","float","float","float","float","float","float","float"],"gradient_booster":{"model":{"cats":{"enc":[],"feature_segments":[],"sorted_idx":[]},"gbtree_model_param":{"num_parallel_tree":"1","num_trees":"283"},"iteration_indptr":[0,1,2,3,4,5,6,7,8,9,10,11,12,13,14,15,16,17,18,19,20,21,22,23,24,25,26,27,28,29,30,31,32,33,34,35,36,37,38,39,40,41,42,43,44,45,46,47,48,49,50,51,52,53,54,55,56,57,58,59,60,61,62,63,64,65,66,67,68,69,70,71,72,73,74,75,76,77,78,79,80,81,82,83,84,85,86,87,88,89,90,91,92,93,94,95,96,97,98,99,100,101,102,103,104,105,106,107,108,109,110,111,112,113,114,115,116,117,118,119,120,121,122,123,124,125,126,127,128,129,130,131,132,133,134,135,136,137,138,139,140,141,142,143,144,145,146,147,148,149,150,151,152,153,154,155,156,157,158,159,160,161,162,163,164,165,166,167,168,169,170,171,172,173,174,175,176,177,178,179,180,181,182,183,184,185,186,187,188,189,190,191,192,193,194,195,196,197,198,199,200,201,202,203,204,205,206,207,208,209,210,211,212,213,214,215,216,217,218,219,220,221,222,223,224,225,226,227,228,229,230,231,232,233,234,235,236,237,238,239,240,241,242,243,244,245,246,247,248,249,250,251,252,253,254,255,256,257,258,259,260,261,262,263,264,265,266,267,268,269,270,271,272,273,274,275,276,277,278,279,280,281,282,283],"tree_info":[0,0,0,0,0,0,0,0,0,0,0,0,0,0,0,0,0,0,0,0,0,0,0,0,0,0,0,0,0,0,0,0,0,0,0,0,0,0,0,0,0,0,0,0,0,0,0,0,0,0,0,0,0,0,0,0,0,0,0,0,0,0,0,0,0,0,0,0,0,0,0,0,0,0,0,0,0,0,0,0,0,0,0,0,0,0,0,0,0,0,0,0,0,0,0,0,0,0,0,0,0,0,0,0,0,0,0,0,0,0,0,0,0,0,0,0,0,0,0,0,0,0,0,0,0,0,0,0,0,0,0,0,0,0,0,0,0,0,0,0,0,0,0,0,0,0,0,0,0,0,0,0,0,0,0,0,0,0,0,0,0,0,0,0,0,0,0,0,0,0,0,0,0,0,0,0,0,0,0,0,0,0,0,0,0,0,0,0,0,0,0,0,0,0,0,0,0,0,0,0,0,0,0,0,0,0,0,0,0,0,0,0,0,0,0,0,0,0,0,0,0,0,0,0,0,0,0,0,0,0,0,0,0,0,0,0,0,0,0,0,0,0,0,0,0,0,0,0,0,0,0,0,0,0,0,0,0,0,0,0,0,0,0,0,0,0,0,0,0,0,0,0,0,0,0,0,0,0,0,0,0,0,0],"trees":[{"base_weights":[-1.7887649E-5,-4.1440213E-3,3.6459405E-2,-4.3690116E-3,2.6988396E-3,2.5133837E-2,4.4909906E-2,-4.472531E-3,-2.7134109E-3,1.2423125E-3,1.3262094E-3,1.5606465E-4,2.6315268E-2,2.0936439E-3,2.328899E-3,-4.474665E-3,-0E0,-2.781418E-3,1.9056123E-4,-1.2191558E-3,4.409288E-3,5.365846E-3,-1.0372334E-4,2.3824262E-2,1.4316513E-3,-2.2809433E-4,-2.0389957E-4,-2.813594E-3,-0E0,-2.7869658E-3,-1.3985527E-4,2.4897668E-3,5.9802365E-3,3.5057915E-4,-0E0,2.4494324E-2,7.1807683E-4,-0E0,-2.889738E-3,-0E0,-1.4406408E-4,3.2433786E-4,-1.2029217E-3,2.6220721E-3,-0E0,6.0571735E-3,-0E0,-0E0,1.2376559E-3,-3.62919E-5,-0E0,-0E0,-1.4507122E-4,4.176836E-5,-0E0,-8.052018E-5,-0E0,-0E0,1.373568E-4,3.0775464E-4,-0E0],"categories":[],"categories_nodes":[],"categories_segments":[],"categories_sizes":[],"default_left":[0,0,0,0,0,0,0,0,0,0,0,0,0,0,0,0,0,0,0,0,0,0,0,0,0,0,0,0,0,0,0,0,0,0,0,0,0,0,0,0,0,0,0,0,0,0,0,0,0,0,0,0,0,0,0,0,0,0,0,0,0],"id":0,"left_children":[1,3,5,7,9,11,13,15,17,-1,19,21,23,-1,-1,25,-1,27,-1,29,31,33,-1,35,-1,-1,-1,37,-1,39,41,43,45,-1,-1,47,-1,49,51,-1,-1,53,55,57,-1,59,-1,-1,-1,-1,-1,-1,-1,-1,-1,-1,-1,-1,-1,-1,-1],"loss_changes":[6.588362E0,6.0756624E-2,4.175706E-1,5.8006644E-3,3.501566E-2,5.3653E-2,2.0771027E-3,5.235672E-4,9.290688E-4,0E0,9.52173E-3,1.3977422E-3,4.5684576E-3,0E0,0E0,3.5601854E-4,0E0,1.7548725E-4,0E0,7.6451455E-4,7.905876E-4,5.4019585E-4,0E0,1.4882088E-3,0E0,0E0,0E0,2.2329576E-4,0E0,4.1293097E-5,2.9007703E-4,8.421263E-5,3.1767413E-5,0E0,0E0,5.089402E-3,0E0,2.9503082E-5,3.9488077E-6,0E0,0E0,6.478472E-5,8.5548585E-5,6.273016E-5,0E0,1.5007332E-5,0E0,0E0,0E0,0E0,0E0,0E0,0E0,0E0,0E0,0E0,0E0,0E0,0E0,0E0,0E0],"parents":[2147483647,0,0,1,1,2,2,3,3,4,4,5,5,6,6,7,7,8,8,10,10,11,11,12,12,15,15,17,17,19,19,20,20,21,21,23,23,27,27,29,29,30,30,31,31,32,32,35,35,37,37,38,38,41,41,42,42,43,43,45,45],"right_children":[2,4,6,8,10,12,14,16,18,-1,20,22,24,-1,-1,26,-1,28,-1,30,32,34,-1,36,-1,-1,-1,38,-1,40,42,44,46,-1,-1,48,-1,50,52,-1,-1,54,56,58,-1,60,-1,-1,-1,-1,-1,-1,-1,-1,-1,-1,-1,-1,-1,-1,-1],"split_conditions":[1.555993E-2,3.7612966E-3,4.286167E-2,9.867176E-4,5E0,1.3001554E-2,4.827165E-2,2.7805697E-3,5.484422E-3,1.2423125E-3,6.375103E-3,6.7314935E6,3.086328E-2,2.0936439E-3,2.328899E-3,3.8711572E-4,-0E0,1.2544557E-2,1.9056123E-4,1.995011E-4,1.06480215E-2,7.0637595E6,-1.0372334E-4,1.11504E5,1.4316513E-3,-2.2809433E-4,-2.0389957E-4,1.3662428E-7,-0E0,5.7039803E1,6.2494287E-3,4.688721E-3,4.2861678E-2,3.5057915E-4,-0E0,1.8247757E-2,7.1807683E-4,2.7191297E-3,3.351124E6,-0E0,-1.4406408E-4,1.1E1,4.51E2,4.28198E1,-0E0,6.888543E0,-0E0,-0E0,1.2376559E-3,-3.62919E-5,-0E0,-0E0,-1.4507122E-4,4.176836E-5,-0E0,-8.052018E-5,-0E0,-0E0,1.373568E-4,3.0775464E-4,-0E0],"split_indices":[15,19,15,19,9,18,15,20,20,0,15,24,15,0,0,19,0,16,0,15,15,23,0,8,0,0,0,18,0,0,19,20,16,0,0,18,0,15,24,0,0,11,3,2,0,4,0,0,0,0,0,0,0,0,0,0,0,0,0,0,0],"split_type":[0,0,0,0,0,0,0,0,0,0,0,0,0,0,0,0,0,0,0,0,0,0,0,0,0,0,0,0,0,0,0,0,0,0,0,0,0,0,0,0,0,0,0,0,0,0,0,0,0,0,0,0,0,0,0,0,0,0,0,0,0],"sum_hessian":[4.3793E4,3.9346E4,4.447E3,3.8108E4,1.238E3,1.907E3,2.54E3,3.5807E4,2.301E3,6.7E1,1.171E3,9E1,1.817E3,9.31E2,1.609E3,3.5799E4,8E0,2.293E3,8E0,6.24E2,5.47E2,4E1,5E1,9.02E2,9.15E2,2.9131E4,6.668E3,2.263E3,3E1,2.16E2,4.08E2,2.76E2,2.71E2,3.4E1,6E0,8.31E2,7.1E1,9.1E1,2.172E3,9E0,2.07E2,2.19E2,1.89E2,2.61E2,1.5E1,2.65E2,6E0,9E0,8.22E2,5.5E1,3.6E1,1.7E1,2.155E3,1.25E2,9.4E1,1.38E2,5.1E1,1.5E1,2.46E2,2.57E2,8E0],"tree_param":{"num_deleted":"0","num_feature":"25","num_nodes":"61","size_leaf_vector":"1"}},{"base_weights":[-1.1455052E-5,-3.937849E-3,3.473021E-2,-4.1493154E-3,2.519093E-3,2.3947291E-2,4.2657737E-2,-4.2485893E-3,-2.5689946E-3,1.1744081E-3,1.2718517E-3,-0E0,2.5181152E-2,1.990305E-3,2.215164E-3,-4.250279E-3,-0E0,-2.6279164E-3,-0E0,-1.2570102E-3,4.329662E-3,-1.03010345E-4,3.233476E-4,2.2770591E-2,1.3695837E-3,-4.3372675E-3,-3.8902645E-3,-2.665938E-3,-0E0,-0E0,2.1720196E-3,-1.4275618E-4,-1.5763183E-4,2.4975636E-3,5.8750133E-3,-0E0,2.2902988E-2,-2.168841E-4,-0E0,-1.9484042E-4,-0E0,-5.045334E-5,-2.746129E-3,-0E0,1.8129076E-4,-0E0,-1.1562647E-3,2.8131756E-3,-0E0,-0E0,3.084763E-4,1.1662444E-3,4.566629E-4,-0E0,-5.5028006E-5,-1.3828228E-4,-0E0,2.6473304E-5,-0E0,-9.157118E-5,-0E0,-0E0,1.4734204E-4],"categories":[],"categories_nodes":[],"categories_segments":[],"categories_sizes":[],"default_left":[0,0,0,0,0,0,0,0,0,0,0,0,0,0,0,0,0,0,0,0,0,0,0,0,0,0,0,0,0,0,0,0,0,0,0,0,0,0,0,0,0,0,0,0,0,0,0,0,0,0,0,0,0,0,0,0,0,0,0,0,0,0,0],"id":1,"left_children":[1,3,5,7,9,11,13,15,17,-1,19,21,23,-1,-1,25,-1,27,29,31,33,-1,-1,35,-1,37,39,41,-1,-1,43,-1,45,47,49,-1,51,-1,-1,-1,-1,53,55,-1,-1,57,59,61,-1,-1,-1,-1,-1,-1,-1,-1,-1,-1,-1,-1,-1,-1,-1],"loss_changes":[5.9973E0,5.4140687E-2,3.73909E-1,5.313754E-3,2.98983E-2,5.5508494E-2,1.8668175E-3,3.5387278E-4,6.014444E-4,0E0,9.398724E-3,1.3844697E-3,3.978133E-3,0E0,0E0,2.862811E-4,0E0,2.728626E-4,5.1894363E-5,7.981132E-4,7.052487E-4,0E0,0E0,2.240628E-3,0E0,9.179115E-6,2.1656603E-4,1.988262E-4,0E0,0E0,2.6984846E-5,0E0,1.5829269E-4,1.5778735E-4,3.7155114E-5,0E0,1.6825199E-3,0E0,0E0,0E0,0E0,7.240411E-5,1.8828921E-4,0E0,0E0,2.2426748E-5,6.9686546E-5,8.288247E-5,0E0,0E0,0E0,0E0,0E0,0E0,0E0,0E0,0E0,0E0,0E0,0E0,0E0,0E0,0E0],"parents":[2147483647,0,0,1,1,2,2,3,3,4,4,5,5,6,6,7,7,8,8,10,10,11,11,12,12,15,15,17,17,18,18,19,19,20,20,23,23,25,25,26,26,27,27,30,30,32,32,33,33,34,34,36,36,41,41,42,42,45,45,46,46,47,47],"right_children":[2,4,6,8,10,12,14,16,18,-1,20,22,24,-1,-1,26,-1,28,30,32,34,-1,-1,36,-1,38,40,42,-1,-1,44,-1,46,48,50,-1,52,-1,-1,-1,-1,54,56,-1,-1,58,60,62,-1,-1,-1,-1,-1,-1,-1,-1,-1,-1,-1,-1,-1,-1,-1],"split_conditions":[1.555993E-2,3.7612966E-3,4.286167E-2,9.867176E-4,5E0,1.078512E-2,4.827165E-2,2.7805697E-3,5.702667E-3,1.1744081E-3,6.375103E-3,1.7357357E-3,3.086328E-2,1.990305E-3,2.215164E-3,3.457331E-4,-0E0,1.2544557E-2,5.96498E1,1.995011E-4,1.06480215E-2,-1.03010345E-4,3.233476E-4,1.3662428E-7,1.3695837E-3,6.6316547E-4,5.6113433E-3,1.3662428E-7,-0E0,-0E0,2E0,-1.4275618E-4,6.490304E-3,1.078512E-2,4.3359802E1,-0E0,8.487516E-3,-2.168841E-4,-0E0,-1.9484042E-4,-0E0,9E0,1.555993E-2,-0E0,1.8129076E-4,4.70498E1,4.3871677E-3,4.28198E1,-0E0,-0E0,3.084763E-4,1.1662444E-3,4.566629E-4,-0E0,-5.5028006E-5,-1.3828228E-4,-0E0,2.6473304E-5,-0E0,-9.157118E-5,-0E0,-0E0,1.4734204E-4],"split_indices":[15,19,15,19,9,17,15,20,22,0,15,17,15,0,0,19,0,16,2,15,15,0,0,18,0,20,22,18,0,0,11,0,19,17,2,0,20,0,0,0,0,11,17,0,0,2,15,2,0,0,0,0,0,0,0,0,0,0,0,0,0,0,0],"split_type":[0,0,0,0,0,0,0,0,0,0,0,0,0,0,0,0,0,0,0,0,0,0,0,0,0,0,0,0,0,0,0,0,0,0,0,0,0,0,0,0,0,0,0,0,0,0,0,0,0,0,0,0,0,0,0,0,0,0,0,0,0,0,0],"sum_hessian":[4.3986E4,3.9523E4,4.463E3,3.8285E4,1.238E3,1.898E3,2.565E3,3.5961E4,2.324E3,6.4E1,1.174E3,9.4E1,1.804E3,9.7E2,1.595E3,3.5952E4,9E0,2.308E3,1.6E1,6.25E2,5.49E2,6.9E1,2.5E1,8.9E2,9.14E2,2.8723E4,7.229E3,2.281E3,2.7E1,6E0,1E1,2.17E2,4.08E2,2.82E2,2.67E2,6E0,8.84E2,2.8718E4,5E0,7.219E3,1E1,1.05E2,2.176E3,5E0,5E0,2.83E2,1.25E2,2.42E2,4E1,2.4E1,2.43E2,8.5E2,3.4E1,4.6E1,5.9E1,2.17E3,6E0,7.9E1,2.04E2,7E1,5.5E1,1.2E1,2.3E2],"tree_param":{"num_deleted":"0","num_feature":"25","num_nodes":"63","size_leaf_vector":"1"}},{"base_weights":[-3.271971E-5,-3.7427673E-3,3.2881893E-2,-3.954208E-3,1.8243E-3,2.2721624E-2,4.0548034E-2,-4.042987E-3,-2.5953893E-3,1.111942E-3,7.917818E-4,-0E0,2.3823706E-2,1.889023E-3,2.1057564E-3,-2.0706354E-4,-1.8807568E-4,-1.3416978E-4,-2.0257994E-5,-1.2584026E-3,3.816396E-3,-1.5209437E-3,2.6637726E-4,2.1594355E-2,1.2939018E-3,3.9424398E-4,-1.2114203E-4,-6.815018E-4,-1.7152807E-4,4.148817E-3,-0E0,-1.088772E-4,-0E0,4.4283448E-4,2.1965744E-2,-0E0,1.2768379E-3,-8.914102E-4,2.44576E-4,2.3329512E-3,5.6834286E-3,1.6758444E-4,1.1074401E-3,1.1469886E-4,-0E0,-0E0,-6.540036E-5,1.3563833E-4,-0E0,2.879281E-4,-0E0],"categories":[],"categories_nodes":[],"categories_segments":[],"categories_sizes":[],"default_left":[0,0,0,0,0,0,0,0,0,0,0,0,0,0,0,0,0,0,0,0,0,0,0,0,0,0,0,0,0,0,0,0,0,0,0,0,0,0,0,0,0,0,0,0,0,0,0,0,0,0,0],"id":2,"left_children":[1,3,5,7,9,11,13,15,17,-1,19,21,23,-1,-1,-1,-1,-1,25,27,29,31,-1,33,-1,35,-1,37,-1,39,-1,-1,-1,-1,41,-1,43,45,-1,47,49,-1,-1,-1,-1,-1,-1,-1,-1,-1,-1],"loss_changes":[5.3575587E0,4.6660542E-2,3.3889532E-1,3.913045E-3,2.7758185E-2,4.7924995E-2,1.3747215E-3,1.796484E-4,2.743937E-4,0E0,8.718788E-3,7.5796637E-4,3.0750036E-3,0E0,0E0,0E0,0E0,0E0,3.2132812E-4,5.8143307E-4,1.1332184E-3,1.3679809E-4,0E0,1.013875E-3,0E0,6.31059E-5,0E0,3.8228245E-4,0E0,7.149726E-4,0E0,0E0,0E0,0E0,3.503859E-4,0E0,1.1081744E-4,3.061287E-4,0E0,2.3327034E-4,3.056694E-5,0E0,0E0,0E0,0E0,0E0,0E0,0E0,0E0,0E0,0E0],"parents":[2147483647,0,0,1,1,2,2,3,3,4,4,5,5,6,6,7,7,8,8,10,10,11,11,12,12,18,18,19,19,20,20,21,21,23,23,25,25,27,27,29,29,34,34,36,36,37,37,39,39,40,40],"right_children":[2,4,6,8,10,12,14,16,18,-1,20,22,24,-1,-1,-1,-1,-1,26,28,30,32,-1,34,-1,36,-1,38,-1,40,-1,-1,-1,-1,42,-1,44,46,-1,48,50,-1,-1,-1,-1,-1,-1,-1,-1,-1,-1],"split_conditions":[1.555993E-2,5.5332975E-3,4.286167E-2,9.22786E-4,5E0,1.078512E-2,4.827165E-2,2.9621058E-4,2.7191297E-3,1.111942E-3,6.375103E-3,1.7357357E-3,3.086328E-2,1.889023E-3,2.1057564E-3,-2.0706354E-4,-1.8807568E-4,-1.3416978E-4,2E0,3.89563E-2,6.1809803E1,3.1060804E-2,2.6637726E-4,1.555993E-2,1.2939018E-3,5.59598E1,-1.2114203E-4,7.268161E6,-1.7152807E-4,1.06480215E-2,-0E0,-1.088772E-4,-0E0,4.4283448E-4,5.81198E1,-0E0,7.806328E1,4.90298E1,2.44576E-4,1.078512E-2,4.2861678E-2,1.6758444E-4,1.1074401E-3,1.1469886E-4,-0E0,-0E0,-6.540036E-5,1.3563833E-4,-0E0,2.879281E-4,-0E0],"split_indices":[15,21,15,21,9,17,15,15,15,0,15,17,15,0,0,0,0,0,13,21,2,21,0,16,0,2,0,23,0,15,0,0,0,0,0,0,6,2,0,17,16,0,0,0,0,0,0,0,0,0,0],"split_type":[0,0,0,0,0,0,0,0,0,0,0,0,0,0,0,0,0,0,0,0,0,0,0,0,0,0,0,0,0,0,0,0,0,0,0,0,0,0,0,0,0,0,0,0,0,0,0,0,0,0,0],"sum_hessian":[4.3895E4,3.9452E4,4.443E3,3.8026E4,1.426E3,1.918E3,2.525E3,3.5623E4,2.403E3,6.3E1,1.363E3,8.9E1,1.829E3,9.45E2,1.58E3,2.613E4,9.493E3,2.286E3,1.17E2,7.93E2,5.7E2,6.9E1,2E1,9.06E2,9.23E2,6.5E1,5.2E1,6.64E2,1.29E2,5.48E2,2.2E1,6.2E1,7E0,3.4E1,8.72E2,2.1E1,4.4E1,6.58E2,6E0,2.82E2,2.66E2,1.4E1,8.58E2,3.4E1,1E1,1.74E2,4.84E2,2.4E2,4.2E1,2.6E2,6E0],"tree_param":{"num_deleted":"0","num_feature":"25","num_nodes":"51","size_leaf_vector":"1"}},{"base_weights":[-2.2751268E-5,-3.5499162E-3,3.125514E-2,-3.7454646E-3,2.264447E-3,2.1467991E-2,3.8548592E-2,-3.8364157E-3,-2.2750744E-3,1.0604818E-3,1.1381799E-3,-0E0,2.2566045E-2,1.7977506E-3,2.0025808E-3,-3.9065103E-3,-3.4588235E-3,-2.3567108E-3,2.8868655E-3,-1.077425E-3,3.917184E-3,-1.9586454E-3,2.4724085E-4,2.1315765E-2,1.2989885E-3,-1.953439E-4,-0E0,-1.7323862E-4,-0E0,-2.3745513E-3,-0E0,-0E0,6.0279397E-3,-2.4378058E-3,-0E0,2.2356475E-3,5.2784933E-3,-1.0998075E-4,-0E0,2.1566765E-2,5.418E-4,-1.2053208E-4,-0E0,-0E0,4.9949123E-4,-0E0,-1.3069545E-4,1.2976745E-4,-1.1068537E-3,2.5591147E-3,-0E0,-0E0,5.581807E-3,-0E0,1.0808675E-3,-0E0,-6.161216E-5,2.4366176E-5,-0E0,-6.504854E-5,-0E0,-0E0,1.363545E-4,-0E0,2.82923E-4],"categories":[],"categories_nodes":[],"categories_segments":[],"categories_sizes":[],"default_left":[0,0,0,0,0,0,0,0,0,0,0,0,0,0,0,0,0,0,0,0,0,0,0,0,0,0,0,0,0,0,0,0,0,0,0,0,0,0,0,0,0,0,0,0,0,0,0,0,0,0,0,0,0,0,0,0,0,0,0,0,0,0,0,0,0],"id":3,"left_children":[1,3,5,7,9,11,13,15,17,-1,19,21,23,-1,-1,25,27,29,31,33,35,37,-1,39,-1,-1,-1,-1,-1,41,-1,-1,43,45,47,49,51,-1,-1,53,-1,-1,55,-1,-1,-1,-1,57,59,61,-1,-1,63,-1,-1,-1,-1,-1,-1,-1,-1,-1,-1,-1,-1],"loss_changes":[4.8338695E0,4.4955164E-2,3.1010723E-1,4.480183E-3,2.4754155E-2,4.572195E-2,8.49247E-4,1.9878149E-4,9.1795623E-4,0E0,7.682964E-3,7.8968843E-4,2.4547577E-3,0E0,0E0,9.894371E-6,1.8071383E-4,1.57943E-4,2.943548E-4,7.0856453E-4,5.026525E-4,4.311517E-5,0E0,8.761883E-5,0E0,0E0,0E0,0E0,0E0,8.334406E-5,0E0,0E0,2.625434E-4,1.2319197E-4,1.5543915E-4,2.0160095E-4,1.482307E-4,0E0,0E0,6.2048435E-5,0E0,0E0,5.010797E-5,0E0,0E0,0E0,0E0,3.134884E-5,3.5487334E-5,9.9443714E-5,0E0,0E0,5.3585973E-5,0E0,0E0,0E0,0E0,0E0,0E0,0E0,0E0,0E0,0E0,0E0,0E0],"parents":[2147483647,0,0,1,1,2,2,3,3,4,4,5,5,6,6,7,7,8,8,10,10,11,11,12,12,15,15,16,16,17,17,18,18,19,19,20,20,21,21,23,23,29,29,32,32,33,33,34,34,35,35,36,36,39,39,42,42,47,47,48,48,49,49,52,52],"right_children":[2,4,6,8,10,12,14,16,18,-1,20,22,24,-1,-1,26,28,30,32,34,36,38,-1,40,-1,-1,-1,-1,-1,42,-1,-1,44,46,48,50,52,-1,-1,54,-1,-1,56,-1,-1,-1,-1,58,60,62,-1,-1,64,-1,-1,-1,-1,-1,-1,-1,-1,-1,-1,-1,-1],"split_conditions":[1.555993E-2,3.7612966E-3,4.286167E-2,9.867176E-4,5E0,1.078512E-2,4.827165E-2,4.3888495E-4,5.702667E-3,1.0604818E-3,6.375103E-3,1.7357357E-3,3.258997E-2,1.7977506E-3,2.0025808E-3,1.8123896E-3,5.6113433E-3,1.555993E-2,5.96498E1,5.424641E-4,1.06480215E-2,3.1060804E-2,2.4724085E-4,8.487516E-3,1.2989885E-3,-1.953439E-4,-0E0,-1.7323862E-4,-0E0,1.06480215E-2,-0E0,-0E0,6.5409805E1,5.7039803E1,6.490304E-3,1.078512E-2,4.3359802E1,-1.0998075E-4,-0E0,5E0,5.418E-4,-1.2053208E-4,6.07298E1,-0E0,4.9949123E-4,-0E0,-1.3069545E-4,1.7E1,5.653631E6,4.28198E1,-0E0,-0E0,1.9230242E-3,-0E0,1.0808675E-3,-0E0,-6.161216E-5,2.4366176E-5,-0E0,-6.504854E-5,-0E0,-0E0,1.363545E-4,-0E0,2.82923E-4],"split_indices":[15,19,15,19,9,17,15,19,22,0,15,17,15,0,0,17,22,17,2,15,15,21,0,20,0,0,0,0,0,15,0,0,0,0,19,17,2,0,0,10,0,0,2,0,0,0,0,3,23,2,0,0,21,0,0,0,0,0,0,0,0,0,0,0,0],"split_type":[0,0,0,0,0,0,0,0,0,0,0,0,0,0,0,0,0,0,0,0,0,0,0,0,0,0,0,0,0,0,0,0,0,0,0,0,0,0,0,0,0,0,0,0,0,0,0,0,0,0,0,0,0,0,0,0,0,0,0,0,0,0,0,0,0],"sum_hessian":[4.3839E4,3.94E4,4.439E3,3.8135E4,1.265E3,1.903E3,2.536E3,3.5848E4,2.287E3,6.5E1,1.2E3,9.1E1,1.812E3,9.64E2,1.572E3,3.0004E4,5.844E3,2.271E3,1.6E1,6.48E2,5.52E2,7.1E1,2E1,1.353E3,4.59E2,2.9999E4,5E0,5.839E3,5E0,2.265E3,6E0,5E0,1.1E1,2.45E2,4.03E2,2.81E2,2.71E2,6.5E1,6E0,1.311E3,4.2E1,2.212E3,5.3E1,5E0,6E0,1.4E1,2.31E2,2.81E2,1.22E2,2.45E2,3.6E1,2.4E1,2.47E2,6E0,1.305E3,2.1E1,3.2E1,1.51E2,1.3E2,1.09E2,1.3E1,1.6E1,2.29E2,5E0,2.42E2],"tree_param":{"num_deleted":"0","num_feature":"25","num_nodes":"65","size_leaf_vector":"1"}},{"base_weights":[1.5077379E-5,-3.3930966E-3,2.9194068E-2,-3.5692065E-3,1.6607883E-3,2.0886078E-2,3.6250662E-2,-3.6525314E-3,-2.4144736E-3,1.0567365E-3,1.7739345E-3,-0E0,2.1837775E-2,3.365842E-2,3.786638E-2,-1.870381E-4,-1.7030147E-4,-1.2348597E-4,2.2361756E-4,1.3202307E-3,-1.4786158E-3,1.8100406E-3,-1.0675186E-4,2.259369E-2,1.0210328E-2,1.6996857E-3,-0E0,7.861235E-5,1.897218E-3,1.582951E-3,-0E0,-1.9166033E-3,-0E0,-0E0,1.8293518E-4,2.171338E-2,1.6821603E-3,1.5269777E-2,-6.044999E-5,1.621291E-6,2.085125E-3,-7.712553E-4,-0E0,-0E0,-1.1232535E-4,1.0907908E-3,-0E0,1.2165912E-3,3.7931712E-4,5.8961752E-5,-2.518559E-5,-0E0,1.13933944E-4,-4.98396E-5,-0E0,-0E0,2.3349054E-5],"categories":[],"categories_nodes":[],"categories_segments":[],"categories_sizes":[],"default_left":[0,0,0,0,0,0,0,0,0,0,0,0,0,0,0,0,0,0,0,0,0,0,0,0,0,0,0,0,0,0,0,0,0,0,0,0,0,0,0,0,0,0,0,0,0,0,0,0,0,0,0,0,0,0,0,0,0],"id":4,"left_children":[1,3,5,7,9,11,13,15,17,19,-1,21,23,25,27,-1,-1,-1,-1,29,31,33,-1,35,37,-1,-1,-1,-1,39,41,43,-1,-1,-1,45,-1,47,-1,49,51,53,55,-1,-1,-1,-1,-1,-1,-1,-1,-1,-1,-1,-1,-1,-1],"loss_changes":[4.3745713E0,3.5230458E-2,2.63268E-1,3.046155E-3,2.3008056E-2,4.3837667E-2,1.9602776E-3,4.2796135E-5,8.1711635E-4,8.465628E-4,0E0,3.7634885E-4,1.4357686E-2,1.1942983E-2,2.2268295E-4,0E0,0E0,0E0,0E0,5.5422704E-4,6.176684E-5,2.0959317E-4,0E0,1.22151375E-2,9.166456E-3,0E0,0E0,0E0,0E0,6.314826E-4,6.424215E-5,5.8065343E-5,0E0,0E0,0E0,4.565358E-3,0E0,3.51673E-3,0E0,2.4905286E-4,4.45578E-4,3.611087E-5,5.4517823E-6,0E0,0E0,0E0,0E0,0E0,0E0,0E0,0E0,0E0,0E0,0E0,0E0,0E0,0E0],"parents":[2147483647,0,0,1,1,2,2,3,3,4,4,5,5,6,6,7,7,8,8,9,9,11,11,12,12,13,13,14,14,19,19,20,20,21,21,23,23,24,24,29,29,30,30,31,31,35,35,37,37,39,39,40,40,41,41,42,42],"right_children":[2,4,6,8,10,12,14,16,18,20,-1,22,24,26,28,-1,-1,-1,-1,30,32,34,-1,36,38,-1,-1,-1,-1,40,42,44,-1,-1,-1,46,-1,48,-1,50,52,54,56,-1,-1,-1,-1,-1,-1,-1,-1,-1,-1,-1,-1,-1,-1],"split_conditions":[1.6207527E-2,2.457547E-3,4.2985346E-2,9.1961684E-4,2.0847213E-2,1.8247757E-2,4.9744528E-2,2.792081E-4,4.9673175E-3,5.7112055E6,1.7739345E-3,4.96598E1,4.3511644E-2,4.9180146E-2,4.3179802E1,-1.870381E-4,-1.7030147E-4,-1.2348597E-4,2.2361756E-4,1.2738781E-2,1.1676264E-2,5.7039803E1,-1.0675186E-4,4.2861678E-2,4E0,1.6996857E-3,-0E0,7.861235E-5,1.897218E-3,4.180117E-3,8.7743355E-3,1.7684831E-3,-0E0,-0E0,1.8293518E-4,1.5770702E-2,1.6821603E-3,1.11504E5,-6.044999E-5,6.489353E-3,3.7612966E-3,5.98298E1,3.11578E0,-0E0,-1.1232535E-4,1.0907908E-3,-0E0,1.2165912E-3,3.7931712E-4,5.8961752E-5,-2.518559E-5,-0E0,1.13933944E-4,-4.98396E-5,-0E0,-0E0,2.3349054E-5],"split_indices":[19,19,19,21,22,18,19,19,20,24,0,2,17,21,2,0,0,0,0,17,18,0,0,16,13,0,0,0,0,22,16,21,0,0,0,20,0,8,0,16,19,2,4,0,0,0,0,0,0,0,0,0,0,0,0,0,0],"split_type":[0,0,0,0,0,0,0,0,0,0,0,0,0,0,0,0,0,0,0,0,0,0,0,0,0,0,0,0,0,0,0,0,0,0,0,0,0,0,0,0,0,0,0,0,0,0,0,0,0,0,0,0,0,0,0,0,0],"sum_hessian":[4.3961E4,3.9361E4,4.6E3,3.8055E4,1.306E3,2.121E3,2.479E3,3.5411E4,2.644E3,1.287E3,1.9E1,8.9E1,2.032E3,9.84E2,1.495E3,2.5768E4,9.643E3,2.638E3,6E0,1.202E3,8.5E1,2.9E1,6E1,1.899E3,1.33E2,9.75E2,9E0,6E0,1.489E3,1.057E3,1.45E2,6.7E1,1.8E1,7E0,2.2E1,1.77E3,1.29E2,9.8E1,3.5E1,3.03E2,7.54E2,1.07E2,3.8E1,7E0,6E1,1.763E3,7E0,3.8E1,6E1,1.5E2,1.53E2,3.7E1,7.17E2,1E2,7E0,1.4E1,2.4E1],"tree_param":{"num_deleted":"0","num_feature":"25","num_nodes":"57","size_leaf_vector":"1"}},{"base_weights":[-1.0470346E-5,-3.2147553E-3,2.823265E-2,-3.382628E-3,1.998364E-3,1.9376868E-2,3.483383E-2,-3.4624797E-3,-2.0812969E-3,9.570961E-4,1.0029128E-3,-1.00432E-3,2.0272134E-2,1.6181133E-3,1.8099968E-3,-3.5332374E-3,-3.1500831E-3,-2.144533E-3,2.819602E-4,-1.1708076E-3,3.5443287E-3,-0E0,-9.457553E-5,6.7122787E-4,2.0846907E-2,-1.7669883E-4,-0E0,-1.5757058E-4,-0E0,-2.161865E-3,-0E0,-1.6795195E-3,-0E0,1.1427666E-3,4.241052E-3,-0E0,2.0934213E-2,-2.187973E-3,-0E0,-0E0,-1.9992369E-3,-0E0,5.190088E-4,-0E0,1.3035439E-3,-0E0,4.584268E-3,1.0030706E-3,1.2286577E-3,-0E0,-1.1306392E-4,-1.0426645E-4,-0E0,-0E0,4.5162844E-5,7.421653E-5,-0E0,-0E0,2.3379897E-4],"categories":[],"categories_nodes":[],"categories_segments":[],"categories_sizes":[],"default_left":[0,0,0,0,0,0,0,0,0,0,0,0,0,0,0,0,0,0,0,0,0,0,0,0,0,0,0,0,0,0,0,0,0,0,0,0,0,0,0,0,0,0,0,0,0,0,0,0,0,0,0,0,0,0,0,0,0,0,0],"id":5,"left_children":[1,3,5,7,9,11,13,15,17,-1,19,21,23,-1,-1,25,27,29,-1,31,33,-1,-1,-1,35,-1,-1,-1,-1,37,-1,39,41,43,45,-1,47,49,-1,-1,51,-1,53,-1,55,-1,57,-1,-1,-1,-1,-1,-1,-1,-1,-1,-1,-1,-1],"loss_changes":[3.9731197E0,3.4675658E-2,2.5538945E-1,3.4125745E-3,1.8666863E-2,3.696233E-2,5.9866905E-4,1.15424395E-4,7.7868626E-4,0E0,6.6110515E-3,1.3342421E-4,3.5466552E-3,0E0,0E0,7.6800585E-5,8.203089E-6,1.2351293E-4,0E0,5.1038666E-4,3.8206438E-4,0E0,0E0,0E0,3.078878E-3,0E0,0E0,0E0,0E0,1.1907797E-4,0E0,3.9644667E-4,2.8283865E-5,2.9857882E-5,1.4870474E-4,0E0,3.7300587E-4,2.3524184E-4,0E0,0E0,1.0877836E-4,0E0,4.7592323E-5,0E0,3.260243E-5,0E0,1.1892896E-4,0E0,0E0,0E0,0E0,0E0,0E0,0E0,0E0,0E0,0E0,0E0,0E0],"parents":[2147483647,0,0,1,1,2,2,3,3,4,4,5,5,6,6,7,7,8,8,10,10,11,11,12,12,15,15,16,16,17,17,19,19,20,20,24,24,29,29,31,31,32,32,33,33,34,34,36,36,37,37,40,40,42,42,44,44,46,46],"right_children":[2,4,6,8,10,12,14,16,18,-1,20,22,24,-1,-1,26,28,30,-1,32,34,-1,-1,-1,36,-1,-1,-1,-1,38,-1,40,42,44,46,-1,48,50,-1,-1,52,-1,54,-1,56,-1,58,-1,-1,-1,-1,-1,-1,-1,-1,-1,-1,-1,-1],"split_conditions":[1.555993E-2,3.7612966E-3,4.286167E-2,9.867176E-4,5E0,4.6613654E-3,4.827165E-2,3.6648355E-4,4.6212673E-2,9.570961E-4,6.375103E-3,6.0889458E1,2.805243E-2,1.6181133E-3,1.8099968E-3,1.8123896E-3,6.375103E-3,1.555993E-2,2.819602E-4,4.3871677E-3,8.660086E-3,-0E0,-9.457553E-5,6.7122787E-4,1.3662428E-7,-1.7669883E-4,-0E0,-1.5757058E-4,-0E0,1.2544557E-2,-0E0,5.84798E1,6.29798E1,4E0,5.9775654E1,-0E0,3.3362973E-2,1.3662428E-7,-0E0,-0E0,7.24E2,-0E0,2.8570147E1,-0E0,2.2E1,-0E0,1.9230242E-3,1.0030706E-3,1.2286577E-3,-0E0,-1.1306392E-4,-1.0426645E-4,-0E0,-0E0,4.5162844E-5,7.421653E-5,-0E0,-0E0,2.3379897E-4],"split_indices":[15,19,15,19,9,17,15,19,18,0,15,1,15,0,0,17,15,17,0,15,15,0,0,0,18,0,0,0,0,16,0,0,0,11,6,0,15,18,0,0,3,0,1,0,11,0,21,0,0,0,0,0,0,0,0,0,0,0,0],"split_type":[0,0,0,0,0,0,0,0,0,0,0,0,0,0,0,0,0,0,0,0,0,0,0,0,0,0,0,0,0,0,0,0,0,0,0,0,0,0,0,0,0,0,0,0,0,0,0,0,0,0,0,0,0,0,0,0,0,0,0],"sum_hessian":[4.3928E4,3.9456E4,4.472E3,3.8244E4,1.212E3,1.918E3,2.554E3,3.5959E4,2.285E3,6E1,1.152E3,7.6E1,1.842E3,9.44E2,1.61E3,2.9049E4,6.91E3,2.28E3,5E0,6E2,5.52E2,1.8E1,5.8E1,1.58E2,1.684E3,2.9043E4,6E0,6.905E3,5E0,2.27E3,1E1,4.72E2,1.28E2,1.57E2,3.95E2,7E0,1.677E3,2.241E3,2.9E1,4E1,4.32E2,2.4E1,1.04E2,1.9E1,1.38E2,5E1,3.45E2,1.38E3,2.97E2,9.7E1,2.144E3,4.22E2,1E1,1.2E1,9.2E1,1.21E2,1.7E1,8E0,3.37E2],"tree_param":{"num_deleted":"0","num_feature":"25","num_nodes":"59","size_leaf_vector":"1"}},{"base_weights":[2.465868E-5,-3.046875E-3,2.6888318E-2,-3.2161954E-3,2.129121E-3,1.8452678E-2,3.3085197E-2,-3.2906989E-3,-2.0756347E-3,9.918542E-4,9.2421053E-4,1.7071887E-3,1.9545915E-2,1.5391697E-3,1.7184481E-3,-3.2920362E-3,-0E0,-2.1016318E-3,-0E0,-1.0375475E-3,3.494859E-3,-1.3849522E-3,3.7965094E-4,1.867101E-2,2.3358017E-2,-1.6908518E-4,-3.0714714E-3,-2.1190306E-3,-0E0,-0E0,-1.914206E-3,1.9299225E-3,4.7495835E-3,-0E0,-7.892665E-5,9.402143E-4,2.5227107E-4,1.1813885E-3,-0E0,-1.5379429E-4,-0E0,-1.0705063E-4,-0E0,-6.30736E-5,2.6700238E-4,-0E0,-2.093012E-3,2.187258E-3,-0E0,-0E0,2.4915155E-4,2.1654409E-5,-0E0,-1.2021863E-4,-0E0,-0E0,1.17828095E-4],"categories":[],"categories_nodes":[],"categories_segments":[],"categories_sizes":[],"default_left":[0,0,0,0,0,0,0,0,0,0,0,0,0,0,0,0,0,0,0,0,0,0,0,0,0,0,0,0,0,0,0,0,0,0,0,0,0,0,0,0,0,0,0,0,0,0,0,0,0,0,0,0,0,0,0,0,0],"id":6,"left_children":[1,3,5,7,9,11,13,15,17,19,-1,21,23,-1,-1,25,-1,27,-1,29,31,33,-1,35,37,-1,39,41,-1,43,45,47,49,-1,-1,-1,-1,-1,-1,-1,-1,-1,-1,-1,51,-1,53,55,-1,-1,-1,-1,-1,-1,-1,-1,-1],"loss_changes":[3.6168492E0,3.4564376E-2,2.2936726E-1,2.692461E-3,2.0856384E-2,3.2880485E-2,6.532669E-5,2.489388E-4,1.21465884E-4,6.1112177E-3,0E0,2.8880998E-3,1.3343692E-3,0E0,0E0,4.9471855E-5,0E0,1.2147799E-4,0E0,4.6177773E-4,3.8124388E-4,2.3288463E-5,0E0,2.1326542E-4,8.523464E-6,0E0,1.5623868E-4,1.7665979E-4,0E0,1.5593316E-4,8.4168394E-5,1.2125331E-4,5.1276293E-5,0E0,0E0,0E0,0E0,0E0,0E0,0E0,0E0,0E0,0E0,0E0,2.405369E-5,0E0,6.274879E-5,9.6543576E-5,0E0,0E0,0E0,0E0,0E0,0E0,0E0,0E0,0E0],"parents":[2147483647,0,0,1,1,2,2,3,3,4,4,5,5,6,6,7,7,8,8,9,9,11,11,12,12,15,15,17,17,19,19,20,20,21,21,23,23,24,24,26,26,27,27,29,29,30,30,31,31,32,32,44,44,46,46,47,47],"right_children":[2,4,6,8,10,12,14,16,18,20,-1,22,24,-1,-1,26,-1,28,-1,30,32,34,-1,36,38,-1,40,42,-1,44,46,48,50,-1,-1,-1,-1,-1,-1,-1,-1,-1,-1,-1,52,-1,54,56,-1,-1,-1,-1,-1,-1,-1,-1,-1],"split_conditions":[1.555993E-2,3.7612966E-3,4.286167E-2,9.036357E-4,1.07E2,1.555993E-2,4.827165E-2,2.7805697E-3,1.2544557E-2,6.375103E-3,9.2421053E-4,1.7357357E-3,3.3362973E-2,1.5391697E-3,1.7184481E-3,2.530356E-4,-0E0,1.555993E-2,-0E0,6.2494287E-3,1.06480215E-2,5.977418E-3,3.7965094E-4,1.5770702E-2,8.840703E6,-1.6908518E-4,5.6113433E-3,5.702667E-3,-0E0,1.4793702E-7,4.72298E1,1.078512E-2,4.3359802E1,-0E0,-7.892665E-5,9.402143E-4,2.5227107E-4,1.1813885E-3,-0E0,-1.5379429E-4,-0E0,-1.0705063E-4,-0E0,-6.30736E-5,8.258661E1,-0E0,4.3871677E-3,4.28198E1,-0E0,-0E0,2.4915155E-4,2.1654409E-5,-0E0,-1.2021863E-4,-0E0,-0E0,1.17828095E-4],"split_indices":[15,19,15,19,10,17,15,20,16,15,0,17,15,0,0,19,0,17,0,19,15,20,0,20,23,0,22,22,0,15,2,17,2,0,0,0,0,0,0,0,0,0,0,0,6,0,15,2,0,0,0,0,0,0,0,0,0],"split_type":[0,0,0,0,0,0,0,0,0,0,0,0,0,0,0,0,0,0,0,0,0,0,0,0,0,0,0,0,0,0,0,0,0,0,0,0,0,0,0,0,0,0,0,0,0,0,0,0,0,0,0,0,0,0,0,0,0],"sum_hessian":[4.3803E4,3.9306E4,4.497E3,3.808E4,1.226E3,1.913E3,2.584E3,3.5661E4,2.419E3,1.153E3,7.3E1,1.23E2,1.79E3,9.62E2,1.622E3,3.5655E4,6E0,2.387E3,3.2E1,6.15E2,5.38E2,7E1,5.3E1,1.482E3,3.08E2,2.5017E4,1.0638E4,2.375E3,1.2E1,3.09E2,3.06E2,2.76E2,2.62E2,7E0,6.3E1,1.46E3,2.2E1,3.01E2,7E0,1.0624E4,1.4E1,2.365E3,1E1,8.7E1,2.22E2,3.1E1,2.75E2,2.4E2,3.6E1,2.2E1,2.4E2,2.12E2,1E1,2.19E2,5.6E1,1.6E1,2.24E2],"tree_param":{"num_deleted":"0","num_feature":"25","num_nodes":"57","size_leaf_vector":"1"}},{"base_weights":[-8.125281E-6,-2.8878003E-3,2.5491184E-2,-3.0521E-3,1.9948182E-3,1.6908847E-2,3.100325E-2,-3.123397E-3,-1.886303E-3,8.695119E-4,9.810284E-4,4.761455E-3,1.7131733E-2,1.2479341E-3,1.5864357E-3,-3.1249174E-3,-0E0,-1.960767E-3,-0E0,-9.701101E-4,3.2718263E-3,-0E0,3.2667653E-4,1.4079878E-2,9.0464606E-4,-1.590759E-4,-1.3984789E-4,-1.9904145E-3,-0E0,-0E0,4.8043695E-4,-2.209364E-3,-5.9055536E-5,1.8334413E-3,4.431863E-3,8.6978776E-4,-0E0,-1.0027181E-4,-0E0,1.910361E-3,-0E0,-0E0,-1.1395971E-4,8.495986E-5,-7.5841893E-4,-0E0,2.1537978E-3,4.544811E-3,-0E0,8.6140666E-5,-1.7295793E-3,1.9565973E-4,-0E0,2.0110756E-5,-0E0,-0E0,-5.172362E-5,1.1776495E-4,-0E0,-0E0,2.3259998E-4,-0E0,-9.888482E-5],"categories":[],"categories_nodes":[],"categories_segments":[],"categories_sizes":[],"default_left":[0,0,0,0,0,0,0,0,0,0,0,0,0,0,0,0,0,0,0,0,0,0,0,0,0,0,0,0,0,0,0,0,0,0,0,0,0,0,0,0,0,0,0,0,0,0,0,0,0,0,0,0,0,0,0,0,0,0,0,0,0,0,0],"id":7,"left_children":[1,3,5,7,9,11,13,15,17,-1,19,21,23,-1,-1,25,-1,27,29,31,33,-1,-1,35,-1,-1,-1,37,-1,-1,39,41,43,45,47,-1,49,-1,-1,51,-1,-1,-1,53,55,-1,57,59,-1,-1,61,-1,-1,-1,-1,-1,-1,-1,-1,-1,-1,-1,-1],"loss_changes":[3.2212315E0,3.1757563E-2,2.0524526E-1,2.6668906E-3,1.7889578E-2,2.467215E-3,5.3880215E-3,2.5320053E-4,4.2746123E-4,0E0,5.5701244E-3,4.7914212E-4,1.5440583E-3,0E0,0E0,5.9485435E-5,0E0,1.536766E-4,9.232787E-6,4.7528284E-4,3.2143993E-4,0E0,0E0,2.1911763E-2,0E0,0E0,0E0,1.0378007E-4,0E0,0E0,8.5653664E-5,3.6847545E-5,1.08302294E-4,1.4614977E-4,1.5793182E-4,0E0,2.4190992E-4,0E0,0E0,1.807492E-4,0E0,0E0,0E0,1.7994236E-5,5.773316E-5,0E0,1.62491E-4,1.382893E-4,0E0,0E0,3.931325E-5,0E0,0E0,0E0,0E0,0E0,0E0,0E0,0E0,0E0,0E0,0E0,0E0],"parents":[2147483647,0,0,1,1,2,2,3,3,4,4,5,5,6,6,7,7,8,8,10,10,11,11,12,12,15,15,17,17,18,18,19,19,20,20,23,23,27,27,30,30,31,31,32,32,33,33,34,34,36,36,39,39,43,43,44,44,46,46,47,47,50,50],"right_children":[2,4,6,8,10,12,14,16,18,-1,20,22,24,-1,-1,26,-1,28,30,32,34,-1,-1,36,-1,-1,-1,38,-1,-1,40,42,44,46,48,-1,50,-1,-1,52,-1,-1,-1,54,56,-1,58,60,-1,-1,62,-1,-1,-1,-1,-1,-1,-1,-1,-1,-1,-1,-1],"split_conditions":[1.555993E-2,3.7612966E-3,3.5217974E-2,9.867176E-4,5E0,5.985859E6,4.3561053E-2,2.7805697E-3,6.399653E-3,8.695119E-4,6.375103E-3,2.3354967E0,6E0,1.2479341E-3,1.5864357E-3,4.73574E-4,-0E0,1.2544557E-2,9.9E1,1.995011E-4,1.06480215E-2,-0E0,3.2667653E-4,5E0,9.0464606E-4,-1.590759E-4,-1.3984789E-4,5.702667E-3,-0E0,-0E0,8.601549E0,5.65898E1,6.2494287E-3,4.58798E1,4.2861678E-2,8.6978776E-4,4.89398E1,-1.0027181E-4,-0E0,8.736375E1,-0E0,-0E0,-1.1395971E-4,1.1E1,4.68698E1,-0E0,4.688721E-3,6.127359E-3,-0E0,8.6140666E-5,2.8695283E-2,1.9565973E-4,-0E0,2.0110756E-5,-0E0,-0E0,-5.172362E-5,1.1776495E-4,-0E0,-0E0,2.3259998E-4,-0E0,-9.888482E-5],"split_indices":[15,19,15,19,9,23,15,20,21,0,15,4,11,0,0,19,0,16,5,15,15,0,0,11,0,0,0,22,0,0,4,0,19,2,16,0,2,0,0,1,0,0,0,11,2,0,20,21,0,0,15,0,0,0,0,0,0,0,0,0,0,0,0],"split_type":[0,0,0,0,0,0,0,0,0,0,0,0,0,0,0,0,0,0,0,0,0,0,0,0,0,0,0,0,0,0,0,0,0,0,0,0,0,0,0,0,0,0,0,0,0,0,0,0,0,0,0,0,0,0,0,0,0,0,0,0,0,0,0],"sum_hessian":[4.3897E4,3.9447E4,4.45E3,3.8183E4,1.264E3,1.749E3,2.701E3,3.59E4,2.283E3,7.1E1,1.193E3,4E1,1.709E3,3.08E2,2.393E3,3.5891E4,9E0,2.224E3,5.9E1,6.21E2,5.72E2,8E0,3.2E1,4.38E2,1.271E3,3.0341E4,5.55E3,2.197E3,2.7E1,2E1,3.9E1,2.16E2,4.05E2,2.95E2,2.77E2,3.59E2,7.9E1,2.19E3,7E0,2.5E1,1.4E1,6E0,2.1E2,2.18E2,1.87E2,5E1,2.45E2,2.71E2,6E0,1.6E1,6.3E1,1.7E1,8E0,1.2E2,9.8E1,3.3E1,1.54E2,2.34E2,1.1E1,6E0,2.65E2,5E0,5.8E1],"tree_param":{"num_deleted":"0","num_feature":"25","num_nodes":"63","size_leaf_vector":"1"}},{"base_weights":[7.104049E-6,-2.7506E-3,2.4276415E-2,-2.9001124E-3,1.8177498E-3,1.6748741E-2,1.4934627E-3,-2.968158E-3,-1.7863583E-3,8.294886E-4,8.783838E-4,1.0125461E-3,1.764009E-2,-2.9699744E-3,-0E0,-1.8513519E-3,1.1110988E-3,-8.956902E-4,3.1235842E-3,-9.3295105E-4,3.032832E-4,-0E0,1.7690044E-2,-1.531051E-4,-2.7846124E-3,-1.8699333E-3,-0E0,-0E0,1.9212924E-4,-2.0846273E-3,-2.8251803E-5,1.6108643E-3,2.1698621E-4,-0E0,-6.902877E-5,1.596599E-2,1.9201357E-2,-1.3938475E-4,-0E0,-0E0,-9.60931E-5,-0E0,-1.1619532E-4,1.6704614E-4,-7.6784764E-4,1.816131E-3,-0E0,-0E0,8.048935E-4,-0E0,9.641461E-4,-0E0,-2.756425E-5,-0E0,3.4533914E-5,-6.691185E-5,-0E0,9.450517E-5,-0E0],"categories":[],"categories_nodes":[],"categories_segments":[],"categories_sizes":[],"default_left":[0,0,0,0,0,0,0,0,0,0,0,0,0,0,0,0,0,0,0,0,0,0,0,0,0,0,0,0,0,0,0,0,0,0,0,0,0,0,0,0,0,0,0,0,0,0,0,0,0,0,0,0,0,0,0,0,0,0,0],"id":8,"left_children":[1,3,5,7,9,11,-1,13,15,-1,17,19,21,23,-1,25,27,29,31,33,-1,-1,35,-1,37,39,-1,-1,-1,41,43,45,-1,-1,-1,47,49,-1,-1,51,-1,-1,-1,53,55,57,-1,-1,-1,-1,-1,-1,-1,-1,-1,-1,-1,-1,-1],"loss_changes":[2.9389346E0,2.7024E-2,1.834929E-1,2.4122E-3,1.5278753E-2,2.504766E-2,0E0,2.988279E-4,5.0638476E-4,0E0,4.8540095E-3,1.600321E-3,1.318574E-3,1.9520521E-5,0E0,1.3241777E-4,8.2371014E-5,4.332342E-4,3.8769795E-4,4.7383117E-5,0E0,0E0,8.7976456E-4,0E0,1.17741525E-4,6.126426E-5,0E0,0E0,0E0,4.3178617E-5,1.195739E-4,6.362534E-5,0E0,0E0,0E0,6.1142445E-4,1.047492E-3,0E0,0E0,1.7627077E-5,0E0,0E0,0E0,3.157481E-5,1.4051388E-4,4.3814827E-5,0E0,0E0,0E0,0E0,0E0,0E0,0E0,0E0,0E0,0E0,0E0,0E0,0E0],"parents":[2147483647,0,0,1,1,2,2,3,3,4,4,5,5,7,7,8,8,10,10,11,11,12,12,13,13,15,15,16,16,17,17,18,18,19,19,22,22,24,24,25,25,29,29,30,30,31,31,35,35,36,36,39,39,43,43,44,44,45,45],"right_children":[2,4,6,8,10,12,-1,14,16,-1,18,20,22,24,-1,26,28,30,32,34,-1,-1,36,-1,38,40,-1,-1,-1,42,44,46,-1,-1,-1,48,50,-1,-1,52,-1,-1,-1,54,56,58,-1,-1,-1,-1,-1,-1,-1,-1,-1,-1,-1,-1,-1],"split_conditions":[1.555993E-2,3.7612966E-3,4.286167E-2,9.867176E-4,5E0,1.555993E-2,1.4934627E-3,2.7805697E-3,5.702667E-3,8.294886E-4,6.375103E-3,1.7357357E-3,1.3662428E-7,2.229256E-4,-0E0,1.555993E-2,6.143181E6,1.995011E-4,1.06480215E-2,6.1179802E1,3.032832E-4,-0E0,3.086328E-2,-1.531051E-4,5.6113433E-3,1.3662428E-7,-0E0,-0E0,1.9212924E-4,1.7251918E-3,6.2494287E-3,1.078512E-2,2.1698621E-4,-0E0,-6.902877E-5,5.76698E1,3.08847E1,-1.3938475E-4,-0E0,4.3534115E-3,-9.60931E-5,-0E0,-1.1619532E-4,7.129147E-3,4.51E2,6.96E2,-0E0,-0E0,8.048935E-4,-0E0,9.641461E-4,-0E0,-2.756425E-5,-0E0,3.4533914E-5,-6.691185E-5,-0E0,9.450517E-5,-0E0],"split_indices":[15,19,15,19,9,17,0,20,22,0,15,17,18,19,0,17,24,15,15,0,0,0,15,0,22,18,0,0,0,18,19,17,0,0,0,0,1,0,0,20,0,0,0,18,3,3,0,0,0,0,0,0,0,0,0,0,0,0,0],"split_type":[0,0,0,0,0,0,0,0,0,0,0,0,0,0,0,0,0,0,0,0,0,0,0,0,0,0,0,0,0,0,0,0,0,0,0,0,0,0,0,0,0,0,0,0,0,0,0,0,0,0,0,0,0,0,0,0,0,0,0],"sum_hessian":[4.3878E4,3.9398E4,4.48E3,3.8171E4,1.227E3,1.919E3,2.561E3,3.5887E4,2.284E3,6.6E1,1.161E3,1.09E2,1.81E3,3.5877E4,1E1,2.268E3,1.6E1,6.24E2,5.37E2,6.5E1,4.4E1,6E0,1.804E3,2.3595E4,1.2282E4,2.261E3,7E0,1E1,6E0,2.14E2,4.1E2,2.77E2,2.6E2,1.1E1,5.4E1,8.79E2,9.25E2,1.227E4,1.2E1,1.04E2,2.157E3,3.4E1,1.8E2,2.18E2,1.92E2,2.37E2,4E1,1.2E1,8.67E2,5E0,9.2E2,4.7E1,5.7E1,1.4E2,7.8E1,1.41E2,5.1E1,2.31E2,6E0],"tree_param":{"num_deleted":"0","num_feature":"25","num_nodes":"59","size_leaf_vector":"1"}},{"base_weights":[6.585992E-6,-2.6225718E-3,2.2528749E-2,-2.764296E-3,1.3112962E-3,1.588975E-2,2.7792975E-2,-1.4231286E-4,-2.063951E-3,8.7421195E-4,1.3230003E-3,-1.1093671E-3,1.649089E-2,2.5609212E-2,2.9371198E-2,-1.04912884E-4,2.0268912E-4,-0E0,1.2947413E-3,-8.036422E-5,-0E0,1.6976446E-2,6.5210776E-4,1.2966533E-3,-0E0,-0E0,1.4724478E-3,5.8495917E-4,-5.78956E-4,1.567862E-3,-6.436552E-5,1.618105E-2,1.1093538E-3,2.3264902E-4,-2.2973049E-5,1.0556079E-3,-0E0,-1.014363E-3,-0E0,-0E0,1.853077E-3,1.6418668E-2,2.3500442E-4,9.0778514E-5,-0E0,-0E0,-6.737086E-5,6.2520245E-5,2.1797515E-4,-0E0,8.239384E-4],"categories":[],"categories_nodes":[],"categories_segments":[],"categories_sizes":[],"default_left":[0,0,0,0,0,0,0,0,0,0,0,0,0,0,0,0,0,0,0,0,0,0,0,0,0,0,0,0,0,0,0,0,0,0,0,0,0,0,0,0,0,0,0,0,0,0,0,0,0,0,0],"id":9,"left_children":[1,3,5,7,9,11,13,-1,15,17,-1,19,21,23,25,-1,-1,27,29,-1,-1,31,33,-1,-1,-1,-1,35,37,39,-1,41,-1,-1,-1,43,-1,45,-1,-1,47,49,-1,-1,-1,-1,-1,-1,-1,-1,-1],"loss_changes":[2.601499E0,2.2063553E-2,1.5571165E-1,1.6823113E-3,1.2005846E-2,2.2423327E-2,2.5452375E-3,0E0,6.753467E-4,5.027985E-4,0E0,7.500657E-5,1.3438046E-2,1.1047006E-2,5.51939E-4,0E0,0E0,1.4318281E-4,6.675848E-4,0E0,0E0,3.7326217E-3,7.1500795E-4,0E0,0E0,0E0,0E0,7.419598E-5,1.1046044E-4,3.7556654E-4,0E0,2.3941696E-3,0E0,0E0,0E0,1.5733148E-4,0E0,6.8966794E-5,0E0,0E0,5.21156E-4,1.6072094E-3,0E0,0E0,0E0,0E0,0E0,0E0,0E0,0E0,0E0],"parents":[2147483647,0,0,1,1,2,2,3,3,4,4,5,5,6,6,8,8,9,9,11,11,12,12,13,13,14,14,17,17,18,18,21,21,22,22,27,27,28,28,29,29,31,31,35,35,37,37,40,40,41,41],"right_children":[2,4,6,8,10,12,14,-1,16,18,-1,20,22,24,26,-1,-1,28,30,-1,-1,32,34,-1,-1,-1,-1,36,38,40,-1,42,-1,-1,-1,44,-1,46,-1,-1,48,50,-1,-1,-1,-1,-1,-1,-1,-1,-1],"split_conditions":[1.6207527E-2,2.457547E-3,4.2861678E-2,6.1345025E-4,2.0847213E-2,1.7357357E-3,4.9744528E-2,-1.4231286E-4,4.9673175E-3,6.178499E-3,1.3230003E-3,3.1060804E-2,1.5770702E-2,4.9180146E-2,4.3179802E1,-1.04912884E-4,2.0268912E-4,5.10998E1,7.196926E-3,-8.036422E-5,-0E0,3.184393E-2,5.2179802E1,1.2966533E-3,-0E0,-0E0,1.4724478E-3,8.865734E-3,1.06480215E-2,1.1319728E-3,-6.436552E-5,4.0418267E-2,1.1093538E-3,2.3264902E-4,-2.2973049E-5,6.783597E1,-0E0,4.2843795E-3,-0E0,-0E0,7.6720687E-3,1.3662428E-7,2.3500442E-4,9.0778514E-5,-0E0,-0E0,-6.737086E-5,6.2520245E-5,2.1797515E-4,-0E0,8.239384E-4],"split_indices":[19,19,16,21,22,17,19,0,20,21,0,21,20,21,2,0,0,2,20,0,0,19,2,0,0,0,0,17,16,17,0,21,0,0,0,1,0,20,0,0,19,18,0,0,0,0,0,0,0,0,0],"split_type":[0,0,0,0,0,0,0,0,0,0,0,0,0,0,0,0,0,0,0,0,0,0,0,0,0,0,0,0,0,0,0,0,0,0,0,0,0,0,0,0,0,0,0,0,0,0,0,0,0,0,0],"sum_hessian":[4.3898E4,3.9306E4,4.592E3,3.7964E4,1.342E3,2.041E3,2.551E3,3.3856E4,4.108E3,1.324E3,1.8E1,6.4E1,1.977E3,1.104E3,1.447E3,4.102E3,6E0,4.21E2,9.03E2,5.9E1,5E0,1.912E3,6.5E1,1.093E3,1.1E1,7E0,1.44E3,1.99E2,2.22E2,8.52E2,5.1E1,1.679E3,2.33E2,3.3E1,3.2E1,1.27E2,7.2E1,1.79E2,4.3E1,1.33E2,7.19E2,1.636E3,4.3E1,9E1,3.7E1,4E1,1.39E2,6.13E2,1.06E2,6E0,1.63E3],"tree_param":{"num_deleted":"0","num_feature":"25","num_nodes":"51","size_leaf_vector":"1"}},{"base_weights":[1.5932901E-5,-2.4807246E-3,2.1912765E-2,-2.6148602E-3,1.5659793E-3,1.4494488E-2,2.6587566E-2,-1.3418228E-4,-1.6372174E-3,7.6982914E-4,7.407646E-4,-7.7167386E-4,1.5240436E-2,1.1143241E-3,1.374128E-3,-1.7093002E-3,6.399515E-3,-9.4029633E-4,2.9492944E-3,-0E0,-7.4161166E-5,1.5069275E-3,1.5362178E-2,-1.7282729E-3,-0E0,7.9176994E-4,-0E0,-1.1201633E-4,-0E0,-0E0,3.061088E-3,1.0559003E-4,-0E0,5.2938255E-4,7.8694674E-4,-8.690276E-5,-0E0,7.428472E-5,-9.3405915E-4,-0E0,3.1293374E-3,2.0993268E-5,-0E0,-5.191415E-5,-0E0,-0E0,1.70912E-4],"categories":[],"categories_nodes":[],"categories_segments":[],"categories_sizes":[],"default_left":[0,0,0,0,0,0,0,0,0,0,0,0,0,0,0,0,0,0,0,0,0,0,0,0,0,0,0,0,0,0,0,0,0,0,0,0,0,0,0,0,0,0,0,0,0,0,0],"id":10,"left_children":[1,3,5,7,9,11,13,-1,15,17,-1,19,21,-1,-1,23,25,27,29,-1,-1,31,33,35,-1,-1,-1,-1,37,-1,39,-1,-1,-1,-1,-1,-1,41,43,-1,45,-1,-1,-1,-1,-1,-1],"loss_changes":[2.3964403E0,2.14483E-2,1.5111089E-1,2.1240413E-3,1.1489056E-2,2.1330327E-2,4.969716E-3,0E0,1.048706E-3,4.5868126E-3,0E0,9.1140464E-5,1.0820925E-3,0E0,0E0,9.4310846E-5,1.0540674E-3,5.787715E-4,1.3059657E-4,0E0,0E0,2.3585813E-5,1.6516447E-4,6.888434E-5,0E0,0E0,0E0,0E0,1.036899E-4,0E0,1.01338606E-4,0E0,0E0,0E0,0E0,0E0,0E0,1.9719395E-5,1.542685E-5,0E0,1.1588074E-4,0E0,0E0,0E0,0E0,0E0,0E0],"parents":[2147483647,0,0,1,1,2,2,3,3,4,4,5,5,6,6,8,8,9,9,11,11,12,12,15,15,16,16,17,17,18,18,21,21,22,22,23,23,28,28,30,30,37,37,38,38,40,40],"right_children":[2,4,6,8,10,12,14,-1,16,18,-1,20,22,-1,-1,24,26,28,30,-1,-1,32,34,36,-1,-1,-1,-1,38,-1,40,-1,-1,-1,-1,-1,-1,42,44,-1,46,-1,-1,-1,-1,-1,-1],"split_conditions":[1.555993E-2,3.7612966E-3,3.5217974E-2,9.22786E-4,1.07E2,4.6613654E-3,4.4865668E-2,-1.3418228E-4,5.484422E-3,6.375103E-3,7.407646E-4,5.07398E1,1.3001554E-2,1.1143241E-3,1.374128E-3,1.2544557E-2,8.27798E1,1.995011E-4,4.28198E1,-0E0,-7.4161166E-5,1.2738781E-2,2.805243E-2,1.555993E-2,-0E0,7.9176994E-4,-0E0,-1.1201633E-4,6.490304E-3,-0E0,4.1234423E-3,1.0559003E-4,-0E0,5.2938255E-4,7.8694674E-4,-8.690276E-5,-0E0,4.90298E1,5.6979265E6,-0E0,4.060178E6,2.0993268E-5,-0E0,-5.191415E-5,-0E0,-0E0,1.70912E-4],"split_indices":[15,19,15,21,10,17,15,0,20,15,0,2,18,0,0,16,0,15,2,0,0,17,15,17,0,0,0,0,19,0,21,0,0,0,0,0,0,2,23,0,23,0,0,0,0,0,0],"split_type":[0,0,0,0,0,0,0,0,0,0,0,0,0,0,0,0,0,0,0,0,0,0,0,0,0,0,0,0,0,0,0,0,0,0,0,0,0,0,0,0,0,0,0,0,0,0,0],"sum_hessian":[4.3798E4,3.9312E4,4.486E3,3.8075E4,1.237E3,1.744E3,2.742E3,3.5475E4,2.6E3,1.175E3,6.2E1,7.5E1,1.669E3,4.96E2,2.246E3,2.59E3,1E1,6.33E2,5.42E2,1.4E1,6.1E1,2.2E1,1.647E3,2.565E3,2.5E1,5E0,5E0,2.26E2,4.07E2,2.5E1,5.17E2,1.6E1,6E0,1.42E2,1.505E3,2.559E3,6E0,2.91E2,1.16E2,1.2E1,5.05E2,1.2E2,1.71E2,1.08E2,8E0,7.2E1,4.33E2],"tree_param":{"num_deleted":"0","num_feature":"25","num_nodes":"47","size_leaf_vector":"1"}},{"base_weights":[2.7206787E-7,-2.3510817E-3,2.0796347E-2,-2.4850625E-3,1.6789563E-3,1.4335042E-2,2.560933E-2,-2.5461023E-3,-1.4768409E-3,7.156494E-4,8.130922E-4,-5.0737493E-4,1.4921738E-2,1.1669641E-3,1.3294348E-3,-2.5472895E-3,-0E0,-1.5495376E-3,2.1286635E-3,-1.224522E-3,2.3557926E-3,-0E0,-5.581611E-5,4.775098E-4,1.53678395E-2,-1.3080574E-4,-2.3345111E-3,-1.576903E-3,-0E0,-0E0,3.6513954E-4,-0E0,-1.5820801E-3,8.3585974E-4,3.2230215E-3,-0E0,7.706766E-4,-1.169472E-4,-0E0,-0E0,-1.6295403E-3,2.3429228E-4,-0E0,-1.6584181E-3,-0E0,-0E0,1.239958E-3,1.1814451E-3,4.153976E-3,-0E0,-1.0815487E-5,-8.24014E-5,-0E0,-0E0,5.410759E-5,-0E0,-8.680899E-5,-0E0,7.322088E-5,8.503544E-5,-0E0,2.1397679E-4,-0E0],"categories":[],"categories_nodes":[],"categories_segments":[],"categories_sizes":[],"default_left":[0,0,0,0,0,0,0,0,0,0,0,0,0,0,0,0,0,0,0,0,0,0,0,0,0,0,0,0,0,0,0,0,0,0,0,0,0,0,0,0,0,0,0,0,0,0,0,0,0,0,0,0,0,0,0,0,0,0,0,0,0,0,0],"id":11,"left_children":[1,3,5,7,9,11,13,15,17,-1,19,21,23,-1,-1,25,-1,27,29,31,33,-1,-1,-1,35,-1,37,39,-1,-1,-1,41,43,45,47,-1,-1,-1,-1,49,51,53,-1,55,-1,-1,57,59,61,-1,-1,-1,-1,-1,-1,-1,-1,-1,-1,-1,-1,-1,-1],"loss_changes":[2.1375542E0,2.126959E-2,1.3374531E-1,1.9323528E-3,1.2029614E-2,1.8055141E-2,2.2411346E-5,1.706034E-4,5.390616E-4,0E0,3.7875357E-3,4.7553338E-5,1.7729402E-3,0E0,0E0,2.2053719E-5,0E0,1.15246046E-4,3.450843E-4,3.5503117E-4,5.048814E-4,0E0,0E0,0E0,9.3880296E-4,0E0,1.2826174E-4,1.4316104E-4,0E0,0E0,0E0,1.9212505E-6,7.8124925E-5,1.5981885E-4,2.198955E-4,0E0,0E0,0E0,0E0,3.4156626E-6,1.1005439E-4,2.735506E-5,0E0,4.0745945E-5,0E0,0E0,9.729204E-5,2.0763915E-4,1.6256562E-4,0E0,0E0,0E0,0E0,0E0,0E0,0E0,0E0,0E0,0E0,0E0,0E0,0E0,0E0],"parents":[2147483647,0,0,1,1,2,2,3,3,4,4,5,5,6,6,7,7,8,8,10,10,11,11,12,12,15,15,17,17,18,18,19,19,20,20,24,24,26,26,27,27,31,31,32,32,33,33,34,34,39,39,40,40,41,41,43,43,46,46,47,47,48,48],"right_children":[2,4,6,8,10,12,14,16,18,-1,20,22,24,-1,-1,26,-1,28,30,32,34,-1,-1,-1,36,-1,38,40,-1,-1,-1,42,44,46,48,-1,-1,-1,-1,50,52,54,-1,56,-1,-1,58,60,62,-1,-1,-1,-1,-1,-1,-1,-1,-1,-1,-1,-1,-1,-1],"split_conditions":[1.555993E-2,3.7612966E-3,4.286167E-2,9.867176E-4,5E0,4.6613654E-3,4.77324E-2,2.7805697E-3,5.702667E-3,7.156494E-4,4.3871677E-3,6.7211915E6,2.805243E-2,1.1669641E-3,1.3294348E-3,3.0391282E-4,-0E0,1.2544557E-2,6.143181E6,3.869583E6,8.660086E-3,-0E0,-5.581611E-5,4.775098E-4,1.3662428E-7,-1.3080574E-4,5.6113433E-3,1.3662428E-7,-0E0,-0E0,3.6513954E-4,1.1E1,7.24E2,4.1322798E6,4.603139E6,-0E0,7.706766E-4,-1.169472E-4,-0E0,1.7684831E-3,1.555993E-2,1.4793702E-7,-0E0,1E0,-0E0,-0E0,2.8570147E1,4.688721E-3,4.2861678E-2,-0E0,-1.0815487E-5,-8.24014E-5,-0E0,-0E0,5.410759E-5,-0E0,-8.680899E-5,-0E0,7.322088E-5,8.503544E-5,-0E0,2.1397679E-4,-0E0],"split_indices":[15,19,15,19,9,17,15,20,22,0,15,23,15,0,0,19,0,16,24,23,15,0,0,0,18,0,22,18,0,0,0,11,3,23,23,0,0,0,0,21,17,15,0,11,0,0,1,20,16,0,0,0,0,0,0,0,0,0,0,0,0,0,0],"split_type":[0,0,0,0,0,0,0,0,0,0,0,0,0,0,0,0,0,0,0,0,0,0,0,0,0,0,0,0,0,0,0,0,0,0,0,0,0,0,0,0,0,0,0,0,0,0,0,0,0,0,0,0,0,0,0,0,0,0,0,0,0,0,0],"sum_hessian":[4.3674E4,3.9234E4,4.44E3,3.7996E4,1.238E3,1.906E3,2.534E3,3.5732E4,2.264E3,7.1E1,1.167E3,6.6E1,1.84E3,8.02E2,1.732E3,3.5725E4,7E0,2.247E3,1.7E1,4.75E2,6.92E2,1.5E1,5.1E1,1.6E2,1.68E3,2.663E4,9.095E3,2.216E3,3.1E1,1E1,7E0,4.9E1,4.26E2,2.94E2,3.98E2,6E0,1.674E3,9.084E3,1.1E1,8.7E1,2.129E3,3.4E1,1.5E1,4.16E2,1E1,5.7E1,2.37E2,1.59E2,2.39E2,1.5E1,7.2E1,2.122E3,7E0,1E1,2.4E1,2.3E1,3.93E2,2.2E1,2.15E2,1.48E2,1.1E1,2.34E2,5E0],"tree_param":{"num_deleted":"0","num_feature":"25","num_nodes":"63","size_leaf_vector":"1"}},{"base_weights":[-1.6427823E-5,-2.2400806E-3,1.9700445E-2,-2.3635002E-3,1.5435955E-3,1.3098121E-2,2.3995081E-2,-1.2160878E-4,-1.6014988E-3,6.7659403E-4,6.8166695E-4,-0E0,1.3155172E-2,2.0068543E-2,1.2393593E-3,-1.6366406E-3,-0E0,-8.594704E-4,2.5829605E-3,1.1227973E-2,1.4155528E-2,1.0117044E-3,-0E0,-1.6642304E-3,-0E0,5.7948473E-5,-0E0,-1.2812158E-3,-0E0,1.3844041E-3,3.5428023E-3,4.3941317E-3,5.828121E-4,7.105858E-4,-0E0,-1.6699807E-3,-0E0,-0E0,-1.574975E-3,-0E0,4.946819E-4,2.4760775E-3,1.0124964E-4,1.8425625E-4,-0E0,2.647616E-4,-0E0,-8.42508E-5,-0E0,-0E0,-8.322016E-5,-0E0,4.102838E-5,1.328501E-4,-0E0,-0E0,2.8150485E-5],"categories":[],"categories_nodes":[],"categories_segments":[],"categories_sizes":[],"default_left":[0,0,0,0,0,0,0,0,0,0,0,0,0,0,0,0,0,0,0,0,0,0,0,0,0,0,0,0,0,0,0,0,0,0,0,0,0,0,0,0,0,0,0,0,0,0,0,0,0,0,0,0,0,0,0,0,0],"id":12,"left_children":[1,3,5,7,9,11,13,-1,15,17,-1,-1,19,21,-1,23,25,27,29,31,33,-1,-1,35,-1,-1,-1,37,39,41,43,45,-1,-1,-1,47,-1,-1,49,-1,51,53,55,-1,-1,-1,-1,-1,-1,-1,-1,-1,-1,-1,-1,-1,-1],"loss_changes":[1.9239916E0,1.8520117E-2,1.2206912E-1,1.5946478E-3,1.1368572E-2,7.3841214E-4,3.3648014E-3,0E0,3.3107027E-4,3.5391878E-3,0E0,0E0,6.8229437E-4,3.1659007E-4,0E0,1.371596E-4,1.6118523E-5,3.2238849E-4,1.2590503E-4,2.1098554E-4,1.630336E-4,0E0,0E0,1.9750558E-5,0E0,0E0,0E0,2.9016222E-4,2.3736884E-5,1.4684361E-4,1.6622781E-4,2.3843162E-4,0E0,0E0,0E0,1.0785647E-5,0E0,0E0,1.01826154E-4,0E0,3.2822936E-5,4.939444E-5,3.528239E-5,0E0,0E0,0E0,0E0,0E0,0E0,0E0,0E0,0E0,0E0,0E0,0E0,0E0,0E0],"parents":[2147483647,0,0,1,1,2,2,3,3,4,4,5,5,6,6,8,8,9,9,12,12,13,13,15,15,16,16,17,17,18,18,19,19,20,20,23,23,27,27,28,28,29,29,30,30,31,31,35,35,38,38,40,40,41,41,42,42],"right_children":[2,4,6,8,10,12,14,-1,16,18,-1,-1,20,22,-1,24,26,28,30,32,34,-1,-1,36,-1,-1,-1,38,40,42,44,46,-1,-1,-1,48,-1,-1,50,-1,52,54,56,-1,-1,-1,-1,-1,-1,-1,-1,-1,-1,-1,-1,-1,-1],"split_conditions":[1.555993E-2,3.7612966E-3,3.5217974E-2,8.120783E-4,1.07E2,5.4175297E1,4.4865668E-2,-1.2160878E-4,5.702667E-3,6.375103E-3,6.8166695E-4,-0E0,2.9910179E-2,7.11E2,1.2393593E-3,1.06480215E-2,7.26098E1,4.3871677E-3,1.06480215E-2,6.9822445E6,9.414688E0,1.0117044E-3,-0E0,6.578065E-3,-0E0,5.7948473E-5,-0E0,5.84798E1,6.40598E1,6.2494287E-3,4.2861678E-2,4.1020136E0,5.828121E-4,7.105858E-4,-0E0,1.06480215E-2,-0E0,-0E0,4.032809E-1,-0E0,2.8570147E1,6.578065E-3,6.237596E-3,1.8425625E-4,-0E0,2.647616E-4,-0E0,-8.42508E-5,-0E0,-0E0,-8.322016E-5,-0E0,4.102838E-5,1.328501E-4,-0E0,-0E0,2.8150485E-5],"split_indices":[15,19,15,19,10,6,15,0,22,15,0,0,15,3,0,16,0,15,15,23,4,0,0,21,0,0,0,0,0,19,16,4,0,0,0,15,0,0,4,0,1,21,21,0,0,0,0,0,0,0,0,0,0,0,0,0,0],"split_type":[0,0,0,0,0,0,0,0,0,0,0,0,0,0,0,0,0,0,0,0,0,0,0,0,0,0,0,0,0,0,0,0,0,0,0,0,0,0,0,0,0,0,0,0,0,0,0,0,0,0,0,0,0,0,0,0,0],"sum_hessian":[4.3921E4,3.9475E4,4.446E3,3.8254E4,1.221E3,1.763E3,2.683E3,3.4969E4,3.285E3,1.148E3,7.3E1,1.1E1,1.752E3,4.76E2,2.207E3,3.269E3,1.6E1,6.07E2,5.41E2,6.37E2,1.115E3,4.69E2,7E0,3.211E3,5.8E1,1.1E1,5E0,4.69E2,1.38E2,2.88E2,2.53E2,5.2E1,5.85E2,1.107E3,8E0,3.196E3,1.5E1,4.2E1,4.27E2,4.2E1,9.6E1,1.13E2,1.75E2,2.46E2,7E0,4.4E1,8E0,3.143E3,5.3E1,8E0,4.19E2,1.3E1,8.3E1,1.05E2,8E0,5.9E1,1.16E2],"tree_param":{"num_deleted":"0","num_feature":"25","num_nodes":"57","size_leaf_vector":"1"}},{"base_weights":[-2.2848191E-5,-2.1153234E-3,1.8594313E-2,-2.2507245E-3,1.4531905E-3,1.2500557E-2,2.2366242E-2,-1.1602333E-4,-1.6534177E-3,1.0649824E-2,6.137046E-4,-3.0142508E-4,6.698808E-4,1.01290615E-2,2.2629559E-2,-1.661713E-3,-0E0,6.834034E-4,2.3479274E-4,2.8465828E-4,6.7315553E-3,-0E0,-1.08793865E-4,1.1757254E-2,-0E0,1.5982818E-2,1.1460516E-3,-1.6684517E-3,-0E0,8.241512E-4,-1.6644188E-3,-0E0,1.2005175E-3,1.5257479E-3,-0E0,1.3204409E-2,-0E0,-0E0,9.579758E-4,-8.39222E-5,-0E0,1.0322075E-3,-0E0,-0E0,-2.1723544E-3,-0E0,1.7468743E-4,7.1700395E-4,-0E0,-0E0,1.69858E-5,2.0223271E-5,9.489805E-5,-1.5412776E-5,-0E0,-1.17343654E-4,-0E0],"categories":[],"categories_nodes":[],"categories_segments":[],"categories_sizes":[],"default_left":[0,0,0,0,0,0,0,0,0,0,0,0,0,0,0,0,0,0,0,0,0,0,0,0,0,0,0,0,0,0,0,0,0,0,0,0,0,0,0,0,0,0,0,0,0,0,0,0,0,0,0,0,0,0,0,0,0],"id":13,"left_children":[1,3,5,7,9,11,13,-1,15,17,19,21,-1,23,25,27,-1,-1,-1,29,31,33,-1,35,-1,37,-1,39,-1,41,43,-1,-1,45,-1,47,-1,49,-1,-1,-1,51,53,-1,55,-1,-1,-1,-1,-1,-1,-1,-1,-1,-1,-1,-1],"loss_changes":[1.7020519E0,1.9081697E-2,9.769058E-2,1.1779964E-3,9.760658E-3,2.083671E-2,5.2433014E-3,0E0,8.00807E-5,4.024245E-5,1.921488E-3,2.745265E-4,0E0,1.7582485E-4,8.753538E-4,6.9851056E-5,0E0,0E0,0E0,1.2359427E-3,8.065938E-3,7.4493015E-5,0E0,2.7308613E-4,0E0,4.8568584E-3,0E0,4.6091154E-6,0E0,2.7151796E-4,2.6808353E-4,0E0,0E0,1.9404512E-4,0E0,7.999269E-5,0E0,2.3081388E-6,0E0,0E0,0E0,2.619169E-4,9.312102E-6,0E0,9.713892E-5,0E0,0E0,0E0,0E0,0E0,0E0,0E0,0E0,0E0,0E0,0E0,0E0],"parents":[2147483647,0,0,1,1,2,2,3,3,4,4,5,5,6,6,8,8,9,9,10,10,11,11,13,13,14,14,15,15,19,19,20,20,21,21,23,23,25,25,27,27,29,29,30,30,33,33,35,35,37,37,41,41,42,42,44,44],"right_children":[2,4,6,8,10,12,14,-1,16,18,20,22,-1,24,26,28,-1,-1,-1,30,32,34,-1,36,-1,38,-1,40,-1,42,44,-1,-1,46,-1,48,-1,50,-1,-1,-1,52,54,-1,56,-1,-1,-1,-1,-1,-1,-1,-1,-1,-1,-1,-1],"split_conditions":[1.555993E-2,5.5332975E-3,1.1031E5,6.1345025E-4,6E0,1.8247757E-2,2.8043697E-2,-1.1602333E-4,5.227112E-3,1.1031E5,2.0847213E-2,6.0889458E1,6.698808E-4,7.579303E1,4.41698E1,5.702667E-3,-0E0,6.834034E-4,2.3479274E-4,5.1236674E-3,9.501178E-8,3.6569989E0,-1.08793865E-4,5.4359565E0,-0E0,8.5532535E-3,1.1460516E-3,1.06480215E-2,-0E0,1.2738781E-2,3.9758706E-3,-0E0,1.2005175E-3,2.4834733E0,-0E0,5.26298E1,-0E0,2.9278284E1,9.579758E-4,-8.39222E-5,-0E0,4.2843795E-3,7.17376E1,-0E0,1.06480215E-2,-0E0,1.7468743E-4,7.1700395E-4,-0E0,-0E0,1.69858E-5,2.0223271E-5,9.489805E-5,-1.5412776E-5,-0E0,-1.17343654E-4,-0E0],"split_indices":[16,21,8,21,9,18,16,0,20,8,22,1,0,1,2,22,0,0,0,22,20,4,0,4,0,22,0,16,0,17,18,0,0,4,0,2,0,1,0,0,0,20,1,0,16,0,0,0,0,0,0,0,0,0,0,0,0],"split_type":[0,0,0,0,0,0,0,0,0,0,0,0,0,0,0,0,0,0,0,0,0,0,0,0,0,0,0,0,0,0,0,0,0,0,0,0,0,0,0,0,0,0,0,0,0,0,0,0,0,0,0,0,0,0,0,0,0],"sum_hessian":[4.3732E4,3.9319E4,4.413E3,3.7909E4,1.41E3,1.699E3,2.714E3,3.3793E4,4.116E3,1.07E2,1.303E3,1.04E2,1.595E3,6.6E1,2.648E3,4.104E3,1.2E1,5.9E1,4.8E1,1.253E3,5E1,4.5E1,5.9E1,5E1,1.6E1,1.28E2,2.52E3,4.096E3,8E0,1.022E3,2.31E2,3.3E1,1.7E1,3.1E1,1.4E1,4.1E1,9E0,2.6E1,1.02E2,4.049E3,4.7E1,9.06E2,1.16E2,3.9E1,1.92E2,1E1,2.1E1,3.5E1,6E0,7E0,1.9E1,5.93E2,3.13E2,9.7E1,1.9E1,1.82E2,1E1],"tree_param":{"num_deleted":"0","num_feature":"25","num_nodes":"57","size_leaf_vector":"1"}},{"base_weights":[7.2292637E-6,-2.0224806E-3,1.7846739E-2,-2.1439155E-3,7.366002E-4,1.17834825E-2,2.1709656E-2,-1.0956172E-4,-1.4223661E-3,6.0480257E-4,1.9247973E-4,-1.5899964E-3,1.24224E-2,9.057405E-4,1.1222288E-3,-7.336645E-5,-0E0,-7.566854E-4,1.7304446E-3,-0E0,-9.355224E-5,1.9613265E-3,1.256306E-2,-1.1071486E-3,-0E0,2.125451E-3,-5.728557E-5,1.4953602E-4,-0E0,1.263834E-2,3.8852988E-5,-1.3004447E-3,1.495182E-4,3.752011E-4,-0E0,2.2112736E-3,-0E0,1.1997245E-4,6.3668337E-4,-0E0,-7.386845E-5,-0E0,6.125837E-5,-0E0,-3.126662E-5,1.1474404E-4,-0E0],"categories":[],"categories_nodes":[],"categories_segments":[],"categories_sizes":[],"default_left":[0,0,0,0,0,0,0,0,0,0,0,0,0,0,0,0,0,0,0,0,0,0,0,0,0,0,0,0,0,0,0,0,0,0,0,0,0,0,0,0,0,0,0,0,0,0,0],"id":14,"left_children":[1,3,5,7,9,11,13,-1,15,-1,17,19,21,-1,-1,-1,-1,23,25,-1,-1,27,29,31,33,35,-1,-1,-1,37,-1,39,-1,41,43,45,-1,-1,-1,-1,-1,-1,-1,-1,-1,-1,-1],"loss_changes":[1.5916656E0,1.3350964E-2,1.0158241E-1,9.2598796E-4,8.83134E-3,1.6141385E-2,2.755165E-3,0E0,2.8289342E-4,0E0,2.3803255E-3,3.697317E-5,1.0052919E-3,0E0,0E0,0E0,0E0,2.8559315E-4,8.241052E-4,0E0,0E0,1.1455458E-4,1.1703372E-4,3.62391E-4,1.055819E-5,1.7106603E-4,0E0,0E0,0E0,5.2928925E-5,0E0,2.3706036E-4,0E0,7.950391E-5,4.8489026E-5,1.767585E-4,0E0,0E0,0E0,0E0,0E0,0E0,0E0,0E0,0E0,0E0,0E0],"parents":[2147483647,0,0,1,1,2,2,3,3,4,4,5,5,6,6,8,8,10,10,11,11,12,12,17,17,18,18,21,21,22,22,23,23,24,24,25,25,29,29,31,31,33,33,34,34,35,35],"right_children":[2,4,6,8,10,12,14,-1,16,-1,18,20,22,-1,-1,-1,-1,24,26,-1,-1,28,30,32,34,36,-1,-1,-1,38,-1,40,-1,42,44,46,-1,-1,-1,-1,-1,-1,-1,-1,-1,-1,-1],"split_conditions":[1.555993E-2,3.686723E-3,3.5217974E-2,8.45058E-4,5E0,1.7357357E-3,4.4865668E-2,-1.0956172E-4,1.06480215E-2,6.0480257E-4,6.375103E-3,4.74098E1,1.3001554E-2,9.057405E-4,1.1222288E-3,-7.336645E-5,-0E0,2.7191297E-3,6.1809803E1,-0E0,-9.355224E-5,6.5355166E-3,1.5770702E-2,4.8624046E-2,2.7191297E-3,8.667473E0,-5.728557E-5,1.4953602E-4,-0E0,2.7805697E-3,3.8852988E-5,3.869583E6,1.495182E-4,4.060178E6,2E0,8.874115E1,-0E0,1.1997245E-4,6.3668337E-4,-0E0,-7.386845E-5,-0E0,6.125837E-5,-0E0,-3.126662E-5,1.1474404E-4,-0E0],"split_indices":[15,20,15,15,9,17,15,0,15,0,15,2,18,0,0,0,0,15,2,0,0,22,20,18,18,4,0,0,0,20,0,23,0,23,13,1,0,0,0,0,0,0,0,0,0,0,0],"split_type":[0,0,0,0,0,0,0,0,0,0,0,0,0,0,0,0,0,0,0,0,0,0,0,0,0,0,0,0,0,0,0,0,0,0,0,0,0,0,0,0,0,0,0,0,0,0,0],"sum_hessian":[4.3912E4,3.9422E4,4.49E3,3.7795E4,1.627E3,1.759E3,2.731E3,3.5337E4,2.458E3,6.5E1,1.562E3,7.3E1,1.686E3,4.91E2,2.24E3,2.441E3,1.7E1,9.26E2,6.36E2,1E1,6.3E1,3.2E1,1.654E3,6.65E2,2.61E2,5.9E2,4.6E1,2.6E1,6E0,1.635E3,1.9E1,6.59E2,6E0,7.4E1,1.87E2,5.8E2,1E1,2.5E1,1.61E3,4E1,6.19E2,1.5E1,5.9E1,6.4E1,1.23E2,5.72E2,8E0],"tree_param":{"num_deleted":"0","num_feature":"25","num_nodes":"47","size_leaf_vector":"1"}},{"base_weights":[1.2944538E-5,-1.9224165E-3,1.7002022E-2,-2.0256059E-3,1.2176902E-3,1.1298254E-2,2.0641252E-2,-2.0754596E-3,-1.1945975E-3,8.933889E-3,3.8026445E-4,-0E0,1.1921423E-2,9.2104793E-4,1.0909108E-3,-2.0771043E-3,-0E0,-1.2477523E-3,5.9796002E-5,-0E0,4.877788E-4,-1.127693E-3,1.6773513E-3,1.8080927E-3,-1.154588E-3,5.9968873E-4,4.5180826E-5,-1.07863896E-4,-1.9225796E-3,-0E0,-1.2974503E-3,8.991202E-5,-0E0,3.9715992E-4,-1.4979569E-3,-0E0,1.9551879E-3,-0E0,1.3672744E-4,-0E0,-8.166593E-5,-9.62633E-5,-0E0,-1.8807962E-4,-0E0,-1.3248505E-3,-0E0,-0E0,7.985953E-4,-0E0,-1.6116087E-3,2.0786647E-3,-0E0,-6.471465E-5,-0E0,-0E0,5.5273325E-5,-6.65092E-5,-0E0,5.8031328E-5,-0E0,-8.306859E-5,-0E0,-0E0,1.1497843E-4],"categories":[],"categories_nodes":[],"categories_segments":[],"categories_sizes":[],"default_left":[0,0,0,0,0,0,0,0,0,0,0,0,0,0,0,0,0,0,0,0,0,0,0,0,0,0,0,0,0,0,0,0,0,0,0,0,0,0,0,0,0,0,0,0,0,0,0,0,0,0,0,0,0,0,0,0,0,0,0,0,0,0,0,0,0],"id":15,"left_children":[1,3,5,7,9,11,13,15,17,19,21,23,25,-1,-1,27,-1,29,31,-1,-1,33,35,37,39,-1,-1,-1,41,43,45,-1,-1,47,49,-1,51,-1,-1,-1,-1,-1,-1,53,55,57,-1,-1,59,-1,61,63,-1,-1,-1,-1,-1,-1,-1,-1,-1,-1,-1,-1,-1],"loss_changes":[1.4443476E0,1.2846306E-2,8.9835644E-2,1.2517273E-3,6.967899E-3,1.2435108E-2,2.7107E-3,2.0632148E-4,2.7062744E-4,6.11661E-4,2.2396997E-3,1.9500943E-4,3.1486154E-5,0E0,0E0,3.2410026E-5,0E0,1.0743225E-4,3.8743237E-5,0E0,0E0,3.8224633E-4,2.8636807E-4,1.14119255E-4,6.407141E-5,0E0,0E0,0E0,8.672476E-5,2.440802E-6,1.179087E-4,0E0,0E0,1.4420984E-5,1.1134555E-4,0E0,2.3589423E-4,0E0,0E0,0E0,0E0,0E0,0E0,1.0142124E-4,3.4217577E-5,3.6635902E-6,0E0,0E0,1.2630448E-5,0E0,5.233474E-5,2.371706E-4,0E0,0E0,0E0,0E0,0E0,0E0,0E0,0E0,0E0,0E0,0E0,0E0,0E0],"parents":[2147483647,0,0,1,1,2,2,3,3,4,4,5,5,6,6,7,7,8,8,9,9,10,10,11,11,12,12,15,15,17,17,18,18,21,21,22,22,23,23,24,24,28,28,29,29,30,30,33,33,34,34,36,36,43,43,44,44,45,45,48,48,50,50,51,51],"right_children":[2,4,6,8,10,12,14,16,18,20,22,24,26,-1,-1,28,-1,30,32,-1,-1,34,36,38,40,-1,-1,-1,42,44,46,-1,-1,48,50,-1,52,-1,-1,-1,-1,-1,-1,54,56,58,-1,-1,60,-1,62,64,-1,-1,-1,-1,-1,-1,-1,-1,-1,-1,-1,-1,-1],"split_conditions":[1.555993E-2,3.7612966E-3,3.5217974E-2,9.867176E-4,6E0,1.3001554E-2,4.77324E-2,2.7805697E-3,5.702667E-3,3.08847E1,4.3871677E-3,6.7211915E6,1.5770702E-2,9.2104793E-4,1.0909108E-3,2.0881485E-4,-0E0,1.3662428E-7,1.4793702E-7,-0E0,4.877788E-4,5.84798E1,6.12698E1,5.7039803E1,4.4107726E-3,5.9968873E-4,4.5180826E-5,-1.07863896E-4,5.6113433E-3,2.7191297E-3,1.2544557E-2,8.991202E-5,-0E0,1.4793702E-7,4.32698E1,-0E0,6.5452363E-3,-0E0,1.3672744E-4,-0E0,-8.166593E-5,-9.62633E-5,-0E0,5.5332975E-3,6.19898E1,6.578065E-3,-0E0,-0E0,1.1E1,-0E0,7.06E2,4.55198E1,-0E0,-6.471465E-5,-0E0,-0E0,5.5273325E-5,-6.65092E-5,-0E0,5.8031328E-5,-0E0,-8.306859E-5,-0E0,-0E0,1.1497843E-4],"split_indices":[15,19,15,19,9,18,15,20,22,1,15,23,20,0,0,19,0,18,15,0,0,0,0,0,20,0,0,0,22,15,16,0,0,15,2,0,20,0,0,0,0,0,0,21,0,21,0,0,11,0,3,2,0,0,0,0,0,0,0,0,0,0,0,0,0],"split_type":[0,0,0,0,0,0,0,0,0,0,0,0,0,0,0,0,0,0,0,0,0,0,0,0,0,0,0,0,0,0,0,0,0,0,0,0,0,0,0,0,0,0,0,0,0,0,0,0,0,0,0,0,0,0,0,0,0,0,0,0,0,0,0,0,0],"sum_hessian":[4.388E4,3.9388E4,4.492E3,3.8166E4,1.222E3,1.762E3,2.73E3,3.5891E4,2.275E3,1.07E2,1.115E3,9.2E1,1.67E3,9.81E2,1.749E3,3.5882E4,9E0,2.259E3,1.6E1,1.1E1,9.6E1,4.8E2,6.35E2,3.5E1,5.7E1,1.65E3,2E1,2.319E4,1.2692E4,1.06E2,2.153E3,1.1E1,5E0,4.1E1,4.39E2,9.3E1,5.42E2,5E0,3E1,5E0,5.2E1,1.268E4,1.2E1,6.8E1,3.8E1,2.132E3,2.1E1,9E0,3.2E1,1.7E1,4.22E2,5.34E2,8E0,6.1E1,7E0,1.1E1,2.7E1,2.117E3,1.5E1,2.4E1,8E0,4.16E2,6E0,5.3E1,4.81E2],"tree_param":{"num_deleted":"0","num_feature":"25","num_nodes":"65","size_leaf_vector":"1"}},{"base_weights":[-0E0,-1.8316525E-3,1.5808975E-2,-1.9246015E-3,1.1534882E-3,1.111254E-2,1.9451963E-2,-1.9728683E-3,-1.1283001E-3,8.139239E-4,8.9770457E-4,-1.7806515E-4,1.1578834E-2,1.7615376E-2,2.0720804E-2,-1.02552345E-4,-1.8281359E-3,-1.1951547E-3,1.8619421E-3,1.054346E-3,-2.5084193E-4,-8.256753E-5,-0E0,1.1954483E-2,1.4518907E-4,9.015378E-4,-0E0,-0E0,1.0386434E-3,-9.151652E-5,-0E0,-1.2145411E-3,-0E0,-0E0,2.2368772E-4,-0E0,1.3403211E-3,-0E0,-8.638119E-4,1.1385444E-2,7.6540926E-4,1.5246589E-4,-3.5947614E-6,3.5068145E-4,-7.983919E-5,-1.2397923E-3,-0E0,9.866523E-4,-3.6752856E-4,-0E0,1.6788492E-3,-5.591198E-5,-0E0,5.741701E-4,1.0692086E-5,-0E0,-6.386839E-5,-0E0,8.098187E-5,-0E0,-3.8197366E-5,1.2924489E-5,-1.2552161E-5,-0E0,9.209717E-5],"categories":[],"categories_nodes":[],"categories_segments":[],"categories_sizes":[],"default_left":[0,0,0,0,0,0,0,0,0,0,0,0,0,0,0,0,0,0,0,0,0,0,0,0,0,0,0,0,0,0,0,0,0,0,0,0,0,0,0,0,0,0,0,0,0,0,0,0,0,0,0,0,0,0,0,0,0,0,0,0,0,0,0,0,0],"id":16,"left_children":[1,3,5,7,9,11,13,15,17,19,-1,21,23,25,27,-1,29,31,33,35,37,-1,-1,39,41,-1,43,-1,-1,-1,-1,45,-1,-1,-1,47,49,-1,51,53,-1,-1,-1,-1,-1,55,-1,57,59,61,63,-1,-1,-1,-1,-1,-1,-1,-1,-1,-1,-1,-1,-1,-1],"loss_changes":[1.2707653E0,1.0984853E-2,7.469344E-2,1.1539608E-3,4.6977275E-3,1.1697933E-2,1.7507672E-3,1.3962388E-5,3.9554317E-4,3.721912E-4,0E0,1.4497284E-4,7.09489E-3,6.917745E-3,5.9086084E-4,0E0,5.7723373E-5,9.4897114E-5,1.9778527E-4,2.2184453E-4,5.350069E-5,0E0,0E0,7.135868E-4,3.4272278E-4,0E0,6.361868E-4,0E0,0E0,0E0,0E0,9.340444E-5,0E0,0E0,0E0,1.3264528E-4,3.1995703E-4,0E0,3.3102755E-5,6.0395896E-4,0E0,0E0,0E0,0E0,0E0,1.8171966E-5,0E0,1.4152881E-4,5.498151E-5,1.0400035E-5,2.1268404E-4,0E0,0E0,0E0,0E0,0E0,0E0,0E0,0E0,0E0,0E0,0E0,0E0,0E0,0E0],"parents":[2147483647,0,0,1,1,2,2,3,3,4,4,5,5,6,6,7,7,8,8,9,9,11,11,12,12,13,13,14,14,16,16,17,17,18,18,19,19,20,20,23,23,24,24,26,26,31,31,35,35,36,36,38,38,39,39,45,45,47,47,48,48,49,49,50,50],"right_children":[2,4,6,8,10,12,14,16,18,20,-1,22,24,26,28,-1,30,32,34,36,38,-1,-1,40,42,-1,44,-1,-1,-1,-1,46,-1,-1,-1,48,50,-1,52,54,-1,-1,-1,-1,-1,56,-1,58,60,62,64,-1,-1,-1,-1,-1,-1,-1,-1,-1,-1,-1,-1,-1,-1],"split_conditions":[1.6207527E-2,3.7612966E-3,4.2861678E-2,9.867176E-4,6.3789803E1,1.555993E-2,4.9744528E-2,2.0358896E-4,5.702667E-3,1.2738781E-2,8.9770457E-4,3.1060804E-2,1.5770702E-2,4.8714772E-2,4.3179802E1,-1.02552345E-4,5.6113433E-3,1.555993E-2,5.96498E1,4.180117E-3,1E0,-8.256753E-5,-0E0,3.184393E-2,5.2179802E1,9.015378E-4,7.0899796E1,-0E0,1.0386434E-3,-9.151652E-5,-0E0,1.2544557E-2,-0E0,-0E0,2.2368772E-4,6.489353E-3,6.1539803E1,-0E0,7.17376E1,4.0418267E-2,7.6540926E-4,1.5246589E-4,-3.5947614E-6,3.5068145E-4,-7.983919E-5,1.7559122E-3,-0E0,1E0,5.643432E-3,5.84798E1,2.8929E1,-5.591198E-5,-0E0,5.741701E-4,1.0692086E-5,-0E0,-6.386839E-5,-0E0,8.098187E-5,-0E0,-3.8197366E-5,1.2924489E-5,-1.2552161E-5,-0E0,9.209717E-5],"split_indices":[19,19,16,19,2,17,19,19,22,17,0,21,20,21,2,0,22,17,2,22,5,0,0,19,2,0,0,0,0,0,0,16,0,0,0,16,0,0,1,21,0,0,0,0,0,21,0,13,19,0,1,0,0,0,0,0,0,0,0,0,0,0,0,0,0],"split_type":[0,0,0,0,0,0,0,0,0,0,0,0,0,0,0,0,0,0,0,0,0,0,0,0,0,0,0,0,0,0,0,0,0,0,0,0,0,0,0,0,0,0,0,0,0,0,0,0,0,0,0,0,0,0,0,0,0,0,0,0,0,0,0,0,0],"sum_hessian":[4.3859E4,3.9303E4,4.556E3,3.8149E4,1.154E3,2.004E3,2.552E3,3.5849E4,2.3E3,1.138E3,1.6E1,7.1E1,1.933E3,1.081E3,1.471E3,2.2819E4,1.303E4,2.283E3,1.7E1,1.005E3,1.33E2,5.3E1,1.8E1,1.863E3,7E1,1.053E3,2.8E1,6E0,1.465E3,1.3016E4,1.4E1,2.275E3,8E0,5E0,1.2E1,2.6E2,7.45E2,5.1E1,8.2E1,1.622E3,2.41E2,3.6E1,3.4E1,1.1E1,1.7E1,2.244E3,3.1E1,1.15E2,1.45E2,1.57E2,5.88E2,7.5E1,7E0,1.599E3,2.3E1,1.19E2,2.125E3,1.9E1,9.6E1,1.8E1,1.27E2,9.9E1,5.8E1,3.7E1,5.51E2],"tree_param":{"num_deleted":"0","num_feature":"25","num_nodes":"65","size_leaf_vector":"1"}},{"base_weights":[1.9129291E-5,-1.7265225E-3,1.5357482E-2,-1.8341609E-3,1.0478732E-3,1.0485026E-2,1.8937437E-2,-9.3745446E-5,-1.142694E-3,5.2930246E-4,4.541478E-4,-1.2977995E-3,1.1022109E-2,8.930213E-4,1.0309647E-3,-1.180351E-3,-0E0,-5.3980167E-4,1.9711277E-3,-9.043496E-5,-0E0,9.638782E-3,1.2282989E-2,-0E0,-6.0348946E-5,-0E0,-1.3497178E-3,-0E0,2.2111014E-3,-0E0,4.8592617E-4,6.186269E-4,-0E0,-0E0,-6.026847E-4,4.947111E-4,-9.0122083E-4,-0E0,-1.5874149E-3,-0E0,2.538114E-3,2.1935584E-5,-0E0,-5.537671E-5,-0E0,-0E0,3.84834E-4,-5.7559846E-5,-0E0,-9.5455274E-5,-0E0,-0E0,9.860739E-6,1.287844E-4,-0E0],"categories":[],"categories_nodes":[],"categories_segments":[],"categories_sizes":[],"default_left":[0,0,0,0,0,0,0,0,0,0,0,0,0,0,0,0,0,0,0,0,0,0,0,0,0,0,0,0,0,0,0,0,0,0,0,0,0,0,0,0,0,0,0,0,0,0,0,0,0,0,0,0,0,0,0],"id":17,"left_children":[1,3,5,7,9,11,13,-1,15,-1,17,19,21,-1,-1,23,-1,25,27,-1,-1,29,31,33,-1,35,37,-1,39,-1,-1,-1,-1,41,43,45,47,-1,49,51,53,-1,-1,-1,-1,-1,-1,-1,-1,-1,-1,-1,-1,-1,-1],"loss_changes":[1.1721985E0,1.18030235E-2,7.489991E-2,7.6180696E-4,7.00067E-3,1.3067558E-2,4.3177605E-4,0E0,1.6843807E-4,0E0,2.1932984E-3,9.772052E-5,8.883029E-4,0E0,0E0,3.0661933E-5,0E0,3.405186E-4,4.6276022E-4,0E0,0E0,1.8762797E-4,9.5525384E-4,1.9251125E-5,0E0,2.1085012E-4,1.0946707E-4,0E0,2.161893E-4,0E0,0E0,0E0,0E0,3.4644227E-6,3.5947312E-5,9.326604E-4,7.294073E-5,0E0,9.1178925E-5,2.8003442E-6,4.079519E-5,0E0,0E0,0E0,0E0,0E0,0E0,0E0,0E0,0E0,0E0,0E0,0E0,0E0,0E0],"parents":[2147483647,0,0,1,1,2,2,3,3,4,4,5,5,6,6,8,8,10,10,11,11,12,12,15,15,17,17,18,18,21,21,22,22,23,23,25,25,26,26,28,28,33,33,34,34,35,35,36,36,38,38,39,39,40,40],"right_children":[2,4,6,8,10,12,14,-1,16,-1,18,20,22,-1,-1,24,-1,26,28,-1,-1,30,32,34,-1,36,38,-1,40,-1,-1,-1,-1,42,44,46,48,-1,50,52,54,-1,-1,-1,-1,-1,-1,-1,-1,-1,-1,-1,-1,-1,-1],"split_conditions":[1.555993E-2,5.5332975E-3,4.286167E-2,9.1252336E-4,5E0,1.7357357E-3,5.1145986E-2,-9.3745446E-5,8.7743355E-3,5.2930246E-4,6.375103E-3,3.1060804E-2,3.086328E-2,8.930213E-4,1.0309647E-3,5.9763668E-5,-0E0,6.2494287E-3,3.7612966E-3,-9.043496E-5,-0E0,5.81198E1,7.12E2,1.8125642E-3,-6.0348946E-5,6.3212566E0,4.7679802E1,-0E0,4.58798E1,-0E0,4.8592617E-4,6.186269E-4,-0E0,7.40498E1,2.27E2,6.177118E0,6.023787E-3,-0E0,4.3871677E-3,8.660086E-3,8.62898E1,2.1935584E-5,-0E0,-5.537671E-5,-0E0,-0E0,3.84834E-4,-5.7559846E-5,-0E0,-9.5455274E-5,-0E0,-0E0,9.860739E-6,1.287844E-4,-0E0],"split_indices":[15,21,15,15,9,17,15,0,16,0,15,21,15,0,0,16,0,19,19,0,0,0,3,21,0,4,2,0,2,0,0,0,0,0,3,4,19,0,15,15,0,0,0,0,0,0,0,0,0,0,0,0,0,0,0],"split_type":[0,0,0,0,0,0,0,0,0,0,0,0,0,0,0,0,0,0,0,0,0,0,0,0,0,0,0,0,0,0,0,0,0,0,0,0,0,0,0,0,0,0,0,0,0,0,0,0,0,0,0,0,0,0,0],"sum_hessian":[4.3726E4,3.9253E4,4.473E3,3.7822E4,1.431E3,1.908E3,2.565E3,3.5579E4,2.243E3,7.3E1,1.358E3,7.5E1,1.833E3,1.607E3,9.58E2,2.223E3,2E1,7.81E2,5.77E2,6.8E1,7E0,9.16E2,9.17E2,7.6E1,2.147E3,4.7E2,3.11E2,2.4E1,5.53E2,1.3E1,9.03E2,9.1E2,7E0,2.4E1,5.2E1,3.03E2,1.67E2,4.3E1,2.68E2,1E2,4.53E2,1.7E1,7E0,4.4E1,8E0,2.87E2,1.6E1,1.57E2,1E1,2.1E2,5.8E1,2.9E1,7.1E1,4.46E2,7E0],"tree_param":{"num_deleted":"0","num_feature":"25","num_nodes":"55","size_leaf_vector":"1"}},{"base_weights":[-0E0,-1.647805E-3,1.4539647E-2,-1.742833E-3,8.6460856E-4,9.998256E-3,1.792307E-2,-1.811572E-3,-1.3357223E-3,4.887181E-4,3.7044508E-4,-1.2476024E-3,1.046383E-2,8.206769E-4,9.4978366E-4,-9.0596855E-5,-0E0,-1.3597294E-3,1.7346685E-4,-7.0173957E-4,1.8996634E-3,-7.910542E-5,-0E0,2.6874736E-4,1.0570541E-2,-0E0,-1.3726739E-3,-1.1523808E-3,-0E0,-0E0,2.1207775E-3,6.292433E-5,-0E0,9.6350815E-3,1.2155823E-2,-6.871925E-5,-0E0,-0E0,-1.3788319E-3,2.5891612E-4,-2.032771E-4,2.1756403E-3,-0E0,-0E0,4.8391512E-4,6.143072E-4,-0E0,-7.507469E-5,-0E0,4.370999E-5,-0E0,-4.3876633E-5,-0E0,1.1138767E-4,-0E0],"categories":[],"categories_nodes":[],"categories_segments":[],"categories_sizes":[],"default_left":[0,0,0,0,0,0,0,0,0,0,0,0,0,0,0,0,0,0,0,0,0,0,0,0,0,0,0,0,0,0,0,0,0,0,0,0,0,0,0,0,0,0,0,0,0,0,0,0,0,0,0,0,0,0,0],"id":18,"left_children":[1,3,5,7,9,11,13,15,17,-1,19,21,23,-1,-1,-1,-1,25,-1,27,29,-1,-1,31,33,-1,35,37,39,-1,41,-1,-1,43,45,-1,-1,-1,47,49,51,53,-1,-1,-1,-1,-1,-1,-1,-1,-1,-1,-1,-1,-1],"loss_changes":[1.0545504E0,9.52065E-3,6.588119E-2,7.491112E-4,5.154729E-3,1.10292435E-2,2.8252602E-4,2.3134053E-5,4.5336038E-4,0E0,2.3181953E-3,4.7790818E-5,9.367764E-4,0E0,0E0,0E0,0E0,4.5604073E-5,0E0,2.5083864E-4,3.4547714E-4,0E0,0E0,3.584417E-5,4.1909516E-4,0E0,1.7009676E-5,2.0114135E-4,1.5659763E-5,0E0,9.201118E-5,0E0,0E0,1.553297E-4,9.691864E-4,0E0,0E0,0E0,1.233198E-4,3.42024E-5,7.223932E-5,7.9938676E-5,0E0,0E0,0E0,0E0,0E0,0E0,0E0,0E0,0E0,0E0,0E0,0E0,0E0],"parents":[2147483647,0,0,1,1,2,2,3,3,4,4,5,5,6,6,7,7,8,8,10,10,11,11,12,12,17,17,19,19,20,20,23,23,24,24,26,26,27,27,28,28,30,30,33,33,34,34,38,38,39,39,40,40,41,41],"right_children":[2,4,6,8,10,12,14,16,18,-1,20,22,24,-1,-1,-1,-1,26,-1,28,30,-1,-1,32,34,-1,36,38,40,-1,42,-1,-1,44,46,-1,-1,-1,48,50,52,54,-1,-1,-1,-1,-1,-1,-1,-1,-1,-1,-1,-1,-1],"split_conditions":[1.555993E-2,2.457547E-3,4.286167E-2,5.390177E-4,5E0,1.7357357E-3,4.8988547E-2,4.6613654E-3,6.4840475E-3,4.887181E-4,6.375103E-3,3.1060804E-2,1.3001554E-2,8.206769E-4,9.4978366E-4,-9.0596855E-5,-0E0,1.3662428E-7,1.7346685E-4,2.7191297E-3,3.7612966E-3,-7.910542E-5,-0E0,6.5355166E-3,3.1853344E-2,-0E0,5.702667E-3,5.84798E1,6.2494287E-3,-0E0,7.11E2,6.292433E-5,-0E0,5.76698E1,8.899228E6,-6.871925E-5,-0E0,-0E0,7.874016E-3,4.180117E-3,3.95E2,4.2861678E-2,-0E0,-0E0,4.8391512E-4,6.143072E-4,-0E0,-7.507469E-5,-0E0,4.370999E-5,-0E0,-4.3876633E-5,-0E0,1.1138767E-4,-0E0],"split_indices":[15,19,15,19,9,17,15,17,21,0,15,21,18,0,0,0,0,18,0,15,19,0,0,22,15,0,22,0,19,0,3,0,0,0,23,0,0,0,7,22,3,16,0,0,0,0,0,0,0,0,0,0,0,0,0],"split_type":[0,0,0,0,0,0,0,0,0,0,0,0,0,0,0,0,0,0,0,0,0,0,0,0,0,0,0,0,0,0,0,0,0,0,0,0,0,0,0,0,0,0,0,0,0,0,0,0,0,0,0,0,0,0,0],"sum_hessian":[4.3982E4,3.9502E4,4.48E3,3.8101E4,1.401E3,1.927E3,2.553E3,3.2384E4,5.717E3,6.2E1,1.339E3,6.8E1,1.859E3,1.106E3,1.447E3,3.2378E4,6E0,5.71E3,7E0,7.49E2,5.9E2,6.1E1,7E0,2.9E1,1.83E3,8.3E1,5.627E3,4.66E2,2.83E2,4E1,5.5E2,2.3E1,6E0,1.195E3,6.35E2,5.622E3,5E0,3.5E1,4.31E2,1.5E2,1.33E2,5.42E2,8E0,9E0,1.186E3,6.28E2,7E0,4.18E2,1.3E1,5.7E1,9.3E1,1E2,3.3E1,5.33E2,9E0],"tree_param":{"num_deleted":"0","num_feature":"25","num_nodes":"55","size_leaf_vector":"1"}},{"base_weights":[1.35128885E-5,-1.5485059E-3,1.3699843E-2,-1.6556834E-3,1.2272677E-3,9.126645E-3,1.6493702E-2,-8.5417254E-5,-1.1982465E-3,5.5333675E-4,3.96254E-4,-2.876946E-4,4.9062393E-4,7.398338E-3,8.341148E-4,-1.2016647E-3,-0E0,2.8222377E-4,5.3960066E-3,-1.6105708E-3,4.3030363E-5,8.17267E-3,-0E0,-6.0233255E-5,-0E0,6.9492613E-4,-1.0575665E-3,-0E0,9.488472E-4,-0E0,-1.0059844E-4,4.882264E-4,-0E0,-0E0,7.8725675E-4,-0E0,-1.7196594E-3,-0E0,4.3602595E-5,-0E0,1.5844216E-5,-0E0,-9.708193E-5],"categories":[],"categories_nodes":[],"categories_segments":[],"categories_sizes":[],"default_left":[0,0,0,0,0,0,0,0,0,0,0,0,0,0,0,0,0,0,0,0,0,0,0,0,0,0,0,0,0,0,0,0,0,0,0,0,0,0,0,0,0,0,0],"id":19,"left_children":[1,3,5,7,9,11,13,-1,15,17,-1,19,-1,21,-1,23,-1,25,27,29,-1,31,-1,-1,-1,33,35,-1,-1,-1,-1,-1,-1,-1,37,39,41,-1,-1,-1,-1,-1,-1],"loss_changes":[9.387605E-1,1.1753306E-2,5.477059E-2,6.2095374E-4,5.598083E-3,1.2073696E-2,2.233684E-3,0E0,2.3648143E-5,1.1545059E-3,0E0,2.4044108E-4,0E0,9.7224256E-5,0E0,1.6598962E-5,0E0,6.633802E-4,5.026395E-3,8.779304E-5,0E0,2.2591045E-4,0E0,0E0,0E0,1.1720369E-4,3.0119947E-4,0E0,0E0,0E0,0E0,0E0,0E0,0E0,9.5525174E-5,3.9162105E-6,1.3423746E-4,0E0,0E0,0E0,0E0,0E0,0E0],"parents":[2147483647,0,0,1,1,2,2,3,3,4,4,5,5,6,6,8,8,9,9,11,11,13,13,15,15,17,17,18,18,19,19,21,21,25,25,26,26,34,34,35,35,36,36],"right_children":[2,4,6,8,10,12,14,-1,16,18,-1,20,-1,22,-1,24,-1,26,28,30,-1,32,-1,-1,-1,34,36,-1,-1,-1,-1,-1,-1,-1,38,40,42,-1,-1,-1,-1,-1,-1],"split_conditions":[1.555993E-2,5.5332975E-3,1.1031E5,6.1345025E-4,5E1,1.8247757E-2,2.8043697E-2,-8.5417254E-5,5.702667E-3,2.0847213E-2,3.96254E-4,5.2E1,4.9062393E-4,5.4359565E0,8.341148E-4,5.227112E-3,-0E0,5.1236674E-3,7.134344E1,4.89398E1,4.3030363E-5,7.579303E1,-0E0,-6.0233255E-5,-0E0,3.686723E-3,3.9758706E-3,-0E0,9.488472E-4,-0E0,-1.0059844E-4,4.882264E-4,-0E0,-0E0,2.8694519E1,9.4E1,3.2915082E0,-0E0,4.3602595E-5,-0E0,1.5844216E-5,-0E0,-9.708193E-5],"split_indices":[16,21,8,21,10,18,16,0,22,22,0,3,0,4,0,20,0,22,6,2,0,1,0,0,0,20,18,0,0,0,0,0,0,0,1,5,4,0,0,0,0,0,0],"split_type":[0,0,0,0,0,0,0,0,0,0,0,0,0,0,0,0,0,0,0,0,0,0,0,0,0,0,0,0,0,0,0,0,0,0,0,0,0,0,0,0,0,0,0],"sum_hessian":[4.3853E4,3.9355E4,4.498E3,3.7927E4,1.428E3,1.721E3,2.777E3,3.3813E4,4.114E3,1.312E3,1.16E2,1.07E2,1.614E3,6.8E1,2.709E3,4.107E3,7E0,1.263E3,4.9E1,9E1,1.7E1,5.7E1,1.1E1,4.098E3,9E0,1.023E3,2.4E2,3.2E1,1.7E1,1.1E1,7.9E1,4.2E1,1.5E1,3.7E1,9.86E2,4.8E1,1.92E2,5.7E1,9.29E2,1E1,3.8E1,6E0,1.86E2],"tree_param":{"num_deleted":"0","num_feature":"25","num_nodes":"43","size_leaf_vector":"1"}},{"base_weights":[2.3396397E-5,-1.4829197E-3,1.3116397E-2,-1.5732232E-3,8.447883E-4,8.614268E-3,1.6005494E-2,-1.6054487E-3,-9.121543E-4,3.2796507E-4,4.5282205E-4,-1.3001334E-3,9.114148E-3,7.049699E-4,8.490079E-4,-1.6097451E-3,-0E0,-9.5882954E-4,-0E0,-5.316475E-4,1.6765667E-3,-8.221806E-5,-0E0,-0E0,9.159925E-3,-8.361066E-5,-7.322371E-5,-0E0,-9.906468E-4,-0E0,-1.6845762E-3,-1.587467E-5,1.9757056E-3,5.9461072E-5,9.247397E-3,-4.9836857E-5,-0E0,1.3099478E-3,-1.6572863E-4,-9.6564276E-5,-0E0,-0E0,2.207055E-3,9.299306E-3,-0E0,-0E0,8.882318E-5,-2.3288643E-5,9.0092704E-5,1.14521004E-4,-0E0,-0E0,4.67542E-4],"categories":[],"categories_nodes":[],"categories_segments":[],"categories_sizes":[],"default_left":[0,0,0,0,0,0,0,0,0,0,0,0,0,0,0,0,0,0,0,0,0,0,0,0,0,0,0,0,0,0,0,0,0,0,0,0,0,0,0,0,0,0,0,0,0,0,0,0,0,0,0,0,0],"id":20,"left_children":[1,3,5,7,9,11,13,15,17,19,-1,21,23,-1,-1,25,-1,27,-1,29,31,-1,-1,-1,33,-1,-1,-1,35,37,39,-1,41,-1,43,-1,-1,45,47,-1,-1,-1,49,51,-1,-1,-1,-1,-1,-1,-1,-1,-1],"loss_changes":[8.655672E-1,8.335039E-3,5.6309223E-2,5.536154E-4,5.114738E-3,9.644687E-3,1.7504692E-3,2.4550408E-4,1.4630996E-4,1.6862008E-3,0E0,6.182186E-5,5.0754845E-4,0E0,0E0,9.410083E-6,0E0,6.785174E-5,0E0,4.512436E-4,5.082437E-4,0E0,0E0,0E0,1.2989342E-4,0E0,0E0,0E0,9.295298E-6,9.947622E-5,1.3737066E-5,0E0,9.582611E-5,0E0,4.927814E-5,0E0,0E0,4.3590568E-5,1.6123132E-4,0E0,0E0,0E0,9.6774194E-5,1.1950731E-5,0E0,0E0,0E0,0E0,0E0,0E0,0E0,0E0,0E0],"parents":[2147483647,0,0,1,1,2,2,3,3,4,4,5,5,6,6,7,7,8,8,9,9,11,11,12,12,15,15,17,17,19,19,20,20,24,24,28,28,29,29,30,30,32,32,34,34,37,37,38,38,42,42,43,43],"right_children":[2,4,6,8,10,12,14,16,18,20,-1,22,24,-1,-1,26,-1,28,-1,30,32,-1,-1,-1,34,-1,-1,-1,36,38,40,-1,42,-1,44,-1,-1,46,48,-1,-1,-1,50,52,-1,-1,-1,-1,-1,-1,-1,-1,-1],"split_conditions":[1.555993E-2,5.5332975E-3,3.5217974E-2,1.0601226E-3,1.07E2,1.7357357E-3,4.77324E-2,5.6113433E-3,8.7743355E-3,6.375103E-3,4.5282205E-4,3.1060804E-2,1.3662428E-7,7.049699E-4,8.490079E-4,2.393934E-4,-0E0,1.3662428E-7,-0E0,6.490304E-3,3.7612966E-3,-8.221806E-5,-0E0,-0E0,2.7805697E-3,-8.361066E-5,-7.322371E-5,-0E0,2.76483E-3,1.3662428E-7,4.3871677E-3,-1.587467E-5,4.58798E1,5.9461072E-5,1.5770702E-2,-4.9836857E-5,-0E0,1.9047369E0,5.7546854E-2,-9.6564276E-5,-0E0,-0E0,7.5164537E0,1.078512E-2,-0E0,-0E0,8.882318E-5,-2.3288643E-5,9.0092704E-5,1.14521004E-4,-0E0,-0E0,4.67542E-4],"split_indices":[15,21,15,15,10,17,15,22,16,15,0,21,18,0,0,15,0,18,0,19,19,0,0,0,20,0,0,0,16,18,15,0,2,0,20,0,0,4,18,0,0,0,4,17,0,0,0,0,0,0,0,0,0],"split_type":[0,0,0,0,0,0,0,0,0,0,0,0,0,0,0,0,0,0,0,0,0,0,0,0,0,0,0,0,0,0,0,0,0,0,0,0,0,0,0,0,0,0,0,0,0,0,0,0,0,0,0,0,0],"sum_hessian":[4.3827E4,3.9299E4,4.528E3,3.7873E4,1.426E3,1.785E3,2.743E3,3.5967E4,1.906E3,1.354E3,7.2E1,7.6E1,1.709E3,9.68E2,1.775E3,3.587E4,9.7E1,1.884E3,2.2E1,7.82E2,5.72E2,7E1,6E0,1.1E1,1.698E3,2.4595E4,1.1275E4,5E1,1.834E3,5.46E2,2.36E2,3.1E1,5.41E2,3.1E1,1.667E3,1.821E3,1.3E1,4.9E1,4.97E2,1.83E2,5.3E1,8.8E1,4.53E2,1.649E3,1.8E1,9E0,4E1,4.76E2,2.1E1,4.39E2,1.4E1,1.8E1,1.631E3],"tree_param":{"num_deleted":"0","num_feature":"25","num_nodes":"53","size_leaf_vector":"1"}},{"base_weights":[7.854268E-6,-1.4108709E-3,1.2533305E-2,-1.4944625E-3,7.8950974E-4,8.786422E-3,1.5676351E-2,-1.5545704E-3,-1.1383004E-3,4.312248E-4,2.9472544E-4,-1.0470182E-3,9.178947E-3,1.7224623E-2,7.330812E-4,-7.774559E-5,-0E0,-1.1631284E-3,1.8283345E-4,-3.6650116E-4,1.8472441E-3,-7.025831E-5,-0E0,8.070861E-3,1.0817039E-2,8.6778373E-4,-0E0,-1.1651189E-3,-0E0,-1.0026223E-3,1.02465805E-4,1.5639684E-4,2.6456204E-3,-0E0,4.056771E-4,5.430416E-4,-0E0,2.4333305E-4,-0E0,-5.844534E-5,-0E0,-0E0,-1.2174066E-3,9.02943E-4,-1.9846368E-4,8.7847916E-4,-0E0,2.8155649E-3,-0E0,-7.400623E-5,-0E0,5.980089E-5,-0E0,-2.2032631E-5,-0E0,-0E0,4.7642796E-5,1.453712E-4,-0E0],"categories":[],"categories_nodes":[],"categories_segments":[],"categories_sizes":[],"default_left":[0,0,0,0,0,0,0,0,0,0,0,0,0,0,0,0,0,0,0,0,0,0,0,0,0,0,0,0,0,0,0,0,0,0,0,0,0,0,0,0,0,0,0,0,0,0,0,0,0,0,0,0,0,0,0,0,0,0,0],"id":21,"left_children":[1,3,5,7,9,11,13,15,17,-1,19,21,23,25,-1,-1,-1,27,-1,29,31,-1,-1,33,35,-1,37,39,-1,41,43,45,47,-1,-1,-1,-1,-1,-1,-1,-1,-1,49,51,53,55,-1,57,-1,-1,-1,-1,-1,-1,-1,-1,-1,-1,-1],"loss_changes":[7.8022766E-1,7.3142275E-3,5.0033987E-2,5.4199994E-4,4.525062E-3,8.75482E-3,3.5136938E-4,1.9736588E-5,4.3681636E-4,0E0,1.5120318E-3,4.9630216E-5,1.6287863E-3,5.1385164E-4,0E0,0E0,0E0,1.564715E-5,0E0,3.5472808E-4,3.1605456E-4,0E0,0E0,1.2206286E-4,1.566112E-5,0E0,1.6579074E-4,9.5102005E-6,0E0,1.7821597E-4,1.7204066E-4,1.0279368E-4,1.8581364E-4,0E0,0E0,0E0,0E0,0E0,0E0,0E0,0E0,0E0,1.6729755E-4,9.954264E-5,2.9744653E-5,1.4393358E-5,0E0,9.073876E-5,0E0,0E0,0E0,0E0,0E0,0E0,0E0,0E0,0E0,0E0,0E0],"parents":[2147483647,0,0,1,1,2,2,3,3,4,4,5,5,6,6,7,7,8,8,10,10,11,11,12,12,13,13,17,17,19,19,20,20,23,23,24,24,26,26,27,27,29,29,30,30,31,31,32,32,42,42,43,43,44,44,45,45,47,47],"right_children":[2,4,6,8,10,12,14,16,18,-1,20,22,24,26,-1,-1,-1,28,-1,30,32,-1,-1,34,36,-1,38,40,-1,42,44,46,48,-1,-1,-1,-1,-1,-1,-1,-1,-1,50,52,54,56,-1,58,-1,-1,-1,-1,-1,-1,-1,-1,-1,-1,-1],"split_conditions":[1.555993E-2,2.457547E-3,4.3561053E-2,5.390177E-4,5E0,1.7357357E-3,1.11504E5,4.6613654E-3,6.4840475E-3,4.312248E-4,8.660086E-3,3.1060804E-2,3.1853344E-2,8.62898E1,7.330812E-4,-7.774559E-5,-0E0,5.702667E-3,1.8283345E-4,2.7191297E-3,4.603139E6,-7.025831E-5,-0E0,5.76698E1,7.11E2,8.6778373E-4,4.6754535E-2,1.06480215E-2,-0E0,5.84798E1,6.2494287E-3,6.68498E1,3.937008E-3,-0E0,4.056771E-4,5.430416E-4,-0E0,2.4333305E-4,-0E0,-5.844534E-5,-0E0,-0E0,6.03698E1,2.2E1,1E2,4E0,-0E0,4.2861678E-2,-0E0,-7.400623E-5,-0E0,5.980089E-5,-0E0,-2.2032631E-5,-0E0,-0E0,4.7642796E-5,1.453712E-4,-0E0],"split_indices":[15,19,15,19,9,17,8,17,21,0,15,21,15,0,0,0,0,22,0,15,23,0,0,0,3,0,17,15,0,0,19,0,7,0,0,0,0,0,0,0,0,0,2,11,5,11,0,16,0,0,0,0,0,0,0,0,0,0,0],"split_type":[0,0,0,0,0,0,0,0,0,0,0,0,0,0,0,0,0,0,0,0,0,0,0,0,0,0,0,0,0,0,0,0,0,0,0,0,0,0,0,0,0,0,0,0,0,0,0,0,0,0,0,0,0,0,0,0,0,0,0],"sum_hessian":[4.3842E4,3.9375E4,4.467E3,3.7978E4,1.397E3,2.054E3,2.413E3,3.2251E4,5.727E3,7E1,1.327E3,6.9E1,1.985E3,9.1E2,1.503E3,3.2245E4,6E0,5.719E3,8E0,8.86E2,4.41E2,6.3E1,6E0,1.224E3,7.61E2,8.98E2,1.2E1,5.711E3,8E0,4.66E2,4.2E2,1.82E2,2.59E2,1.1E1,1.213E3,7.55E2,6E0,6E0,6E0,5.681E3,3E1,3E1,4.36E2,2.05E2,2.15E2,1.38E2,4.4E1,2.52E2,7E0,3.71E2,6.5E1,1.86E2,1.9E1,1.96E2,1.9E1,5E0,1.33E2,2.47E2,5E0],"tree_param":{"num_deleted":"0","num_feature":"25","num_nodes":"59","size_leaf_vector":"1"}},{"base_weights":[-1.5425306E-7,-1.337635E-3,1.1883965E-2,-1.4195488E-3,7.736576E-4,7.788649E-3,1.4466397E-2,-1.4520703E-3,-8.335806E-4,2.2829925E-4,6.1191916E-3,-8.989927E-4,8.19983E-3,1.10728685E-2,7.435064E-4,-1.4530851E-3,-0E0,-8.9842104E-4,2.1103914E-4,-3.4144116E-4,1.7114424E-3,-0E0,3.3936527E-4,-6.27821E-5,-0E0,-0E0,8.233314E-3,5.60319E-4,-0E0,-7.6964505E-5,-1.3579506E-3,-9.10693E-4,-0E0,-0E0,-9.904278E-4,1.9313336E-3,-0E0,9.855426E-5,4.168551E-4,-6.801239E-5,-0E0,-0E0,-4.6398553E-5,-2.6985753E-4,7.5643184E-4,-0E0,-1.3448622E-3,-0E0,2.185143E-3,-4.8201557E-5,-0E0,4.9023944E-5,-0E0,-0E0,-7.03668E-5,1.1587668E-4,-0E0],"categories":[],"categories_nodes":[],"categories_segments":[],"categories_sizes":[],"default_left":[0,0,0,0,0,0,0,0,0,0,0,0,0,0,0,0,0,0,0,0,0,0,0,0,0,0,0,0,0,0,0,0,0,0,0,0,0,0,0,0,0,0,0,0,0,0,0,0,0,0,0,0,0,0,0,0,0],"id":22,"left_children":[1,3,5,7,9,11,13,15,17,19,21,23,25,27,-1,29,-1,31,-1,33,35,-1,-1,-1,-1,-1,37,-1,-1,-1,39,41,-1,43,45,47,-1,-1,-1,-1,-1,-1,-1,49,51,-1,53,-1,55,-1,-1,-1,-1,-1,-1,-1,-1],"loss_changes":[6.9526386E-1,6.8769157E-3,4.444951E-2,4.9358606E-4,3.5209742E-3,6.91019E-3,9.3609095E-4,6.3322484E-5,3.7944573E-4,1.2462331E-3,4.38835E-4,4.2794687E-5,5.072728E-4,3.15018E-4,0E0,1.616776E-6,0E0,3.9506005E-5,0E0,2.8941684E-4,2.674082E-4,0E0,0E0,0E0,0E0,0E0,2.8401613E-5,0E0,0E0,0E0,7.824972E-5,2.846797E-5,0E0,1.4627207E-4,1.9528059E-4,1.320251E-4,0E0,0E0,0E0,0E0,0E0,0E0,0E0,7.9050624E-5,6.350211E-5,0E0,3.822701E-5,0E0,1.2569595E-4,0E0,0E0,0E0,0E0,0E0,0E0,0E0,0E0],"parents":[2147483647,0,0,1,1,2,2,3,3,4,4,5,5,6,6,7,7,8,8,9,9,10,10,11,11,12,12,13,13,15,15,17,17,19,19,20,20,26,26,30,30,31,31,33,33,34,34,35,35,43,43,44,44,46,46,48,48],"right_children":[2,4,6,8,10,12,14,16,18,20,22,24,26,28,-1,30,-1,32,-1,34,36,-1,-1,-1,-1,-1,38,-1,-1,-1,40,42,-1,44,46,48,-1,-1,-1,-1,-1,-1,-1,50,52,-1,54,-1,56,-1,-1,-1,-1,-1,-1,-1,-1],"split_conditions":[1.555993E-2,2.457547E-3,3.5217974E-2,9.867176E-4,5E1,1.7357357E-3,4.3561053E-2,5.7546854E-2,6.4840475E-3,8.660086E-3,3.08847E1,3.1060804E-2,1.3662428E-7,7.11E2,7.435064E-4,1.5569666E-4,-0E0,5.702667E-3,2.1103914E-4,6.2494287E-3,5.1236674E-3,-0E0,3.3936527E-4,-6.27821E-5,-0E0,-0E0,1.555993E-2,5.60319E-4,-0E0,-7.6964505E-5,5.6113433E-3,1.3662428E-7,-0E0,2.7191297E-3,2.7191297E-3,5.9775654E1,-0E0,9.855426E-5,4.168551E-4,-6.801239E-5,-0E0,-0E0,-4.6398553E-5,4.231357E-3,2.2E1,-0E0,5.84798E1,-0E0,1.2738781E-2,-4.8201557E-5,-0E0,4.9023944E-5,-0E0,-0E0,-7.03668E-5,1.1587668E-4,-0E0],"split_indices":[15,19,15,19,10,17,15,18,21,15,1,21,18,3,0,19,0,22,0,19,22,0,0,0,0,0,17,0,0,0,22,18,0,15,18,6,0,0,0,0,0,0,0,22,11,0,0,0,17,0,0,0,0,0,0,0,0],"split_type":[0,0,0,0,0,0,0,0,0,0,0,0,0,0,0,0,0,0,0,0,0,0,0,0,0,0,0,0,0,0,0,0,0,0,0,0,0,0,0,0,0,0,0,0,0,0,0,0,0,0,0,0,0,0,0,0,0],"sum_hessian":[4.3806E4,3.9383E4,4.423E3,3.7958E4,1.425E3,1.727E3,2.696E3,3.5799E4,2.159E3,1.311E3,1.14E2,6.7E1,1.66E3,3.16E2,2.38E3,3.5779E4,2E1,2.152E3,7E0,8.99E2,4.12E2,1.2E1,1.02E2,6.1E1,6E0,6E0,1.654E3,3.11E2,5E0,1.8211E4,1.7568E4,2.142E3,1E1,4.98E2,4.01E2,3.95E2,1.7E1,4.3E1,1.611E3,1.7551E4,1.7E1,4.6E1,2.096E3,2.79E2,2.19E2,7.6E1,3.25E2,5.9E1,3.36E2,1.06E2,1.73E2,1.96E2,2.3E1,9E0,3.16E2,3.22E2,1.4E1],"tree_param":{"num_deleted":"0","num_feature":"25","num_nodes":"57","size_leaf_vector":"1"}},{"base_weights":[5.343657E-6,-1.2728004E-3,1.1329922E-2,-1.3436886E-3,8.584927E-4,7.5220587E-3,1.375981E-2,-1.3479167E-3,3.8983668E-3,3.8500663E-4,3.759661E-4,-6.2131934E-4,7.874488E-3,6.521512E-4,7.9804426E-4,-1.3788535E-3,-7.804681E-4,6.3343387E-4,-0E0,-3.868997E-4,2.020309E-3,-0E0,-5.137866E-5,7.92349E-3,-0E0,-6.901484E-5,-0E0,-8.1210583E-4,-0E0,-1.4869446E-3,-0E0,-0E0,2.2098406E-3,1.2817475E-5,7.992964E-3,-0E0,-8.39355E-4,-0E0,-1.8456581E-3,4.5084368E-4,-4.1311578E-4,2.265119E-3,-0E0,-0E0,4.006728E-4,-4.2194337E-5,-0E0,-0E0,-9.8390505E-5,2.9201794E-5,-0E0,-0E0,-3.7613758E-5,1.16099334E-4,-0E0],"categories":[],"categories_nodes":[],"categories_segments":[],"categories_sizes":[],"default_left":[0,0,0,0,0,0,0,0,0,0,0,0,0,0,0,0,0,0,0,0,0,0,0,0,0,0,0,0,0,0,0,0,0,0,0,0,0,0,0,0,0,0,0,0,0,0,0,0,0,0,0,0,0,0,0],"id":23,"left_children":[1,3,5,7,9,11,13,15,17,-1,19,21,23,-1,-1,25,27,-1,-1,29,31,-1,-1,33,-1,-1,-1,35,-1,37,39,-1,41,-1,43,-1,45,-1,47,49,51,53,-1,-1,-1,-1,-1,-1,-1,-1,-1,-1,-1,-1,-1],"loss_changes":[6.365495E-1,6.009467E-3,3.90445E-2,5.9737265E-4,3.2335545E-3,5.7698563E-3,1.1606812E-3,4.5379996E-4,7.8060507E-4,0E0,1.6179872E-3,3.5196434E-5,5.6527555E-5,0E0,0E0,1.264885E-4,5.9932005E-5,0E0,0E0,3.541037E-4,1.2281188E-4,0E0,0E0,6.5244734E-5,0E0,0E0,0E0,4.1107647E-5,0E0,6.4884865E-5,1.01822516E-4,0E0,5.9999875E-5,0E0,2.6509166E-5,0E0,9.543495E-6,0E0,1.0712014E-5,2.6118822E-5,6.722976E-5,3.4861616E-5,0E0,0E0,0E0,0E0,0E0,0E0,0E0,0E0,0E0,0E0,0E0,0E0,0E0],"parents":[2147483647,0,0,1,1,2,2,3,3,4,4,5,5,6,6,7,7,8,8,10,10,11,11,12,12,15,15,16,16,19,19,20,20,23,23,27,27,29,29,30,30,32,32,34,34,36,36,38,38,39,39,40,40,41,41],"right_children":[2,4,6,8,10,12,14,16,18,-1,20,22,24,-1,-1,26,28,-1,-1,30,32,-1,-1,34,-1,-1,-1,36,-1,38,40,-1,42,-1,44,-1,46,-1,48,50,52,54,-1,-1,-1,-1,-1,-1,-1,-1,-1,-1,-1,-1,-1],"split_conditions":[1.555993E-2,3.7612966E-3,3.5217974E-2,5.484422E-3,5E0,1.7357357E-3,5.1588636E-2,1.7361729E-3,8.27798E1,3.8500663E-4,8.660086E-3,6.1179802E1,1.5770702E-2,6.521512E-4,7.9804426E-4,1.06480215E-2,1.1676264E-2,6.3343387E-4,-0E0,1.995011E-4,4.8346727E-4,-0E0,-5.137866E-5,2.7805697E-3,-0E0,-6.901484E-5,-0E0,1.7559122E-3,-0E0,4.5786655E6,6.2494287E-3,-0E0,4.2861678E-2,1.2817475E-5,1.3662428E-7,-0E0,5.702667E-3,-0E0,4.1234423E-3,6.4840475E-3,2.7191297E-3,8.1123535E1,-0E0,-0E0,4.006728E-4,-4.2194337E-5,-0E0,-0E0,-9.8390505E-5,2.9201794E-5,-0E0,-0E0,-3.7613758E-5,1.16099334E-4,-0E0],"split_indices":[15,19,15,20,9,17,15,19,0,0,15,0,20,0,0,15,18,0,0,15,18,0,0,20,0,0,0,21,0,23,19,0,16,0,18,0,22,0,21,21,18,1,0,0,0,0,0,0,0,0,0,0,0,0,0],"split_type":[0,0,0,0,0,0,0,0,0,0,0,0,0,0,0,0,0,0,0,0,0,0,0,0,0,0,0,0,0,0,0,0,0,0,0,0,0,0,0,0,0,0,0,0,0,0,0,0,0,0,0,0,0,0,0],"sum_hessian":[4.3906E4,3.9446E4,4.46E3,3.8222E4,1.224E3,1.755E3,2.705E3,3.8211E4,1.1E1,6.6E1,1.158E3,6.1E1,1.694E3,2.08E3,6.25E2,3.6067E4,2.144E3,5E0,6E0,7.5E2,4.08E2,6E0,5.5E1,1.674E3,2E1,3.6058E4,9E0,2.071E3,7.3E1,2.1E2,5.4E2,4.2E1,3.66E2,2.8E1,1.646E3,7.4E1,1.997E3,5.5E1,1.55E2,2.85E2,2.55E2,3.6E2,6E0,8E0,1.638E3,1.989E3,8E0,1.6E1,1.39E2,2.46E2,3.9E1,6E1,1.95E2,3.49E2,1.1E1],"tree_param":{"num_deleted":"0","num_feature":"25","num_nodes":"55","size_leaf_vector":"1"}},{"base_weights":[6.856329E-6,-1.2081855E-3,1.0765782E-2,-1.2777552E-3,8.5204164E-4,7.5688125E-3,1.3491626E-2,-1.3348182E-3,-9.489407E-4,3.6885098E-4,3.8304122E-4,-7.8042154E-4,7.888952E-3,7.4322737E-4,6.270981E-4,-1.3352969E-3,-0E0,-9.754948E-4,-0E0,-7.872866E-4,1.3272156E-3,-5.4340577E-5,-0E0,6.6077453E-3,8.902E-3,-6.678378E-5,-0E0,-9.809928E-4,-0E0,1.7369748E-3,-0E0,7.972334E-6,-1.103467E-3,-0E0,1.573044E-3,-0E0,6.6545834E-3,-0E0,4.470456E-4,-0E0,-9.964056E-4,-0E0,3.940433E-3,-0E0,3.3213975E-4,-0E0,-1.3491524E-3,-0E0,1.7310356E-3,-0E0,3.355091E-4,-4.9980066E-5,-0E0,-0E0,2.9831388E-4,4.0242612E-5,-0E0,-0E0,-7.096091E-5,-0E0,9.121428E-5],"categories":[],"categories_nodes":[],"categories_segments":[],"categories_sizes":[],"default_left":[0,0,0,0,0,0,0,0,0,0,0,0,0,0,0,0,0,0,0,0,0,0,0,0,0,0,0,0,0,0,0,0,0,0,0,0,0,0,0,0,0,0,0,0,0,0,0,0,0,0,0,0,0,0,0,0,0,0,0,0,0],"id":24,"left_children":[1,3,5,7,9,11,13,15,17,-1,19,21,23,-1,-1,25,-1,27,29,31,33,-1,-1,35,37,-1,-1,39,-1,41,-1,43,45,-1,47,-1,49,-1,-1,-1,51,-1,53,-1,55,-1,57,-1,59,-1,-1,-1,-1,-1,-1,-1,-1,-1,-1,-1,-1],"loss_changes":[5.753501E-1,5.7011656E-3,3.6719322E-2,4.8767403E-4,3.0250186E-3,6.2633157E-3,1.9294024E-4,3.0614436E-5,2.4141511E-4,0E0,1.3534051E-3,2.9490577E-5,9.990335E-4,0E0,0E0,5.9120357E-6,0E0,3.5040546E-5,9.352952E-5,2.2974907E-4,2.798976E-4,0E0,0E0,1.3797358E-4,1.0754168E-4,0E0,0E0,6.329408E-5,0E0,2.170107E-4,0E0,3.7477848E-6,1.1833501E-4,0E0,1.266551E-4,0E0,1.0198355E-4,0E0,0E0,0E0,2.7417205E-5,0E0,4.5424444E-5,0E0,1.2443907E-5,0E0,5.4565317E-5,0E0,6.1208615E-5,0E0,0E0,0E0,0E0,0E0,0E0,0E0,0E0,0E0,0E0,0E0,0E0],"parents":[2147483647,0,0,1,1,2,2,3,3,4,4,5,5,6,6,7,7,8,8,10,10,11,11,12,12,15,15,17,17,18,18,19,19,20,20,23,23,24,24,27,27,29,29,31,31,32,32,34,34,36,36,40,40,42,42,44,44,46,46,48,48],"right_children":[2,4,6,8,10,12,14,16,18,-1,20,22,24,-1,-1,26,-1,28,30,32,34,-1,-1,36,38,-1,-1,40,-1,42,-1,44,46,-1,48,-1,50,-1,-1,-1,52,-1,54,-1,56,-1,58,-1,60,-1,-1,-1,-1,-1,-1,-1,-1,-1,-1,-1,-1],"split_conditions":[1.555993E-2,3.7612966E-3,4.3561053E-2,5.390177E-4,5E0,1.7357357E-3,1.11504E5,4.6613654E-3,6.399653E-3,3.6885098E-4,4.3871677E-3,3.1060804E-2,3.086328E-2,7.4322737E-4,6.270981E-4,1.3442815E-3,-0E0,1.2544557E-2,1.4793702E-7,5.84798E1,5.9775654E1,-5.4340577E-5,-0E0,1.3662428E-7,1.8247757E-2,-6.678378E-5,-0E0,1.3662428E-7,-0E0,9.8E1,-0E0,1.4793702E-7,4.84898E1,-0E0,4.55198E1,-0E0,5.81198E1,-0E0,4.470456E-4,-0E0,5.702667E-3,-0E0,6.79298E1,-0E0,1.1E1,-0E0,2.237E-1,-0E0,7.908989E-1,-0E0,3.355091E-4,-4.9980066E-5,-0E0,-0E0,2.9831388E-4,4.0242612E-5,-0E0,-0E0,-7.096091E-5,-0E0,9.121428E-5],"split_indices":[15,19,15,19,9,17,8,17,21,0,15,21,15,0,0,20,0,16,17,0,6,0,0,18,18,0,0,18,0,5,0,15,2,0,2,0,0,0,0,0,22,0,0,0,11,0,4,0,4,0,0,0,0,0,0,0,0,0,0,0,0],"split_type":[0,0,0,0,0,0,0,0,0,0,0,0,0,0,0,0,0,0,0,0,0,0,0,0,0,0,0,0,0,0,0,0,0,0,0,0,0,0,0,0,0,0,0,0,0,0,0,0,0,0,0,0,0,0,0,0,0,0,0,0,0],"sum_hessian":[4.3937E4,3.9471E4,4.466E3,3.8229E4,1.242E3,2.074E3,2.392E3,3.2314E4,5.915E3,6.8E1,1.174E3,6.5E1,2.009E3,9.29E2,1.463E3,3.2308E4,6E0,5.851E3,6.4E1,4.77E2,6.97E2,5.8E1,7E0,9.34E2,1.075E3,3.2293E4,1.5E1,5.822E3,2.9E1,3E1,3.4E1,4.6E1,4.31E2,8.8E1,6.09E2,1E1,9.24E2,8E0,1.067E3,1.15E2,5.707E3,1.1E1,1.9E1,1.3E1,3.3E1,7.8E1,3.53E2,6.4E1,5.45E2,1.3E1,9.11E2,5.698E3,9E0,1E1,9E0,2.4E1,9E0,7E0,3.46E2,3.6E1,5.09E2],"tree_param":{"num_deleted":"0","num_feature":"25","num_nodes":"61","size_leaf_vector":"1"}},{"base_weights":[8.870468E-6,-1.1505223E-3,1.0239326E-2,-1.2142461E-3,7.542768E-4,7.174453E-3,1.2856905E-2,-1.2472675E-3,-6.918354E-4,3.612973E-4,2.700566E-4,-9.3469984E-4,7.5148083E-3,5.968115E-4,1.4239355E-2,-6.7736815E-5,-1.1784049E-3,-7.3888875E-4,9.851293E-5,-8.746248E-4,1.2306499E-3,-0E0,-6.347533E-5,6.271939E-3,8.450629E-3,7.175323E-4,-0E0,-5.901401E-5,-0E0,-7.629924E-4,-0E0,-0E0,-1.282047E-3,8.002331E-5,1.7604545E-3,-0E0,6.330292E-3,-0E0,4.238334E-4,3.251702E-4,-0E0,-7.7161886E-4,-0E0,-0E0,-1.3551585E-3,8.989846E-4,-0E0,-0E0,1.9615456E-3,-0E0,3.1915292E-4,-0E0,-3.9630322E-5,-6.964201E-5,-0E0,-0E0,4.767967E-5,-5.339658E-6,-0E0,9.936494E-5,-0E0],"categories":[],"categories_nodes":[],"categories_segments":[],"categories_sizes":[],"default_left":[0,0,0,0,0,0,0,0,0,0,0,0,0,0,0,0,0,0,0,0,0,0,0,0,0,0,0,0,0,0,0,0,0,0,0,0,0,0,0,0,0,0,0,0,0,0,0,0,0,0,0,0,0,0,0,0,0,0,0,0,0],"id":25,"left_children":[1,3,5,7,9,11,13,15,17,-1,19,21,23,-1,25,-1,27,29,-1,31,33,-1,-1,35,37,-1,39,-1,-1,41,-1,-1,43,45,47,-1,49,-1,-1,-1,-1,51,-1,-1,53,55,57,-1,59,-1,-1,-1,-1,-1,-1,-1,-1,-1,-1,-1,-1],"loss_changes":[5.220269E-1,4.8358887E-3,3.385365E-2,4.64689E-4,3.0935141E-3,6.41685E-3,2.6464462E-4,9.838492E-6,1.8583343E-4,0E0,1.3088854E-3,4.259123E-5,8.148998E-4,0E0,1.2278557E-5,0E0,9.831041E-6,5.7837693E-5,0E0,1.8595828E-4,2.2851536E-4,0E0,0E0,3.1148642E-4,5.327165E-5,0E0,3.806484E-4,0E0,0E0,2.6373193E-5,0E0,0E0,5.2121875E-5,6.1282895E-5,1.330811E-4,0E0,1.18184835E-4,0E0,0E0,0E0,0E0,2.2484572E-5,0E0,0E0,7.011171E-6,2.4349938E-6,1.7791455E-6,0E0,1.6863574E-5,0E0,0E0,0E0,0E0,0E0,0E0,0E0,0E0,0E0,0E0,0E0,0E0],"parents":[2147483647,0,0,1,1,2,2,3,3,4,4,5,5,6,6,7,7,8,8,10,10,11,11,12,12,14,14,16,16,17,17,19,19,20,20,23,23,24,24,26,26,29,29,32,32,33,33,34,34,36,36,41,41,44,44,45,45,46,46,48,48],"right_children":[2,4,6,8,10,12,14,16,18,-1,20,22,24,-1,26,-1,28,30,-1,32,34,-1,-1,36,38,-1,40,-1,-1,42,-1,-1,44,46,48,-1,50,-1,-1,-1,-1,52,-1,-1,54,56,58,-1,60,-1,-1,-1,-1,-1,-1,-1,-1,-1,-1,-1,-1],"split_conditions":[1.555993E-2,3.7612966E-3,4.3561053E-2,9.036357E-4,5E0,1.7357357E-3,6E0,1.1932417E-4,4.6212673E-2,3.612973E-4,4.3871677E-3,6.1179802E1,3.086328E-2,5.968115E-4,8.62898E1,-6.7736815E-5,3.9758706E-3,1.06480215E-2,9.851293E-5,4.93898E1,8.660086E-3,-0E0,-6.347533E-5,1.3662428E-7,1.8247757E-2,7.175323E-4,4.6754535E-2,-5.901401E-5,-0E0,1.555993E-2,-0E0,-0E0,5.81198E1,6.023787E-3,4.8346727E-4,-0E0,5.81198E1,-0E0,4.238334E-4,3.251702E-4,-0E0,1.3662428E-7,-0E0,-0E0,5.98298E1,1E0,5E0,-0E0,4.2861678E-2,-0E0,3.1915292E-4,-0E0,-3.9630322E-5,-6.964201E-5,-0E0,-0E0,4.767967E-5,-5.339658E-6,-0E0,9.936494E-5,-0E0],"split_indices":[15,19,15,19,9,17,9,19,18,0,15,0,15,0,0,0,18,16,0,2,15,0,0,18,18,0,17,0,0,17,0,0,0,19,18,0,0,0,0,0,0,18,0,0,2,13,13,0,16,0,0,0,0,0,0,0,0,0,0,0,0],"split_type":[0,0,0,0,0,0,0,0,0,0,0,0,0,0,0,0,0,0,0,0,0,0,0,0,0,0,0,0,0,0,0,0,0,0,0,0,0,0,0,0,0,0,0,0,0,0,0,0,0,0,0,0,0,0,0,0,0,0,0,0,0],"sum_hessian":[4.3933E4,3.9453E4,4.48E3,3.8227E4,1.226E3,2.083E3,2.397E3,3.5773E4,2.454E3,7E1,1.156E3,7.2E1,2.011E3,1.488E3,9.09E2,1.3396E4,2.2377E4,2.449E3,5E0,4.8E2,6.76E2,7E0,6.5E1,9.13E2,1.098E3,8.95E2,1.4E1,2.2313E4,6.4E1,2.396E3,5.3E1,1.44E2,3.36E2,2.73E2,4.03E2,9E0,9.04E2,6E0,1.092E3,8E0,6E0,2.387E3,9E0,7E0,3.29E2,7.7E1,1.96E2,4.4E1,3.59E2,1.2E1,8.92E2,8.9E1,2.298E3,3.15E2,1.4E1,6E0,7.1E1,1.55E2,4.1E1,3.54E2,5E0],"tree_param":{"num_deleted":"0","num_feature":"25","num_nodes":"61","size_leaf_vector":"1"}},{"base_weights":[1.8902565E-5,-1.0979081E-3,9.494055E-3,-1.1582422E-3,5.5539893E-4,6.7481925E-3,1.1872526E-2,-1.2051781E-3,-8.743415E-4,3.155293E-4,5.571571E-4,6.843159E-3,-0E0,1.0319572E-2,1.2825888E-2,-6.030661E-5,-0E0,-8.9058804E-4,-0E0,6.097571E-4,-0E0,6.292108E-3,8.710196E-3,5.286184E-4,-1.605456E-3,-0E0,6.428814E-4,-4.472135E-5,-0E0,-0E0,9.548196E-4,2.4580822E-4,-6.9842086E-4,6.495055E-3,-0E0,6.729585E-3,5.609368E-4,-0E0,-1.07449414E-4,-0E0,-4.1670166E-4,-0E0,1.3320217E-3,-0E0,7.5713487E-4,-1.0667451E-3,-0E0,-0E0,3.2722126E-4,1.097991E-5,-0E0,3.4676725E-4,-0E0,-3.5732195E-5,-0E0,-0E0,8.115929E-6,3.5489131E-6,1.03108665E-4,-0E0,4.934178E-5,-5.6273955E-5,-0E0],"categories":[],"categories_nodes":[],"categories_segments":[],"categories_sizes":[],"default_left":[0,0,0,0,0,0,0,0,0,0,0,0,0,0,0,0,0,0,0,0,0,0,0,0,0,0,0,0,0,0,0,0,0,0,0,0,0,0,0,0,0,0,0,0,0,0,0,0,0,0,0,0,0,0,0,0,0,0,0,0,0,0,0],"id":26,"left_children":[1,3,5,7,9,11,13,15,17,19,-1,21,-1,23,25,-1,-1,27,-1,29,31,33,35,-1,37,-1,-1,-1,-1,39,41,43,45,47,49,51,-1,-1,-1,-1,53,55,57,-1,59,61,-1,-1,-1,-1,-1,-1,-1,-1,-1,-1,-1,-1,-1,-1,-1,-1,-1],"loss_changes":[4.6415958E-1,3.9669685E-3,2.8270036E-2,2.9518828E-4,2.2055309E-3,1.9098446E-3,1.1922419E-3,4.6364963E-5,1.5714392E-4,1.8157426E-4,0E0,6.5695494E-4,0E0,3.8679615E-3,3.7902594E-4,0E0,0E0,3.243331E-5,0E0,2.567772E-4,1.2522993E-4,1.8935278E-3,3.4559518E-4,0E0,3.4378463E-6,0E0,0E0,0E0,0E0,2.50042E-5,1.8077E-4,7.893907E-5,6.451486E-5,1.1674315E-4,1.5913714E-6,1.932159E-4,0E0,0E0,0E0,0E0,4.1388877E-5,2.8982047E-6,1.7509615E-4,0E0,4.387179E-5,1.0961812E-5,0E0,0E0,0E0,0E0,0E0,0E0,0E0,0E0,0E0,0E0,0E0,0E0,0E0,0E0,0E0,0E0,0E0],"parents":[2147483647,0,0,1,1,2,2,3,3,4,4,5,5,6,6,7,7,8,8,9,9,11,11,13,13,14,14,17,17,19,19,20,20,21,21,22,22,24,24,29,29,30,30,31,31,32,32,33,33,34,34,35,35,40,40,41,41,42,42,44,44,45,45],"right_children":[2,4,6,8,10,12,14,16,18,20,-1,22,-1,24,26,-1,-1,28,-1,30,32,34,36,-1,38,-1,-1,-1,-1,40,42,44,46,48,50,52,-1,-1,-1,-1,54,56,58,-1,60,62,-1,-1,-1,-1,-1,-1,-1,-1,-1,-1,-1,-1,-1,-1,-1,-1,-1],"split_conditions":[1.6207527E-2,2.457547E-3,4.2985346E-2,5.390177E-4,2.0847213E-2,4.817117E-2,4.9744528E-2,1.3442815E-3,6.4840475E-3,4.699031E0,5.571571E-4,3.3433005E-2,-0E0,4.9180146E-2,4.3179802E1,-6.030661E-5,-0E0,5.702667E-3,-0E0,6.24398E1,5.39798E1,1.5770702E-2,8.5532535E-3,5.286184E-4,8.414244E1,-0E0,6.428814E-4,-4.472135E-5,-0E0,5.7309803E1,1.9533764E0,5.2712092E0,5.98298E1,2.7805697E-3,5.2179802E1,8.487516E-3,5.609368E-4,-0E0,-1.07449414E-4,-0E0,6.4840475E-3,7.523253E1,4.2843795E-3,-0E0,6.722808E1,3.937008E-3,-0E0,-0E0,3.2722126E-4,1.097991E-5,-0E0,3.4676725E-4,-0E0,-3.5732195E-5,-0E0,-0E0,8.115929E-6,3.5489131E-6,1.03108665E-4,-0E0,4.934178E-5,-5.6273955E-5,-0E0],"split_indices":[19,19,19,19,22,21,19,20,21,4,0,16,0,21,2,0,0,22,0,0,2,20,22,0,6,0,0,0,0,0,4,4,2,20,2,20,0,0,0,0,21,6,20,0,6,7,0,0,0,0,0,0,0,0,0,0,0,0,0,0,0,0,0],"split_type":[0,0,0,0,0,0,0,0,0,0,0,0,0,0,0,0,0,0,0,0,0,0,0,0,0,0,0,0,0,0,0,0,0,0,0,0,0,0,0,0,0,0,0,0,0,0,0,0,0,0,0,0,0,0,0,0,0,0,0,0,0,0,0],"sum_hessian":[4.3782E4,3.9157E4,4.625E3,3.7837E4,1.32E3,2.168E3,2.457E3,3.2164E4,5.673E3,1.301E3,1.9E1,2.149E3,1.9E1,9.79E2,1.478E3,3.2145E4,1.9E1,5.666E3,7E0,8.36E2,4.65E2,1.704E3,4.45E2,9.67E2,1.2E1,5E0,1.473E3,5.658E3,8E0,2.14E2,6.22E2,2.39E2,2.26E2,1.644E3,6E1,2.73E2,1.72E2,5E0,7E0,7.1E1,1.43E2,2.01E2,4.21E2,7.7E1,1.62E2,1.53E2,7.3E1,2.2E1,1.622E3,3.2E1,2.8E1,2.61E2,1.2E1,1.29E2,1.4E1,9.2E1,1.09E2,2.05E2,2.16E2,2.2E1,1.4E2,1.46E2,7E0],"tree_param":{"num_deleted":"0","num_feature":"25","num_nodes":"63","size_leaf_vector":"1"}},{"base_weights":[1.05221425E-5,-1.040072E-3,9.247084E-3,-1.0987719E-3,4.5910114E-4,6.4538117E-3,1.1601864E-2,-1.1230585E-3,-5.557567E-4,5.0448054E-3,1.5547407E-6,-1.0382835E-3,6.761884E-3,5.5192696E-4,1.3552405E-2,-1.1268943E-3,-0E0,-0E0,-6.209382E-4,-0E0,2.8318126E-4,-7.007051E-4,8.2933326E-4,-6.613982E-5,-0E0,5.4742564E-3,7.4934145E-3,1.3769299E-2,-0E0,-1.1999464E-3,-5.185582E-5,-0E0,4.6585026E-4,-0E0,4.051098E-5,-0E0,-3.2845517E-5,-0E0,-1.000479E-3,1.0363483E-3,-7.761963E-6,-0E0,2.7651308E-4,3.7621154E-4,-0E0,-0E0,6.958375E-4,1.9927508E-4,-0E0,-6.0016162E-5,-0E0,-2.3055174E-5,-0E0,1.259095E-3,-0E0,-0E0,9.4464887E-4,-1.1230254E-3,-0E0,1.2388956E-3,-0E0,-0E0,9.2645365E-5,7.7698634E-5,-0E0,-0E0,-6.490754E-5,-0E0,7.3548494E-5],"categories":[],"categories_nodes":[],"categories_segments":[],"categories_sizes":[],"default_left":[0,0,0,0,0,0,0,0,0,0,0,0,0,0,0,0,0,0,0,0,0,0,0,0,0,0,0,0,0,0,0,0,0,0,0,0,0,0,0,0,0,0,0,0,0,0,0,0,0,0,0,0,0,0,0,0,0,0,0,0,0,0,0,0,0,0,0,0,0],"id":27,"left_children":[1,3,5,7,9,11,13,15,17,19,21,23,25,-1,27,29,31,33,35,-1,-1,37,39,-1,-1,41,43,45,47,49,-1,51,53,-1,-1,-1,-1,55,57,59,-1,-1,-1,-1,-1,-1,-1,-1,-1,-1,-1,-1,-1,61,-1,-1,63,65,-1,67,-1,-1,-1,-1,-1,-1,-1,-1,-1],"loss_changes":[4.2643264E-1,3.5291836E-3,2.7646124E-2,3.320016E-4,2.474761E-3,5.368702E-3,4.49121E-5,1.8499047E-4,1.0127376E-4,3.3737812E-4,7.7613007E-4,3.477453E-5,5.517453E-4,0E0,2.9085577E-4,1.148507E-5,9.548724E-6,1.706785E-5,2.3661065E-5,0E0,0E0,2.0481221E-4,2.2442447E-4,0E0,0E0,8.3131716E-5,1.14917755E-4,2.2868067E-4,1.2707377E-4,1.5664846E-6,0E0,1.1056054E-5,4.75228E-5,0E0,0E0,0E0,0E0,4.997224E-5,9.395956E-5,1.4881999E-4,0E0,0E0,0E0,0E0,0E0,0E0,0E0,0E0,0E0,0E0,0E0,0E0,0E0,3.5626636E-5,0E0,0E0,4.4206176E-5,1.1423079E-4,0E0,8.76995E-5,0E0,0E0,0E0,0E0,0E0,0E0,0E0,0E0,0E0],"parents":[2147483647,0,0,1,1,2,2,3,3,4,4,5,5,6,6,7,7,8,8,9,9,10,10,11,11,12,12,14,14,15,15,16,16,17,17,18,18,21,21,22,22,25,25,26,26,27,27,28,28,29,29,31,31,32,32,37,37,38,38,39,39,53,53,56,56,57,57,59,59],"right_children":[2,4,6,8,10,12,14,16,18,20,22,24,26,-1,28,30,32,34,36,-1,-1,38,40,-1,-1,42,44,46,48,50,-1,52,54,-1,-1,-1,-1,56,58,60,-1,-1,-1,-1,-1,-1,-1,-1,-1,-1,-1,-1,-1,62,-1,-1,64,66,-1,68,-1,-1,-1,-1,-1,-1,-1,-1,-1],"split_conditions":[1.555993E-2,5.5332975E-3,4.3561053E-2,1.7324516E-3,6E0,1.7357357E-3,5.2086722E-2,5.6113433E-3,1.7559122E-3,3.08847E1,4.3871677E-3,3.1060804E-2,3.0285586E-2,5.5192696E-4,8.62898E1,1.6153508E-4,6.1539803E1,1.9875045E-3,3.949741E6,-0E0,2.8318126E-4,2.4428408E0,5.1236674E-3,-6.613982E-5,-0E0,5.81198E1,7.12E2,4.7453937E-1,4.6754535E-2,1.2738781E-2,-5.185582E-5,2.1E2,1.18110245E-2,-0E0,4.051098E-5,-0E0,-3.2845517E-5,4.2571663E-3,6.45998E1,1.078512E-2,-7.761963E-6,-0E0,2.7651308E-4,3.7621154E-4,-0E0,-0E0,6.958375E-4,1.9927508E-4,-0E0,-6.0016162E-5,-0E0,-2.3055174E-5,-0E0,7.2397194E1,-0E0,-0E0,8.865734E-3,6.47798E1,-0E0,6.26198E1,-0E0,-0E0,9.2645365E-5,7.7698634E-5,-0E0,-0E0,-6.490754E-5,-0E0,7.3548494E-5],"split_indices":[15,21,15,15,9,17,15,22,21,1,15,21,15,0,0,15,2,20,24,0,0,4,22,0,0,0,3,4,17,17,0,3,7,0,0,0,0,22,2,17,0,0,0,0,0,0,0,0,0,0,0,0,0,1,0,0,17,0,0,0,0,0,0,0,0,0,0,0,0],"split_type":[0,0,0,0,0,0,0,0,0,0,0,0,0,0,0,0,0,0,0,0,0,0,0,0,0,0,0,0,0,0,0,0,0,0,0,0,0,0,0,0,0,0,0,0,0,0,0,0,0,0,0,0,0,0,0,0,0,0,0,0,0,0,0,0,0,0,0,0,0],"sum_hessian":[4.3858E4,3.937E4,4.488E3,3.7951E4,1.419E3,2.074E3,2.414E3,3.6149E4,1.802E3,1.08E2,1.311E3,6.9E1,2.005E3,1.918E3,4.96E2,3.6049E4,1E2,9.6E1,1.706E3,1.2E1,9.6E1,6.44E2,6.67E2,6.2E1,7E0,7.79E2,1.226E3,4.82E2,1.4E1,1.9255E4,1.6794E4,5.7E1,4.3E1,7.1E1,2.5E1,1.27E2,1.579E3,1.24E2,5.2E2,6.35E2,3.2E1,1.3E1,7.66E2,1.218E3,8E0,9E0,4.73E2,7E0,7E0,1.9244E4,1.1E1,5.1E1,6E0,3.5E1,8E0,6.9E1,5.5E1,4.87E2,3.3E1,5.41E2,9.4E1,9E0,2.6E1,3.8E1,1.7E1,5.5E1,4.32E2,1.17E2,4.24E2],"tree_param":{"num_deleted":"0","num_feature":"25","num_nodes":"69","size_leaf_vector":"1"}},{"base_weights":[2.3821156E-5,-9.857655E-4,8.831222E-3,-1.0445751E-3,5.0454837E-4,5.788267E-3,1.0731532E-2,-1.0678221E-3,-5.220368E-4,2.9702196E-4,1.6259898E-4,-1.0301297E-3,6.097642E-3,4.7902917E-4,5.82513E-4,-1.0715463E-3,-0E0,-0E0,-5.972436E-4,-2.307995E-4,1.2055339E-3,-0E0,-5.7270383E-5,-0E0,6.154304E-3,-1.1660905E-3,-5.0219132E-5,-0E0,1.3915178E-3,-3.0782456E-5,-0E0,9.4727235E-5,-9.1012986E-4,-0E0,1.4713815E-3,6.1869207E-3,-0E0,-5.8335405E-5,-0E0,9.992047E-5,-0E0,6.757993E-4,-4.2687863E-4,-0E0,-1.2274034E-3,-0E0,1.5982509E-3,-0E0,3.1152015E-4,7.619795E-6,2.2083636E-4,-0E0,-3.701783E-5,-0E0,-6.446658E-5,8.3965686E-5,-0E0],"categories":[],"categories_nodes":[],"categories_segments":[],"categories_sizes":[],"default_left":[0,0,0,0,0,0,0,0,0,0,0,0,0,0,0,0,0,0,0,0,0,0,0,0,0,0,0,0,0,0,0,0,0,0,0,0,0,0,0,0,0,0,0,0,0,0,0,0,0,0,0,0,0,0,0,0,0],"id":28,"left_children":[1,3,5,7,9,11,13,15,17,-1,19,21,23,-1,-1,25,-1,27,29,31,33,-1,-1,-1,35,37,-1,-1,39,-1,-1,41,43,-1,45,47,-1,-1,-1,-1,-1,49,51,-1,53,-1,55,-1,-1,-1,-1,-1,-1,-1,-1,-1,-1],"loss_changes":[3.8958868E-1,3.4918748E-3,2.4347872E-2,2.9956922E-4,2.0375198E-3,4.215099E-3,6.763637E-4,1.6512722E-4,1.2933987E-4,0E0,6.5533444E-4,2.6802736E-6,1.14806E-4,0E0,0E0,9.711832E-6,0E0,6.777126E-5,2.9992138E-5,2.846332E-4,2.6259088E-4,0E0,0E0,0E0,5.776435E-5,6.96443E-6,0E0,0E0,3.606338E-5,0E0,0E0,1.8339386E-4,1.5474306E-4,0E0,7.338275E-5,3.6358833E-5,0E0,0E0,0E0,0E0,0E0,2.0422344E-4,5.9470054E-5,0E0,3.340625E-5,0E0,6.791763E-5,0E0,0E0,0E0,0E0,0E0,0E0,0E0,0E0,0E0,0E0],"parents":[2147483647,0,0,1,1,2,2,3,3,4,4,5,5,6,6,7,7,8,8,10,10,11,11,12,12,15,15,17,17,18,18,19,19,20,20,24,24,25,25,28,28,31,31,32,32,34,34,35,35,41,41,42,42,44,44,46,46],"right_children":[2,4,6,8,10,12,14,16,18,-1,20,22,24,-1,-1,26,-1,28,30,32,34,-1,-1,-1,36,38,-1,-1,40,-1,-1,42,44,-1,46,48,-1,-1,-1,-1,-1,50,52,-1,54,-1,56,-1,-1,-1,-1,-1,-1,-1,-1,-1,-1],"split_conditions":[1.555993E-2,5.5332975E-3,3.5217974E-2,1.7324516E-3,5E0,1.7357357E-3,4.8988547E-2,5.6113433E-3,1.3662428E-7,2.9702196E-4,8.660086E-3,6.7211915E6,1.3001554E-2,4.7902917E-4,5.82513E-4,1.17613105E-4,-0E0,6.5125916E1,2.457547E-3,6.2494287E-3,3.7612966E-3,-0E0,-5.7270383E-5,-0E0,1.5770702E-2,1.2738781E-2,-5.0219132E-5,-0E0,5.4669366E0,-3.0782456E-5,-0E0,6.3212566E0,2.7191297E-3,-0E0,1.14871455E-5,1.555993E-2,-0E0,-5.8335405E-5,-0E0,9.992047E-5,-0E0,4.4895844E-3,4.231357E-3,-0E0,5.6755226E1,-0E0,3.7227344E-2,-0E0,3.1152015E-4,7.619795E-6,2.2083636E-4,-0E0,-3.701783E-5,-0E0,-6.446658E-5,8.3965686E-5,-0E0],"split_indices":[15,21,15,15,9,17,15,22,18,0,15,23,18,0,0,15,0,6,19,19,19,0,0,0,20,17,0,0,4,0,0,4,18,0,18,17,0,0,0,0,0,20,22,0,6,0,19,0,0,0,0,0,0,0,0,0,0],"split_type":[0,0,0,0,0,0,0,0,0,0,0,0,0,0,0,0,0,0,0,0,0,0,0,0,0,0,0,0,0,0,0,0,0,0,0,0,0,0,0,0,0,0,0,0,0,0,0,0,0,0,0,0,0,0,0,0,0],"sum_hessian":[4.3724E4,3.9218E4,4.506E3,3.7794E4,1.424E3,1.754E3,2.752E3,3.6E4,1.794E3,6.6E1,1.358E3,6.2E1,1.692E3,1.275E3,1.477E3,3.5894E4,1.06E2,6.1E1,1.733E3,9.17E2,4.41E2,1E1,5.2E1,2.8E1,1.664E3,1.4283E4,2.1611E4,2.7E1,3.4E1,1.71E3,2.3E1,5.21E2,3.96E2,2.4E1,4.17E2,1.648E3,1.6E1,1.4273E4,1E1,2.5E1,9E0,3.37E2,1.84E2,7.6E1,3.2E2,3.5E1,3.82E2,2.2E1,1.626E3,3.2E2,1.7E1,1.5E1,1.69E2,1E1,3.1E2,3.7E2,1.2E1],"tree_param":{"num_deleted":"0","num_feature":"25","num_nodes":"57","size_leaf_vector":"1"}},{"base_weights":[2.2159633E-5,-9.340391E-4,8.378458E-3,-9.893588E-4,6.766955E-4,5.455643E-3,1.0247267E-2,-1.0350854E-3,-7.21457E-4,4.638459E-3,1.5987085E-4,-1.0146998E-3,5.7857996E-3,9.596297E-3,6.0799724E-4,-5.1774387E-5,-0E0,-7.4575475E-4,1.5677524E-3,-0E0,5.024803E-3,-6.6593615E-4,9.076222E-4,-0E0,-6.89348E-5,-0E0,2.9005518E-4,4.81033E-4,-0E0,-7.5485714E-4,-0E0,-0E0,4.522938E-3,2.572782E-4,-0E0,-0E0,-1.5988154E-3,-0E0,1.1503664E-3,-3.8032867E-5,-0E0,-0E0,3.4758792E-4,6.0206406E-5,-2.782625E-4,-0E0,-8.379545E-5,1.2826535E-3,-0E0,3.752452E-5,-0E0,-2.150484E-5,-0E0,-0E0,7.1787654E-5],"categories":[],"categories_nodes":[],"categories_segments":[],"categories_sizes":[],"default_left":[0,0,0,0,0,0,0,0,0,0,0,0,0,0,0,0,0,0,0,0,0,0,0,0,0,0,0,0,0,0,0,0,0,0,0,0,0,0,0,0,0,0,0,0,0,0,0,0,0,0,0,0,0,0,0],"id":29,"left_children":[1,3,5,7,9,11,13,15,17,19,21,23,25,27,-1,-1,-1,29,31,-1,33,35,37,-1,-1,-1,-1,-1,-1,39,-1,-1,41,-1,-1,43,45,-1,47,-1,-1,-1,-1,49,51,-1,-1,53,-1,-1,-1,-1,-1,-1,-1],"loss_changes":[3.5226873E-1,3.5485625E-3,2.3106575E-2,2.9175356E-4,2.080894E-3,4.304692E-3,1.119256E-3,1.9423664E-5,2.468091E-4,3.03976E-4,7.225462E-4,4.2687825E-5,1.590699E-6,1.4457107E-4,0E0,0E0,0E0,6.316719E-5,2.1924142E-4,0E0,1.0085758E-5,