{"learner":{"attributes":{"best_iteration":"144","best_score":"5.505915451458e-05","scikit_learn":"{\"_estimator_type\": \"regressor\"}"},"feature_names":["temperature_2m","relative_humidity_2m","dew_point_2m","direct_radiation","wind_speed_10m","cloud_cover","apparent_temperature","precipitation","grossarea","floorsaboveground","building_age","hour_of_day","minute_of_hour","day_of_week","is_weekend","energy_lag_4","energy_lag_24","energy_lag_96","energy_lag_672","rolling_mean_96","rolling_std_96","rolling_mean_672","rolling_std_672","temp_x_area","humidity_x_area"],"feature_types":["float","float","float","float","float","int","float","float","int","float","float","int","int","int","int","float","float","float","float","float","float","float","float","float","float"],"gradient_booster":{"model":{"cats":{"enc":[],"feature_segments":[],"sorted_idx":[]},"gbtree_model_param":{"num_parallel_tree":"1","num_trees":"195"},"iteration_indptr":[0,1,2,3,4,5,6,7,8,9,10,11,12,13,14,15,16,17,18,19,20,21,22,23,24,25,26,27,28,29,30,31,32,33,34,35,36,37,38,39,40,41,42,43,44,45,46,47,48,49,50,51,52,53,54,55,56,57,58,59,60,61,62,63,64,65,66,67,68,69,70,71,72,73,74,75,76,77,78,79,80,81,82,83,84,85,86,87,88,89,90,91,92,93,94,95,96,97,98,99,100,101,102,103,104,105,106,107,108,109,110,111,112,113,114,115,116,117,118,119,120,121,122,123,124,125,126,127,128,129,130,131,132,133,134,135,136,137,138,139,140,141,142,143,144,145,146,147,148,149,150,151,152,153,154,155,156,157,158,159,160,161,162,163,164,165,166,167,168,169,170,171,172,173,174,175,176,177,178,179,180,181,182,183,184,185,186,187,188,189,190,191,192,193,194,195],"tree_info":[0,0,0,0,0,0,0,0,0,0,0,0,0,0,0,0,0,0,0,0,0,0,0,0,0,0,0,0,0,0,0,0,0,0,0,0,0,0,0,0,0,0,0,0,0,0,0,0,0,0,0,0,0,0,0,0,0,0,0,0,0,0,0,0,0,0,0,0,0,0,0,0,0,0,0,0,0,0,0,0,0,0,0,0,0,0,0,0,0,0,0,0,0,0,0,0,0,0,0,0,0,0,0,0,0,0,0,0,0,0,0,0,0,0,0,0,0,0,0,0,0,0,0,0,0,0,0,0,0,0,0,0,0,0,0,0,0,0,0,0,0,0,0,0,0,0,0,0,0,0,0,0,0,0,0,0,0,0,0,0,0,0,0,0,0,0,0,0,0,0,0,0,0,0,0,0,0,0,0,0,0,0,0,0,0,0,0,0,0,0,0,0,0,0,0],"trees":[{"base_weights":[-0E0,-2.046002E-5,2.7260592E-3,-5.35969E-5,2.8173803E-4,1.949829E-3,1.7253302E-4,-9.633283E-5,1.5628402E-5,2.3082759E-4,8.5972896E-4,4.1303603E-4,1.0357913E-4,-1.2766333E-4,-7.07674E-5,-1.3703318E-5,5.9922415E-5,1.6490575E-4,3.1798324E-4,-0E0,4.3510503E-5,4.501304E-4,-0E0,-1.2806173E-4,-0E0,-7.203112E-5,6.381716E-6,-2.671305E-5,1.1806046E-6,1.8244657E-6,3.9543716E-6,-0E0,8.322361E-6,-0E0,1.592702E-5,-0E0,2.4103667E-5,-7.124216E-6,-5.4942325E-6,-4.095116E-6,-2.6767411E-6,6.160665E-5,-0E0,-1.4076778E-6,-0E0,-1.9776797E-8,4.5444796E-7,7.901487E-6,-0E0],"categories":[],"categories_nodes":[],"categories_segments":[],"categories_sizes":[],"default_left":[0,0,0,0,0,0,0,0,0,0,0,0,0,0,0,0,0,0,0,0,0,0,0,0,0,0,0,0,0,0,0,0,0,0,0,0,0,0,0,0,0,0,0,0,0,0,0,0,0],"id":0,"left_children":[1,3,5,7,9,11,-1,13,15,17,19,21,-1,23,25,27,29,31,33,-1,-1,35,-1,37,-1,39,41,43,45,-1,-1,-1,-1,-1,-1,-1,-1,-1,-1,-1,-1,47,-1,-1,-1,-1,-1,-1,-1],"loss_changes":[2.5433872E-2,4.508211E-3,1.3638884E-3,1.2152765E-3,1.1976617E-3,7.0453156E-5,0E0,1.8295157E-4,2.0582638E-4,1.8710177E-4,3.1252857E-5,1.9351319E-6,0E0,1.0772259E-5,2.0330248E-5,2.033118E-5,1.6757156E-5,3.8295984E-6,1.2574019E-6,0E0,0E0,1.4868892E-6,0E0,4.1021267E-6,0E0,1.20469485E-5,2.0580778E-6,2.138866E-6,1.3584224E-6,0E0,0E0,0E0,0E0,0E0,0E0,0E0,0E0,0E0,0E0,0E0,0E0,3.919744E-6,0E0,0E0,0E0,0E0,0E0,0E0,0E0],"parents":[2147483647,0,0,1,1,2,2,3,3,4,4,5,5,7,7,8,8,9,9,10,10,11,11,13,13,14,14,15,15,16,16,17,17,18,18,21,21,23,23,25,25,26,26,27,27,28,28,41,41],"right_children":[2,4,6,8,10,12,-1,14,16,18,20,22,-1,24,26,28,30,32,34,-1,-1,36,-1,38,-1,40,42,44,46,-1,-1,-1,-1,-1,-1,-1,-1,-1,-1,-1,-1,48,-1,-1,-1,-1,-1,-1,-1],"split_conditions":[1.5281546E-3,2.6769564E-4,2.7004115E-3,1.07544685E-4,7.6100626E-4,3.558482E-4,1.7253302E-4,5.0000544E-5,1.7548086E-4,3.9127152E-4,5.489598E-5,6.15175E0,1.0357913E-4,1.1260328E-3,1.3407897E-4,1.3738438E-4,2.1035623E-4,1.1523837E-4,4.888505E-5,-0E0,4.3510503E-5,7.1876835E-5,-0E0,2.308926E-5,-0E0,8.2416234E-5,1.39E2,1.5669149E-4,1.5824183E-4,1.8244657E-6,3.9543716E-6,-0E0,8.322361E-6,-0E0,1.592702E-5,-0E0,2.4103667E-5,-7.124216E-6,-5.4942325E-6,-4.095116E-6,-2.6767411E-6,6.009186E5,-0E0,-1.4076778E-6,-0E0,-1.9776797E-8,4.5444796E-7,7.901487E-6,-0E0],"split_indices":[15,15,15,15,15,18,0,15,15,15,18,4,0,18,20,15,15,18,18,0,0,16,0,15,0,15,3,18,15,0,0,0,0,0,0,0,0,0,0,0,0,23,0,0,0,0,0,0,0],"split_type":[0,0,0,0,0,0,0,0,0,0,0,0,0,0,0,0,0,0,0,0,0,0,0,0,0,0,0,0,0,0,0,0,0,0,0,0,0,0,0,0,0,0,0,0,0,0,0,0,0],"sum_hessian":[4.55867E5,4.52471E5,3.396E3,4.08058E5,4.4413E4,1.708E3,1.688E3,2.53194E5,1.54864E5,4.0978E4,3.435E3,1.86E2,1.522E3,1.1201E5,1.41184E5,9.181E4,6.3054E4,2.3986E4,1.6992E4,4.1E1,3.394E3,1.66E2,2E1,1.11971E5,3.9E1,1.40184E5,1E3,5.2574E4,3.9236E4,3.0717E4,3.2337E4,3.04E2,2.3682E4,4.7E1,1.6945E4,1.5E1,1.51E2,5.9362E4,5.2609E4,8.7876E4,5.2308E4,5.52E2,4.48E2,5.003E4,2.544E3,2.2173E4,1.7063E4,2.4E2,3.12E2],"tree_param":{"num_deleted":"0","num_feature":"25","num_nodes":"49","size_leaf_vector":"1"}},{"base_weights":[9.095109E-8,-1.9520598E-5,2.6246842E-3,-4.9958635E-5,2.83244E-4,1.8789534E-3,1.6443602E-4,-8.888529E-5,2.260691E-5,2.2842806E-4,8.2156865E-4,-0E0,1.9135484E-3,-1.1817252E-4,-6.236761E-5,-4.8983766E-6,6.4750304E-5,1.7366605E-4,3.1739817E-4,-0E0,4.1567175E-5,-0E0,9.610064E-5,-6.702736E-6,-9.971589E-5,-7.2912895E-5,-4.337009E-5,-1.774242E-5,1.1483436E-5,4.3473163E-5,4.2466922E-6,8.712102E-6,-0E0,-0E0,1.5904903E-5,-5.026837E-6,-0E0,-3.6502631E-6,-0E0,-2.2175755E-6,-0E0,-1.0509461E-6,-0E0,-0E0,8.0189176E-7,-0E0,2.2636277E-6],"categories":[],"categories_nodes":[],"categories_segments":[],"categories_sizes":[],"default_left":[0,0,0,0,0,0,0,0,0,0,0,0,0,0,0,0,0,0,0,0,0,0,0,0,0,0,0,0,0,0,0,0,0,0,0,0,0,0,0,0,0,0,0,0,0,0,0],"id":1,"left_children":[1,3,5,7,9,11,-1,13,15,17,19,-1,21,23,25,27,29,31,33,-1,-1,-1,-1,-1,35,37,39,41,43,45,-1,-1,-1,-1,-1,-1,-1,-1,-1,-1,-1,-1,-1,-1,-1,-1,-1],"loss_changes":[2.3774367E-2,4.155012E-3,1.1735801E-3,1.171217E-3,1.1081544E-3,1.1148676E-4,0E0,1.9103358E-4,1.7180305E-4,1.334867E-4,2.9638177E-5,0E0,2.7935486E-5,1.3586134E-5,1.7034821E-5,1.8536513E-5,1.2032688E-5,3.3630058E-6,1.4891848E-6,0E0,0E0,0E0,0E0,0E0,9.533775E-6,1.0932563E-6,3.7407517E-6,2.0647913E-6,1.5061823E-6,2.2938948E-6,0E0,0E0,0E0,0E0,0E0,0E0,0E0,0E0,0E0,0E0,0E0,0E0,0E0,0E0,0E0,0E0,0E0],"parents":[2147483647,0,0,1,1,2,2,3,3,4,4,5,5,7,7,8,8,9,9,10,10,12,12,13,13,14,14,15,15,16,16,17,17,18,18,24,24,25,25,26,26,27,27,28,28,29,29],"right_children":[2,4,6,8,10,12,-1,14,16,18,20,-1,22,24,26,28,30,32,34,-1,-1,-1,-1,-1,36,38,40,42,44,46,-1,-1,-1,-1,-1,-1,-1,-1,-1,-1,-1,-1,-1,-1,-1,-1,-1],"split_conditions":[1.4769712E-3,2.7782013E-4,2.7004115E-3,1.150075E-4,7.6100626E-4,2.6490146E-4,1.6443602E-4,5.564033E-5,1.846687E-4,4.1546192E-4,5.489598E-5,-0E0,5.9981725E-5,2.7121483E-5,8.8468245E-5,1.4826121E-4,2.2040139E-4,6.1177835E-4,5.489598E-5,-0E0,4.1567175E-5,-0E0,9.610064E-5,-6.702736E-6,3.558482E-4,1.1260328E-3,1.042133E-4,1.4504849E-4,1.5649095E-4,1.4653862E-4,4.2466922E-6,8.712102E-6,-0E0,-0E0,1.5904903E-5,-5.026837E-6,-0E0,-3.6502631E-6,-0E0,-2.2175755E-6,-0E0,-1.0509461E-6,-0E0,-0E0,8.0189176E-7,-0E0,2.2636277E-6],"split_indices":[17,15,15,15,15,19,0,15,15,15,18,0,18,15,15,17,15,22,18,0,0,0,0,0,18,18,20,15,15,17,0,0,0,0,0,0,0,0,0,0,0,0,0,0,0,0,0],"split_type":[0,0,0,0,0,0,0,0,0,0,0,0,0,0,0,0,0,0,0,0,0,0,0,0,0,0,0,0,0,0,0,0,0,0,0,0,0,0,0,0,0,0,0,0,0,0,0],"sum_hessian":[4.56823E5,4.53398E5,3.425E3,4.12281E5,4.1117E4,1.686E3,1.739E3,2.69233E5,1.43048E5,3.7487E4,3.63E3,3E1,1.656E3,1.26142E5,1.43091E5,8.5121E4,5.7927E4,2.3902E4,1.3585E4,4.2E1,3.588E3,7E0,1.649E3,6.4884E4,6.1258E4,8.8628E4,5.4463E4,5.1134E4,3.3987E4,3.0613E4,2.7314E4,2.3855E4,4.7E1,4.5E1,1.354E4,6.1205E4,5.3E1,8.8609E4,1.9E1,5.3981E4,4.82E2,4.1108E4,1.0026E4,1.0707E4,2.328E4,1.266E3,2.9347E4],"tree_param":{"num_deleted":"0","num_feature":"25","num_nodes":"47","size_leaf_vector":"1"}},{"base_weights":[-0E0,-1.8512752E-5,2.4808692E-3,-5.0075683E-5,2.4613348E-4,1.7753454E-3,1.557992E-4,-8.855916E-5,1.0346357E-5,2.0049872E-4,7.8004994E-4,-0E0,1.7836152E-3,-1.1955717E-4,-6.856482E-5,-1.6389095E-5,4.773592E-5,1.3779454E-4,2.8029468E-4,-0E0,3.9954124E-5,-0E0,1.7879631E-3,-5.9872996E-6,-0E0,-8.13258E-5,-5.4531025E-5,-2.5535008E-5,-0E0,2.6944614E-5,6.496848E-5,6.925802E-6,-0E0,-0E0,1.4044126E-5,-0E0,9.099588E-5,-4.0800583E-6,-0E0,-2.7493863E-6,-0E0,-1.3525814E-6,-0E0,-0E0,1.4401166E-6,-0E0,3.269679E-6],"categories":[],"categories_nodes":[],"categories_segments":[],"categories_sizes":[],"default_left":[0,0,0,0,0,0,0,0,0,0,0,0,0,0,0,0,0,0,0,0,0,0,0,0,0,0,0,0,0,0,0,0,0,0,0,0,0,0,0,0,0,0,0,0,0,0,0],"id":2,"left_children":[1,3,5,7,9,11,-1,13,15,17,19,-1,21,23,25,27,29,31,33,-1,-1,-1,35,-1,-1,37,39,41,-1,43,45,-1,-1,-1,-1,-1,-1,-1,-1,-1,-1,-1,-1,-1,-1,-1,-1],"loss_changes":[2.0878233E-2,3.7659246E-3,1.0140501E-3,9.501064E-4,1.0701704E-3,1.4215708E-5,0E0,1.3524259E-4,1.5974301E-4,1.8006447E-4,2.208585E-5,0E0,9.809155E-6,3.7132995E-6,1.3822631E-5,1.4509109E-5,1.4768462E-5,3.6331767E-6,1.7879065E-6,0E0,0E0,0E0,5.4393895E-6,0E0,0E0,3.0897208E-6,2.7899368E-6,1.0049334E-6,0E0,1.588869E-6,1.0896329E-6,0E0,0E0,0E0,0E0,0E0,0E0,0E0,0E0,0E0,0E0,0E0,0E0,0E0,0E0,0E0,0E0],"parents":[2147483647,0,0,1,1,2,2,3,3,4,4,5,5,7,7,8,8,9,9,10,10,12,12,13,13,14,14,15,15,16,16,17,17,18,18,22,22,25,25,26,26,27,27,29,29,30,30],"right_children":[2,4,6,8,10,12,-1,14,16,18,20,-1,22,24,26,28,30,32,34,-1,-1,-1,36,-1,-1,38,40,42,-1,44,46,-1,-1,-1,-1,-1,-1,-1,-1,-1,-1,-1,-1,-1,-1,-1,-1],"split_conditions":[1.4769712E-3,2.5948684E-4,2.7004115E-3,1.0473942E-4,7.6100626E-4,6.495228E-5,1.557992E-4,4.2310006E-5,1.685354E-4,3.8013194E-4,8.8118606E-5,-0E0,6.6977285E-5,4.755431E-4,7.212737E-5,1.3764667E-4,2.0361395E-4,3.2798637E-4,5.3595602E-5,-0E0,3.9954124E-5,-0E0,3.0954162E5,-5.9872996E-6,-0E0,3.4499587E-4,2.9869794E-4,1.4338485E-4,-0E0,1.4653862E-4,8.7418484E-5,6.925802E-6,-0E0,-0E0,1.4044126E-5,-0E0,9.099588E-5,-4.0800583E-6,-0E0,-2.7493863E-6,-0E0,-1.3525814E-6,-0E0,-0E0,1.4401166E-6,-0E0,3.269679E-6],"split_indices":[17,15,15,15,15,15,0,15,15,15,16,0,20,17,15,17,15,20,17,0,0,0,23,0,0,17,21,15,0,17,17,0,0,0,0,0,0,0,0,0,0,0,0,0,0,0,0],"split_type":[0,0,0,0,0,0,0,0,0,0,0,0,0,0,0,0,0,0,0,0,0,0,0,0,0,0,0,0,0,0,0,0,0,0,0,0,0,0,0,0,0,0,0,0,0,0,0],"sum_hessian":[4.56557E5,4.53191E5,3.366E3,4.05239E5,4.7952E4,1.671E3,1.695E3,2.48574E5,1.56665E5,4.435E4,3.602E3,1.1E1,1.66E3,9.5504E4,1.5307E5,8.9788E4,6.6877E4,2.5538E4,1.8812E4,1.35E2,3.467E3,5E0,1.655E3,9.5462E4,4.2E1,7.6436E4,7.6634E4,5.9239E4,3.0549E4,3.294E4,3.3937E4,2.5462E4,7.6E1,5.6E1,1.8756E4,5.6E1,1.599E3,7.6385E4,5.1E1,7.6289E4,3.45E2,5.4156E4,5.083E3,2.197E3,3.0743E4,1.85E2,3.3752E4],"tree_param":{"num_deleted":"0","num_feature":"25","num_nodes":"47","size_leaf_vector":"1"}},{"base_weights":[-0E0,-1.7585215E-5,2.3661673E-3,-4.3784476E-5,2.6924524E-4,3.1366763E-3,1.8178518E-3,-7.7400895E-5,2.8161203E-5,2.1717286E-4,7.407526E-4,-0E0,1.5754662E-4,-0E0,1.8405574E-3,-1.0571105E-4,-5.2555173E-5,-0E0,6.404123E-5,1.6996214E-4,2.9682997E-4,-0E0,3.7315505E-5,-0E0,9.3480936E-5,-6.0471807E-6,-8.8612964E-5,-6.383406E-5,-3.4720386E-5,-9.793348E-6,1.46618795E-5,4.32484E-5,8.248052E-5,-0E0,8.55068E-6,1.4854198E-5,-0E0,-4.4598664E-6,-0E0,-3.2004446E-6,-0E0,-1.7851513E-6,-0E0,-6.412917E-7,-0E0,-0E0,8.998398E-7,-0E0,2.2331285E-6,4.1465287E-6,-0E0],"categories":[],"categories_nodes":[],"categories_segments":[],"categories_sizes":[],"default_left":[0,0,0,0,0,0,0,0,0,0,0,0,0,0,0,0,0,0,0,0,0,0,0,0,0,0,0,0,0,0,0,0,0,0,0,0,0,0,0,0,0,0,0,0,0,0,0,0,0,0,0],"id":3,"left_children":[1,3,5,7,9,11,13,15,17,19,21,-1,-1,-1,23,25,27,29,31,33,35,-1,-1,-1,-1,-1,37,39,41,43,45,47,49,-1,-1,-1,-1,-1,-1,-1,-1,-1,-1,-1,-1,-1,-1,-1,-1,-1,-1],"loss_changes":[1.8968578E-2,3.3793238E-3,9.196531E-4,1.0089243E-3,8.264601E-4,9.195879E-6,8.840114E-5,1.8384075E-4,1.2692454E-4,8.122716E-5,1.2587756E-5,0E0,0E0,0E0,7.964671E-6,1.3101264E-5,2.093357E-5,1.1191245E-5,9.019583E-6,2.327608E-6,1.172768E-6,0E0,0E0,0E0,0E0,0E0,6.0649472E-6,1.2447126E-6,3.6302372E-6,1.0562012E-6,1.1207217E-6,1.5518308E-6,1.5236146E-6,0E0,0E0,0E0,0E0,0E0,0E0,0E0,0E0,0E0,0E0,0E0,0E0,0E0,0E0,0E0,0E0,0E0,0E0],"parents":[2147483647,0,0,1,1,2,2,3,3,4,4,5,5,6,6,7,7,8,8,9,9,10,10,14,14,15,15,16,16,17,17,18,18,19,19,20,20,26,26,27,27,28,28,29,29,30,30,31,31,32,32],"right_children":[2,4,6,8,10,12,14,16,18,20,22,-1,-1,-1,24,26,28,30,32,34,36,-1,-1,-1,-1,-1,38,40,42,44,46,48,50,-1,-1,-1,-1,-1,-1,-1,-1,-1,-1,-1,-1,-1,-1,-1,-1,-1,-1],"split_conditions":[1.4769712E-3,2.9192443E-4,1.3E1,1.2278011E-4,7.6100626E-4,5.61398E1,2.6490146E-4,5.7530397E-5,1.8990666E-4,4.3079784E-4,3.5174533E-5,-0E0,1.5754662E-4,-0E0,3.0954162E5,2.834202E-5,9.1158356E-5,1.5324332E-4,2.2591543E-4,7.483131E-5,9.0305484E-4,-0E0,3.7315505E-5,-0E0,9.3480936E-5,-6.0471807E-6,2.1908943E-4,3.4909224E-4,1.042133E-4,1.4778523E-4,1.5824183E-4,1.4653862E-4,1.974929E-4,-0E0,8.55068E-6,1.4854198E-5,-0E0,-4.4598664E-6,-0E0,-3.2004446E-6,-0E0,-1.7851513E-6,-0E0,-6.412917E-7,-0E0,-0E0,8.998398E-7,-0E0,2.2331285E-6,4.1465287E-6,-0E0],"split_indices":[17,15,10,15,15,0,19,15,15,15,17,0,0,0,23,15,15,17,15,17,20,0,0,0,0,0,17,19,20,15,15,17,20,0,0,0,0,0,0,0,0,0,0,0,0,0,0,0,0,0,0],"split_type":[0,0,0,0,0,0,0,0,0,0,0,0,0,0,0,0,0,0,0,0,0,0,0,0,0,0,0,0,0,0,0,0,0,0,0,0,0,0,0,0,0,0,0,0,0,0,0,0,0,0,0],"sum_hessian":[4.56052E5,4.5269E5,3.362E3,4.15122E5,3.7568E4,1.32E3,2.042E3,2.83873E5,1.31249E5,3.4024E4,3.544E3,1.1E1,1.309E3,2.4E1,2.018E3,1.30803E5,1.5307E5,7.4923E4,5.6326E4,2.2153E4,1.1871E4,3E1,3.514E3,6E1,1.958E3,6.6079E4,6.4724E4,9.0333E4,6.2737E4,4.1284E4,3.3639E4,2.9024E4,2.7302E4,1.92E2,2.1961E4,1.1864E4,7E0,6.4641E4,8.3E1,9.0144E4,1.89E2,6.2179E4,5.58E2,3.049E4,1.0794E4,7.852E3,2.5787E4,1.031E3,2.7993E4,2.7228E4,7.4E1],"tree_param":{"num_deleted":"0","num_feature":"25","num_nodes":"51","size_leaf_vector":"1"}},{"base_weights":[-0E0,-1.6845419E-5,2.2356326E-3,-4.579898E-5,2.0950139E-4,2.9853885E-3,1.7314816E-3,-7.970211E-5,7.4817813E-6,1.723128E-4,7.0533494E-4,4.0558225E-5,1.565935E-4,-0E0,1.7573453E-3,-5.294129E-6,-5.9776718E-5,-1.436805E-5,4.181188E-5,1.1437285E-4,2.4453603E-4,-0E0,7.116619E-4,-0E0,8.829214E-5,-6.088108E-5,-0E0,-2.3044508E-5,-0E0,2.4036197E-5,2.7059775E-6,-0E0,5.823176E-6,-0E0,2.4689845E-4,-0E0,3.575663E-5,-3.421265E-6,-2.2359188E-6,-1.2153622E-6,-0E0,-0E0,1.3206399E-6,-0E0,1.2358204E-5],"categories":[],"categories_nodes":[],"categories_segments":[],"categories_sizes":[],"default_left":[0,0,0,0,0,0,0,0,0,0,0,0,0,0,0,0,0,0,0,0,0,0,0,0,0,0,0,0,0,0,0,0,0,0,0,0,0,0,0,0,0,0,0,0,0],"id":4,"left_children":[1,3,5,7,9,11,13,15,17,19,21,-1,-1,-1,23,-1,25,27,29,31,33,-1,35,-1,-1,37,-1,39,-1,41,-1,-1,-1,-1,43,-1,-1,-1,-1,-1,-1,-1,-1,-1,-1],"loss_changes":[1.7396888E-2,2.9539492E-3,8.291006E-4,7.338012E-4,8.52705E-4,1.9731931E-5,9.808643E-5,1.12256384E-4,1.19212586E-4,1.6343582E-4,1.5028054E-5,0E0,0E0,0E0,3.531389E-5,0E0,1.4746154E-5,1.3363742E-5,5.784066E-6,6.143382E-6,9.889132E-6,0E0,9.384938E-6,0E0,0E0,5.9074955E-6,0E0,1.6167105E-6,0E0,1.1599932E-6,0E0,0E0,0E0,0E0,1.4916295E-6,0E0,0E0,0E0,0E0,0E0,0E0,0E0,0E0,0E0,0E0],"parents":[2147483647,0,0,1,1,2,2,3,3,4,4,5,5,6,6,7,7,8,8,9,9,10,10,14,14,16,16,17,17,18,18,19,19,20,20,22,22,25,25,27,27,29,29,34,34],"right_children":[2,4,6,8,10,12,14,16,18,20,22,-1,-1,-1,24,-1,26,28,30,32,34,-1,36,-1,-1,38,-1,40,-1,42,-1,-1,-1,-1,44,-1,-1,-1,-1,-1,-1,-1,-1,-1,-1],"split_conditions":[1.4769712E-3,2.497437E-4,1.3E1,1.0279354E-4,7.605992E-4,5.789335E1,2.7533877E-4,4.5995926E-5,1.685354E-4,3.6604E-4,3.8116463E-4,4.0558225E-5,1.565935E-4,-0E0,5.9981725E-5,-5.294129E-6,1.3407897E-4,1.36284E-4,1.931964E-4,1.6704043E-4,2.0014962E-4,-0E0,2.9742101E-5,-0E0,8.829214E-5,8.0462436E-5,-0E0,1.7130429E-4,-0E0,1.4774632E-4,2.7059775E-6,-0E0,5.823176E-6,-0E0,6.363561E-5,-0E0,3.575663E-5,-3.421265E-6,-2.2359188E-6,-1.2153622E-6,-0E0,-0E0,1.3206399E-6,-0E0,1.2358204E-5],"split_indices":[17,17,10,17,17,6,19,18,17,17,19,0,0,0,18,0,20,18,18,19,19,0,18,0,0,18,0,16,0,19,0,0,0,0,18,0,0,0,0,0,0,0,0,0,0],"split_type":[0,0,0,0,0,0,0,0,0,0,0,0,0,0,0,0,0,0,0,0,0,0,0,0,0,0,0,0,0,0,0,0,0,0,0,0,0,0,0,0,0,0,0,0,0],"sum_hessian":[4.5669E5,4.53236E5,3.454E3,4.02227E5,5.1009E4,1.307E3,2.147E3,2.4696E5,1.55267E5,4.7639E4,3.37E3,1.26E2,1.181E3,3.1E1,2.116E3,1.04557E5,1.42403E5,9.31E4,6.2167E4,2.7203E4,2.0436E4,3E1,3.34E3,9E0,2.107E3,1.41262E5,1.141E3,6.1356E4,3.1744E4,2.8759E4,3.3408E4,5.15E2,2.6688E4,2.27E2,2.0209E4,1.4E1,3.326E3,9.2088E4,4.9174E4,5.7883E4,3.473E3,3.28E3,2.5479E4,1.9E1,2.019E4],"tree_param":{"num_deleted":"0","num_feature":"25","num_nodes":"45","size_leaf_vector":"1"}},{"base_weights":[-0E0,-1.5824095E-5,2.1267657E-3,-3.887543E-5,2.493486E-4,1.508711E-3,1.3410265E-4,-7.062185E-5,2.5582614E-5,2.0229825E-4,6.765314E-4,-0E0,7.981588E-5,-9.4587405E-5,-4.633195E-5,-0E0,5.961022E-5,8.086353E-6,2.7927168E-4,-0E0,3.3927325E-5,-5.5737937E-6,-8.073579E-5,-5.5114877E-5,-2.8408283E-5,-5.855858E-7,7.2141114E-7,4.0109444E-5,7.8281555E-5,-0E0,1.4042654E-5,-4.046798E-6,-0E0,-2.766699E-6,-0E0,-1.4941473E-6,-0E0,-0E0,2.139539E-6,-0E0,3.941189E-6],"categories":[],"categories_nodes":[],"categories_segments":[],"categories_sizes":[],"default_left":[0,0,0,0,0,0,0,0,0,0,0,0,0,0,0,0,0,0,0,0,0,0,0,0,0,0,0,0,0,0,0,0,0,0,0,0,0,0,0,0,0],"id":5,"left_children":[1,3,5,7,9,11,-1,13,15,17,19,-1,-1,21,23,25,27,-1,29,-1,-1,-1,31,33,35,-1,-1,37,39,-1,-1,-1,-1,-1,-1,-1,-1,-1,-1,-1,-1],"loss_changes":[1.5419655E-2,2.7466004E-3,7.382585E-4,8.576399E-4,6.328346E-4,7.4661104E-5,0E0,1.4911639E-4,1.18736476E-4,5.740882E-5,4.0745363E-6,0E0,0E0,1.3299868E-5,1.3893034E-5,1.3182051E-5,9.480864E-6,0E0,5.1643E-6,0E0,0E0,0E0,2.335466E-6,1.488108E-6,2.749879E-6,0E0,0E0,3.0371848E-6,1.6170234E-6,0E0,0E0,0E0,0E0,0E0,0E0,0E0,0E0,0E0,0E0,0E0,0E0],"parents":[2147483647,0,0,1,1,2,2,3,3,4,4,5,5,7,7,8,8,9,9,10,10,13,13,14,14,15,15,16,16,18,18,22,22,23,23,24,24,27,27,28,28],"right_children":[2,4,6,8,10,12,-1,14,16,18,20,-1,-1,22,24,26,28,-1,30,-1,-1,-1,32,34,36,-1,-1,38,40,-1,-1,-1,-1,-1,-1,-1,-1,-1,-1,-1,-1],"split_conditions":[1.5281546E-3,3.0011506E-4,2.7004115E-3,1.20053264E-4,7.605992E-4,2.9891243E-4,1.3410265E-4,6.095568E-5,1.8854535E-4,4.450589E-4,2.98486E-4,-0E0,7.981588E-5,2.308926E-5,9.6625605E-5,1.5279066E-4,2.2100213E-4,8.086353E-6,3.6418758E-5,-0E0,3.3927325E-5,-5.5737937E-6,3.662991E-4,3.3971528E-4,1.5669149E-4,-5.855858E-7,7.2141114E-7,1.5176638E-4,1.3674406E-4,-0E0,1.4042654E-5,-4.046798E-6,-0E0,-2.766699E-6,-0E0,-1.4941473E-6,-0E0,-0E0,2.139539E-6,-0E0,3.941189E-6],"split_indices":[15,15,15,17,17,18,0,15,17,15,19,0,0,15,15,15,18,0,18,0,0,0,18,21,18,0,0,19,19,0,0,0,0,0,0,0,0,0,0,0,0],"split_type":[0,0,0,0,0,0,0,0,0,0,0,0,0,0,0,0,0,0,0,0,0,0,0,0,0,0,0,0,0,0,0,0,0,0,0,0,0,0,0,0,0],"sum_hessian":[4.56159E5,4.52776E5,3.383E3,4.16912E5,3.5864E4,1.688E3,1.695E3,2.80375E5,1.36537E5,3.2518E4,3.346E3,1.51E2,1.537E3,1.39056E5,1.41319E5,7.7975E4,5.8562E4,2.2147E4,1.0371E4,1.1E1,3.335E3,5.9403E4,7.9653E4,9.1098E4,5.0221E4,4.2961E4,3.5014E4,3.1266E4,2.7296E4,5.1E1,1.032E4,7.9616E4,3.7E1,9.0864E4,2.34E2,4.8466E4,1.755E3,2.137E3,2.9129E4,1.14E2,2.7182E4],"tree_param":{"num_deleted":"0","num_feature":"25","num_nodes":"41","size_leaf_vector":"1"}},{"base_weights":[4.9965006E-8,-1.50543565E-5,2.0268718E-3,-3.8296104E-5,2.2670887E-4,2.722865E-3,1.5488804E-3,-6.912618E-5,1.8544255E-5,1.8258538E-4,6.426744E-4,4.3199074E-5,1.4408892E-4,-0E0,1.569964E-3,-9.3038354E-5,-4.911955E-5,-2.8357435E-6,5.224834E-5,1.3786615E-4,1.24342105E-5,-0E0,3.286893E-5,-0E0,7.972514E-5,-5.319582E-6,-3.963281E-6,-5.7541547E-5,-3.3878023E-5,-6.9017904E-7,8.762878E-6,3.472271E-5,3.411032E-6,-0E0,6.946365E-6,-2.8964967E-6,-0E0,-1.746679E-6,-0E0,-0E0,6.4651766E-7,-0E0,1.803671E-6],"categories":[],"categories_nodes":[],"categories_segments":[],"categories_sizes":[],"default_left":[0,0,0,0,0,0,0,0,0,0,0,0,0,0,0,0,0,0,0,0,0,0,0,0,0,0,0,0,0,0,0,0,0,0,0,0,0,0,0,0,0,0,0],"id":6,"left_children":[1,3,5,7,9,11,13,15,17,19,21,-1,-1,-1,23,25,27,29,31,33,-1,-1,-1,-1,-1,-1,-1,35,37,-1,39,41,-1,-1,-1,-1,-1,-1,-1,-1,-1,-1,-1],"loss_changes":[1.4173274E-2,2.526428E-3,7.080324E-4,7.2989287E-4,6.395809E-4,9.319745E-6,7.272372E-5,1.1461857E-4,1.0893382E-4,6.711669E-5,1.2662262E-5,0E0,0E0,0E0,4.7395006E-6,3.5692938E-6,9.970681E-6,1.1506356E-5,5.891052E-6,2.1361047E-6,0E0,0E0,0E0,0E0,0E0,0E0,0E0,3.9506995E-6,2.8508002E-6,0E0,1.1237828E-6,1.3387216E-6,0E0,0E0,0E0,0E0,0E0,0E0,0E0,0E0,0E0,0E0,0E0],"parents":[2147483647,0,0,1,1,2,2,3,3,4,4,5,5,6,6,7,7,8,8,9,9,10,10,14,14,15,15,16,16,17,17,18,18,19,19,27,27,28,28,30,30,31,31],"right_children":[2,4,6,8,10,12,14,16,18,20,22,-1,-1,-1,24,26,28,30,32,34,-1,-1,-1,-1,-1,-1,-1,36,38,-1,40,42,-1,-1,-1,-1,-1,-1,-1,-1,-1,-1,-1],"split_conditions":[1.4769712E-3,2.8465095E-4,1.3E1,1.150075E-4,7.6100626E-4,5.8395103E1,2.6490146E-4,5.2950934E-5,1.863192E-4,4.1546192E-4,8.8118606E-5,4.3199074E-5,1.4408892E-4,-0E0,3.0954162E5,2.0941317E-5,8.6983295E-5,1.4653862E-4,2.2312539E-4,7.483131E-5,1.24342105E-5,-0E0,3.286893E-5,-0E0,7.972514E-5,-5.319582E-6,-3.963281E-6,1.1260883E-3,6.6977285E-5,-6.9017904E-7,1.5824183E-4,1.4653862E-4,3.411032E-6,-0E0,6.946365E-6,-2.8964967E-6,-0E0,-1.746679E-6,-0E0,-0E0,6.4651766E-7,-0E0,1.803671E-6],"split_indices":[17,15,10,15,15,6,19,17,15,15,16,0,0,0,23,15,15,17,15,17,0,0,0,0,0,0,0,17,20,0,15,17,0,0,0,0,0,0,0,0,0,0,0],"split_type":[0,0,0,0,0,0,0,0,0,0,0,0,0,0,0,0,0,0,0,0,0,0,0,0,0,0,0,0,0,0,0,0,0,0,0,0,0,0,0,0,0,0,0],"sum_hessian":[4.56397E5,4.52973E5,3.424E3,4.13624E5,3.9349E4,1.307E3,2.117E3,2.6931E5,1.44314E5,3.5794E4,3.555E3,1.53E2,1.154E3,2.7E1,2.09E3,1.20402E5,1.48908E5,8.6486E4,5.7828E4,2.2254E4,1.354E4,1.28E2,3.427E3,6.2E1,2.028E3,5.7442E4,6.296E4,9.1683E4,5.7225E4,4.8883E4,3.7603E4,3.056E4,2.7268E4,2.28E2,2.2026E4,9.1635E4,4.8E1,5.6155E4,1.07E3,1.3612E4,2.3991E4,1.217E3,2.9343E4],"tree_param":{"num_deleted":"0","num_feature":"25","num_nodes":"43","size_leaf_vector":"1"}},{"base_weights":[2.081901E-7,-1.4151219E-5,1.9322257E-3,-3.953979E-5,1.8309362E-4,2.5838867E-3,1.4696963E-3,-7.134227E-5,2.3297807E-6,1.4333404E-4,5.2047474E-4,-0E0,1.3024289E-4,-0E0,7.3988864E-5,-4.727345E-6,-5.6142697E-5,-1.6774073E-5,3.4127905E-5,9.1867776E-5,9.715992E-6,3.5272498E-4,3.5561625E-5,-5.6994253E-5,-0E0,-2.3720806E-5,-0E0,9.0761245E-7,2.3184125E-6,4.6260916E-6,-0E0,-0E0,3.5608877E-4,-3.244242E-6,-2.2532056E-6,-1.2405728E-6,-0E0,1.7853281E-5,-0E0],"categories":[],"categories_nodes":[],"categories_segments":[],"categories_sizes":[],"default_left":[0,0,0,0,0,0,0,0,0,0,0,0,0,0,0,0,0,0,0,0,0,0,0,0,0,0,0,0,0,0,0,0,0,0,0,0,0,0,0],"id":7,"left_children":[1,3,5,7,9,11,13,15,17,19,21,-1,-1,-1,-1,-1,23,25,27,29,-1,31,-1,33,-1,35,-1,-1,-1,-1,-1,-1,37,-1,-1,-1,-1,-1,-1],"loss_changes":[1.284425E-2,2.2524118E-3,6.2046945E-4,5.414945E-4,6.199458E-4,1.5472993E-5,7.399358E-6,6.588048E-5,1.0619168E-4,9.2179806E-5,5.747925E-5,0E0,0E0,0E0,0E0,0E0,1.0360847E-5,1.0500764E-5,6.5510176E-6,2.179353E-6,0E0,2.6119815E-6,0E0,2.2086024E-6,0E0,3.3856813E-6,0E0,0E0,0E0,0E0,0E0,0E0,1.1793745E-6,0E0,0E0,0E0,0E0,0E0,0E0],"parents":[2147483647,0,0,1,1,2,2,3,3,4,4,5,5,6,6,7,7,8,8,9,9,10,10,16,16,17,17,18,18,19,19,21,21,23,23,25,25,32,32],"right_children":[2,4,6,8,10,12,14,16,18,20,22,-1,-1,-1,-1,-1,24,26,28,30,-1,32,-1,34,-1,36,-1,-1,-1,-1,-1,-1,38,-1,-1,-1,-1,-1,-1],"split_conditions":[1.5281546E-3,2.513282E-4,1.3E1,9.492705E-5,5.6286075E-4,5.61398E1,1.8726684E-4,3.9011018E-5,1.6470742E-4,3.4748047E-4,8.7360817E-4,-0E0,1.3024289E-4,-0E0,7.3988864E-5,-4.727345E-6,1.974929E-4,1.3324108E-4,1.9928935E-4,1.974929E-4,9.715992E-6,2.307817E-5,3.5561625E-5,7.094081E-5,-0E0,1.3407897E-4,-0E0,9.0761245E-7,2.3184125E-6,4.6260916E-6,-0E0,-0E0,1.4987518E-3,-3.244242E-6,-2.2532056E-6,-1.2405728E-6,-0E0,1.7853281E-5,-0E0],"split_indices":[15,15,10,15,15,0,21,15,15,15,19,0,0,0,0,0,20,15,15,20,0,16,0,15,0,20,0,0,0,0,0,0,16,0,0,0,0,0,0],"split_type":[0,0,0,0,0,0,0,0,0,0,0,0,0,0,0,0,0,0,0,0,0,0,0,0,0,0,0,0,0,0,0,0,0,0,0,0,0,0,0],"sum_hessian":[4.56063E5,4.52648E5,3.415E3,4.01479E5,5.1169E4,1.326E3,2.089E3,2.29527E5,1.71952E5,4.6041E4,5.128E3,1.9E1,1.307E3,2.5E1,2.064E3,8.8236E4,1.41291E5,1.05453E5,6.6499E4,2.389E4,2.2151E4,3.009E3,2.119E3,1.4029E5,1.001E3,7.1394E4,3.4059E4,3.2393E4,3.4106E4,2.3808E4,8.2E1,3.6E1,2.973E3,7.9393E4,6.0897E4,7.0755E4,6.39E2,2.966E3,7E0],"tree_param":{"num_deleted":"0","num_feature":"25","num_nodes":"39","size_leaf_vector":"1"}},{"base_weights":[1.7045278E-7,-1.345473E-5,1.849138E-3,-3.350336E-5,2.1668468E-4,2.4653273E-3,1.4090866E-3,-6.0050214E-5,2.3452048E-5,1.7500279E-4,5.9491216E-4,-0E0,1.2538517E-4,-0E0,1.4756514E-3,-8.24994E-5,-4.0511524E-5,3.025493E-7,5.0890827E-5,7.101201E-6,2.5382216E-4,-0E0,2.98704E-5,-0E0,1.4794876E-3,-4.714217E-6,-6.832283E-5,-2.3847394E-6,-2.284981E-5,-3.2557324E-7,5.625302E-7,3.470587E-5,6.746269E-5,2.569409E-4,-0E0,-0E0,7.411843E-5,-3.4290551E-6,-0E0,-1.2300657E-6,-0E0,-0E0,1.7975088E-6,-0E0,3.4011853E-6,-0E0,1.2886478E-5],"categories":[],"categories_nodes":[],"categories_segments":[],"categories_sizes":[],"default_left":[0,0,0,0,0,0,0,0,0,0,0,0,0,0,0,0,0,0,0,0,0,0,0,0,0,0,0,0,0,0,0,0,0,0,0,0,0,0,0,0,0,0,0,0,0,0,0],"id":8,"left_children":[1,3,5,7,9,11,13,15,17,19,21,-1,-1,-1,23,25,27,29,31,-1,33,-1,-1,-1,35,-1,37,-1,39,-1,-1,41,43,45,-1,-1,-1,-1,-1,-1,-1,-1,-1,-1,-1,-1,-1],"loss_changes":[1.1687177E-2,2.0729017E-3,5.2938424E-4,6.3463603E-4,4.891916E-4,7.345341E-6,1.0921527E-4,1.1307327E-4,7.8392775E-5,4.5103137E-5,3.119465E-6,0E0,0E0,0E0,1.109438E-5,5.557318E-6,1.2635865E-5,5.941361E-6,5.3874246E-6,0E0,5.570415E-6,0E0,0E0,0E0,1.1622906E-6,0E0,2.0684383E-6,0E0,3.7774098E-6,0E0,0E0,1.2501441E-6,1.3932513E-6,1.0302174E-6,0E0,0E0,0E0,0E0,0E0,0E0,0E0,0E0,0E0,0E0,0E0,0E0,0E0],"parents":[2147483647,0,0,1,1,2,2,3,3,4,4,5,5,6,6,7,7,8,8,9,9,10,10,14,14,15,15,16,16,17,17,18,18,20,20,24,24,26,26,28,28,31,31,32,32,33,33],"right_children":[2,4,6,8,10,12,14,16,18,20,22,-1,-1,-1,24,26,28,30,32,-1,34,-1,-1,-1,36,-1,38,-1,40,-1,-1,42,44,46,-1,-1,-1,-1,-1,-1,-1,-1,-1,-1,-1,-1,-1],"split_conditions":[1.4769712E-3,3.0011506E-4,1.3E1,1.2369838E-4,7.9961214E-4,5.7039803E1,3.558482E-4,5.6853558E-5,1.8990666E-4,4.587954E-4,4.587954E-4,-0E0,1.2538517E-4,-0E0,3.396383E-4,2.9590778E-5,9.771743E-5,1.5324332E-4,2.3141754E-4,7.101201E-6,7.7E1,-0E0,2.98704E-5,-0E0,5.460943E1,-4.714217E-6,3.558482E-4,-2.3847394E-6,1.3407897E-4,-3.2557324E-7,5.625302E-7,1.5156588E-4,8.523878E-5,4.3360363E4,-0E0,-0E0,7.411843E-5,-3.4290551E-6,-0E0,-1.2300657E-6,-0E0,-0E0,1.7975088E-6,-0E0,3.4011853E-6,-0E0,1.2886478E-5],"split_indices":[17,15,10,15,18,0,18,17,15,15,15,0,0,0,19,15,18,17,15,0,10,0,0,0,6,0,18,0,20,0,0,17,17,24,0,0,0,0,0,0,0,0,0,0,0,0,0],"split_type":[0,0,0,0,0,0,0,0,0,0,0,0,0,0,0,0,0,0,0,0,0,0,0,0,0,0,0,0,0,0,0,0,0,0,0,0,0,0,0,0,0,0,0,0,0,0,0],"sum_hessian":[4.56626E5,4.53233E5,3.393E3,4.17314E5,3.5919E4,1.317E3,2.076E3,2.8584E5,1.31474E5,3.2593E4,3.326E3,4.3E1,1.274E3,1.33E2,1.943E3,1.3063E5,1.5521E5,7.3288E4,5.8186E4,2.3875E4,8.718E3,1.9E1,3.307E3,5E0,1.938E3,6.7477E4,6.3153E4,1.06309E5,4.8901E4,3.9543E4,3.3745E4,3.2491E4,2.5695E4,8.592E3,1.26E2,7E0,1.931E3,6.3118E4,3.5E1,4.8427E4,4.74E2,1.243E3,3.1248E4,1.21E2,2.5574E4,3.7E1,8.555E3],"tree_param":{"num_deleted":"0","num_feature":"25","num_nodes":"47","size_leaf_vector":"1"}},{"base_weights":[1.8364508E-7,-1.2800351E-5,1.7548456E-3,-3.2038184E-5,1.9810576E-4,1.1663546E-4,1.3406395E-3,-5.809599E-5,1.8722865E-5,1.5990906E-4,5.590868E-4,-0E0,1.4018266E-3,-7.834308E-5,-3.8940525E-5,-2.9849066E-6,4.4359396E-5,1.21184894E-4,2.1906296E-4,-0E0,2.8136263E-5,-0E0,7.031996E-5,-4.589324E-6,-3.3346478E-6,-4.532749E-5,-2.146211E-5,-6.1437964E-7,2.2566446E-7,2.449072E-5,2.8894535E-6,-0E0,6.184103E-6,-0E0,1.097659E-5,-2.284207E-6,-0E0,-1.1382294E-6,-0E0,-0E0,1.2973807E-6],"categories":[],"categories_nodes":[],"categories_segments":[],"categories_sizes":[],"default_left":[0,0,0,0,0,0,0,0,0,0,0,0,0,0,0,0,0,0,0,0,0,0,0,0,0,0,0,0,0,0,0,0,0,0,0,0,0,0,0,0,0],"id":9,"left_children":[1,3,5,7,9,-1,11,13,15,17,19,-1,21,23,25,27,29,31,33,-1,-1,-1,-1,-1,-1,35,37,-1,-1,39,-1,-1,-1,-1,-1,-1,-1,-1,-1,-1,-1],"loss_changes":[1.0578367E-2,1.8224544E-3,4.4597685E-4,5.53938E-4,4.444375E-4,0E0,6.5767206E-5,9.533792E-5,8.1907885E-5,4.4111395E-5,3.1541567E-6,0E0,1.3107434E-5,4.767615E-6,9.43958E-6,5.9085432E-6,9.431271E-6,6.841641E-6,1.6981503E-6,0E0,0E0,0E0,0E0,0E0,0E0,1.8502906E-6,1.5927708E-6,0E0,0E0,1.2579658E-6,0E0,0E0,0E0,0E0,0E0,0E0,0E0,0E0,0E0,0E0,0E0],"parents":[2147483647,0,0,1,1,2,2,3,3,4,4,6,6,7,7,8,8,9,9,10,10,12,12,13,13,14,14,15,15,16,16,17,17,18,18,25,25,26,26,29,29],"right_children":[2,4,6,8,10,-1,12,14,16,18,20,-1,22,24,26,28,30,32,34,-1,-1,-1,-1,-1,-1,36,38,-1,-1,40,-1,-1,-1,-1,-1,-1,-1,-1,-1,-1,-1],"split_conditions":[1.4769712E-3,2.898195E-4,1.3E1,1.1612785E-4,7.9961214E-4,1.1663546E-4,3.558482E-4,5.749996E-5,1.775015E-4,4.1510948E-4,4.8360025E-4,-0E0,3.396383E-4,2.2120337E-5,9.8220364E-5,1.4063116E-4,2.0556737E-4,1.6041E-4,2.9742101E-5,-0E0,2.8136263E-5,-0E0,7.031996E-5,-4.589324E-6,-3.3346478E-6,1.3407897E-4,1.841718E-4,-6.1437964E-7,2.2566446E-7,1.4992867E-4,2.8894535E-6,-0E0,6.184103E-6,-0E0,1.097659E-5,-2.284207E-6,-0E0,-1.1382294E-6,-0E0,-0E0,1.2973807E-6],"split_indices":[17,17,10,18,18,0,18,17,19,19,19,0,19,19,17,17,18,19,18,0,0,0,0,0,0,20,16,0,0,17,0,0,0,0,0,0,0,0,0,0,0],"split_type":[0,0,0,0,0,0,0,0,0,0,0,0,0,0,0,0,0,0,0,0,0,0,0,0,0,0,0,0,0,0,0,0,0,0,0,0,0,0,0,0,0],"sum_hessian":[4.56671E5,4.53261E5,3.41E3,4.15808E5,3.7453E4,1.321E3,2.089E3,2.76063E5,1.39745E5,3.4121E4,3.332E3,1.45E2,1.944E3,1.31668E5,1.44395E5,7.3559E4,6.6186E4,2.1645E4,1.2476E4,3.3E1,3.299E3,6E0,1.938E3,5.7141E4,7.4527E4,1.0156E5,4.2835E4,3.8781E4,3.4778E4,2.9698E4,3.6488E4,4.18E2,2.1227E4,1.8E1,1.2458E4,1.00867E5,6.93E2,4.1147E4,1.688E3,1.373E3,2.8325E4],"tree_param":{"num_deleted":"0","num_feature":"25","num_nodes":"41","size_leaf_vector":"1"}},{"base_weights":[1.2905586E-7,-1.2195531E-5,1.6769451E-3,-2.9924477E-5,2.0215346E-4,1.1676038E-3,1.05978026E-4,-5.4169526E-5,2.245771E-5,1.6087903E-4,5.2998046E-4,-0E0,1.1987394E-3,-7.18843E-5,-3.371779E-5,5.698637E-7,4.7109646E-5,6.569161E-6,2.2591578E-4,-0E0,5.3658016E-4,-0E0,6.0415954E-5,-4.1968888E-6,-5.8810383E-5,-1.9539423E-6,-1.881937E-5,-2.2809316E-7,5.335387E-7,1.5631276E-6,6.233221E-5,-0E0,1.1389792E-5,-0E0,2.6982132E-5,-2.9720813E-6,-0E0,-9.982003E-7,-0E0,-0E0,3.1452248E-6],"categories":[],"categories_nodes":[],"categories_segments":[],"categories_sizes":[],"default_left":[0,0,0,0,0,0,0,0,0,0,0,0,0,0,0,0,0,0,0,0,0,0,0,0,0,0,0,0,0,0,0,0,0,0,0,0,0,0,0,0,0],"id":10,"left_children":[1,3,5,7,9,11,-1,13,15,17,19,-1,21,23,25,27,29,-1,31,-1,33,-1,-1,-1,35,-1,37,-1,-1,-1,39,-1,-1,-1,-1,-1,-1,-1,-1,-1,-1],"loss_changes":[9.597724E-3,1.7041704E-3,4.3283217E-4,5.350559E-4,3.932193E-4,4.4965884E-5,0E0,9.363354E-5,6.6027875E-5,2.2986846E-5,1.3183802E-5,0E0,2.0019244E-5,9.592972E-6,5.0806557E-6,4.3248738E-6,5.005946E-6,0E0,1.2797245E-6,0E0,1.6640406E-6,0E0,0E0,0E0,5.4178818E-6,0E0,1.6303866E-6,0E0,0E0,0E0,1.2697928E-6,0E0,0E0,0E0,0E0,0E0,0E0,0E0,0E0,0E0,0E0],"parents":[2147483647,0,0,1,1,2,2,3,3,4,4,5,5,7,7,8,8,9,9,10,10,12,12,13,13,14,14,15,15,16,16,18,18,20,20,24,24,26,26,30,30],"right_children":[2,4,6,8,10,12,-1,14,16,18,20,-1,22,24,26,28,30,-1,32,-1,34,-1,-1,-1,36,-1,38,-1,-1,-1,40,-1,-1,-1,-1,-1,-1,-1,-1,-1,-1],"split_conditions":[1.4769712E-3,3.0932826E-4,2.7004115E-3,1.2460846E-4,7.6100626E-4,9.293606E-5,1.05978026E-4,6.495228E-5,1.8990666E-4,4.587954E-4,5.489598E-5,-0E0,2.5075153E-4,3.2853193E-5,1.0315487E-4,1.5824183E-4,2.3141754E-4,6.569161E-6,1.0748771E-4,-0E0,1.8726684E-4,-0E0,6.0415954E-5,-4.1968888E-6,3.662991E-4,-1.9539423E-6,1.042133E-4,-2.2809316E-7,5.335387E-7,1.5631276E-6,8.523878E-5,-0E0,1.1389792E-5,-0E0,2.6982132E-5,-2.9720813E-6,-0E0,-9.982003E-7,-0E0,-0E0,3.1452248E-6],"split_indices":[17,15,15,15,15,18,0,15,15,15,18,0,19,15,18,15,15,0,17,0,21,0,0,0,18,0,20,0,0,0,17,0,0,0,0,0,0,0,0,0,0],"split_type":[0,0,0,0,0,0,0,0,0,0,0,0,0,0,0,0,0,0,0,0,0,0,0,0,0,0,0,0,0,0,0,0,0,0,0,0,0,0,0,0,0],"sum_hessian":[4.56362E5,4.52974E5,3.388E3,4.18802E5,3.4172E4,1.682E3,1.706E3,2.87597E5,1.31205E5,3.0623E4,3.549E3,5.5E1,1.627E3,1.51489E5,1.36108E5,7.1648E4,5.9557E4,2.2128E4,8.495E3,4.1E1,3.508E3,1.2E1,1.615E3,7.4838E4,7.6651E4,9.5154E4,4.0954E4,4.0946E4,3.0702E4,3.24E4,2.7157E4,1.15E2,8.38E3,3.4E1,3.474E3,7.6565E4,8.6E1,4.0483E4,4.71E2,1.71E2,2.6986E4],"tree_param":{"num_deleted":"0","num_feature":"25","num_nodes":"41","size_leaf_vector":"1"}},{"base_weights":[3.373173E-7,-1.1585905E-5,1.5964084E-3,-3.0026307E-5,1.7154419E-4,1.120717E-3,1.0052765E-4,-5.3652722E-5,1.5044129E-5,1.3738194E-4,5.063281E-4,-0E0,5.6301506E-5,-7.27627E-5,-3.810489E-5,-2.736415E-6,3.9032904E-5,8.6069325E-5,8.844061E-6,-0E0,5.1499624E-4,-3.6420083E-6,-0E0,-2.2800502E-6,-2.6775859E-5,-4.9099697E-7,2.1288076E-7,1.1639254E-6,2.5521413E-6,-0E0,4.4727417E-6,-0E0,5.1965093E-4,-1.3757075E-6,-0E0,6.53088E-4,2.9939448E-4,3.3038225E-5,-0E0,-0E0,1.5233471E-5],"categories":[],"categories_nodes":[],"categories_segments":[],"categories_sizes":[],"default_left":[0,0,0,0,0,0,0,0,0,0,0,0,0,0,0,0,0,0,0,0,0,0,0,0,0,0,0,0,0,0,0,0,0,0,0,0,0,0,0,0,0],"id":11,"left_children":[1,3,5,7,9,11,-1,13,15,17,19,-1,-1,21,23,25,27,29,-1,-1,31,-1,-1,-1,33,-1,-1,-1,-1,-1,-1,-1,35,-1,-1,37,39,-1,-1,-1,-1],"loss_changes":[8.840376E-3,1.514851E-3,3.633015E-4,4.4241597E-4,4.0361763E-4,6.560469E-6,0E0,6.962515E-5,6.342464E-5,4.9508642E-5,1.655746E-5,0E0,0E0,1.2837118E-6,5.7270227E-6,4.4264752E-6,4.310881E-6,5.0348317E-6,0E0,0E0,1.019676E-5,0E0,0E0,0E0,1.7254788E-6,0E0,0E0,0E0,0E0,0E0,0E0,0E0,5.6297868E-6,0E0,0E0,1.3063371E-5,3.9269944E-6,0E0,0E0,0E0,0E0],"parents":[2147483647,0,0,1,1,2,2,3,3,4,4,5,5,7,7,8,8,9,9,10,10,13,13,14,14,15,15,16,16,17,17,20,20,24,24,32,32,35,35,36,36],"right_children":[2,4,6,8,10,12,-1,14,16,18,20,-1,-1,22,24,26,28,30,-1,-1,32,-1,-1,-1,34,-1,-1,-1,-1,-1,-1,-1,36,-1,-1,38,40,-1,-1,-1,-1],"split_conditions":[1.5281546E-3,2.7581057E-4,2.7004115E-3,1.1658247E-4,7.605992E-4,7.5273776E-5,1.0052765E-4,5.2883046E-5,1.810874E-4,3.6872135E-4,2.691131E-4,-0E0,5.6301506E-5,1.1260328E-3,8.474015E-5,1.4778523E-4,2.1595908E-4,1.9928935E-4,8.844061E-6,-0E0,5.7362948E-5,-3.6420083E-6,-0E0,-2.2800502E-6,1.5482673E-4,-4.9099697E-7,2.1288076E-7,1.1639254E-6,2.5521413E-6,-0E0,4.4727417E-6,-0E0,2E0,-1.3757075E-6,-0E0,6.62018E5,4.8360025E-4,3.3038225E-5,-0E0,-0E0,1.5233471E-5],"split_indices":[15,17,15,15,17,18,0,15,15,15,19,0,0,18,15,15,15,15,0,0,18,0,0,0,18,0,0,0,0,0,0,0,9,0,0,23,19,0,0,0,0],"split_type":[0,0,0,0,0,0,0,0,0,0,0,0,0,0,0,0,0,0,0,0,0,0,0,0,0,0,0,0,0,0,0,0,0,0,0,0,0,0,0,0,0],"sum_hessian":[4.56212E5,4.52768E5,3.444E3,4.11844E5,4.0924E4,1.717E3,1.727E3,2.71657E5,1.40187E5,3.7407E4,3.517E3,1.1E1,1.706E3,1.18981E5,1.52676E5,7.8118E4,6.2069E4,1.7373E4,2.0034E4,5.5E1,3.462E3,1.1897E5,1.1E1,8.6567E4,6.6109E4,4.5914E4,3.2204E4,3.0452E4,3.1617E4,6.61E2,1.6712E4,2.4E1,3.438E3,6.4888E4,1.221E3,1.857E3,1.581E3,1.844E3,1.3E1,1.2E1,1.569E3],"tree_param":{"num_deleted":"0","num_feature":"25","num_nodes":"41","size_leaf_vector":"1"}},{"base_weights":[2.764553E-7,-1.0791867E-5,1.5062944E-3,-3.1156324E-5,1.4104258E-4,2.0288646E-3,1.1360589E-3,-5.5582284E-5,1.2523869E-6,1.0989344E-4,4.1006794E-4,-0E0,1.0440038E-4,-0E0,5.6906294E-5,-3.733172E-6,-4.4037166E-5,-1.3450479E-5,2.4747038E-5,6.966935E-5,7.578503E-6,2.8778022E-4,5.978447E-4,-2.2400925E-6,-0E0,-1.7740707E-5,-0E0,4.755803E-7,1.5768346E-6,3.5090463E-6,-0E0,-0E0,1.4530715E-5,-0E0,3.0101044E-5,-9.839601E-7,-0E0],"categories":[],"categories_nodes":[],"categories_segments":[],"categories_sizes":[],"default_left":[0,0,0,0,0,0,0,0,0,0,0,0,0,0,0,0,0,0,0,0,0,0,0,0,0,0,0,0,0,0,0,0,0,0,0,0,0],"id":12,"left_children":[1,3,5,7,9,11,13,15,17,19,21,-1,-1,-1,-1,-1,23,25,27,29,-1,31,33,-1,-1,35,-1,-1,-1,-1,-1,-1,-1,-1,-1,-1,-1],"loss_changes":[7.75799E-3,1.3898395E-3,3.3824006E-4,3.2211663E-4,3.9206888E-4,2.320623E-5,3.4042168E-6,3.8767408E-5,5.9913637E-5,5.8051257E-5,2.9891322E-5,0E0,0E0,0E0,0E0,0E0,7.430528E-6,5.5935034E-6,2.941426E-6,1.4890247E-6,0E0,3.4643454E-6,1.7024577E-6,0E0,0E0,1.2336768E-6,0E0,0E0,0E0,0E0,0E0,0E0,0E0,0E0,0E0,0E0,0E0],"parents":[2147483647,0,0,1,1,2,2,3,3,4,4,5,5,6,6,7,7,8,8,9,9,10,10,16,16,17,17,18,18,19,19,21,21,22,22,25,25],"right_children":[2,4,6,8,10,12,14,16,18,20,22,-1,-1,-1,-1,-1,24,26,28,30,-1,32,34,-1,-1,36,-1,-1,-1,-1,-1,-1,-1,-1,-1,-1,-1],"split_conditions":[1.5281546E-3,2.4788317E-4,1.3E1,9.492705E-5,5.6286075E-4,5.7309803E1,2.2389072E-4,3.7327358E-5,1.605892E-4,3.4748047E-4,1.126112E-3,-0E0,1.0440038E-4,-0E0,5.6906294E-5,-3.733172E-6,1.7037669E-4,1.3809642E-4,1.8809039E-4,6.1177835E-4,7.578503E-6,3.1189003E-5,2.307817E-5,-2.2400925E-6,-0E0,1.3585163E-4,-0E0,4.755803E-7,1.5768346E-6,3.5090463E-6,-0E0,-0E0,1.4530715E-5,-0E0,3.0101044E-5,-9.839601E-7,-0E0],"split_indices":[15,15,10,15,15,0,19,15,15,15,15,0,0,0,0,0,19,19,15,22,0,16,16,0,0,15,0,0,0,0,0,0,0,0,0,0,0],"split_type":[0,0,0,0,0,0,0,0,0,0,0,0,0,0,0,0,0,0,0,0,0,0,0,0,0,0,0,0,0,0,0,0,0,0,0,0,0],"sum_hessian":[4.56438E5,4.53043E5,3.395E3,4.00047E5,5.2996E4,1.294E3,2.101E3,2.29877E5,1.7017E5,4.7831E4,5.165E3,6.7E1,1.227E3,5E0,2.096E3,8.3389E4,1.46488E5,1.02051E5,6.8119E4,2.5562E4,2.2269E4,3.452E3,1.713E3,1.45232E5,1.256E3,7.6433E4,2.5618E4,2.554E4,4.2579E4,2.5493E4,6.9E1,2.6E1,3.426E3,1.9E1,1.694E3,6.5302E4,1.1131E4],"tree_param":{"num_deleted":"0","num_feature":"25","num_nodes":"37","size_leaf_vector":"1"}},{"base_weights":[4.1116152E-7,-1.2822715E-5,1.1824055E-3,-3.7884707E-5,7.5519725E-5,1.9196648E-3,8.948799E-4,-5.712688E-5,-1.3701298E-5,4.455736E-5,1.6772473E-4,-0E0,9.964342E-5,5.345576E-4,5.723795E-5,-3.5629607E-6,-4.5876797E-5,-2.2407325E-5,2.9841428E-7,1.4330511E-6,6.627383E-5,1.3057004E-4,2.4420297E-4,-0E0,5.6023564E-4,-2.3031103E-6,-0E0,-2.3111901E-5,-0E0,-8.650095E-8,3.2133255E-7,-0E0,3.3748563E-6,-0E0,6.568522E-6,-0E0,2.4769854E-4,2.81499E-5,-0E0,-1.1997286E-6,-0E0,-0E0,1.2480387E-5],"categories":[],"categories_nodes":[],"categories_segments":[],"categories_sizes":[],"default_left":[0,0,0,0,0,0,0,0,0,0,0,0,0,0,0,0,0,0,0,0,0,0,0,0,0,0,0,0,0,0,0,0,0,0,0,0,0,0,0,0,0,0,0],"id":13,"left_children":[1,3,5,7,9,11,13,15,17,19,21,-1,-1,23,-1,-1,25,27,29,-1,31,33,35,-1,37,-1,-1,39,-1,-1,-1,-1,-1,-1,-1,-1,41,-1,-1,-1,-1,-1,-1],"loss_changes":[7.2518326E-3,9.947503E-4,8.0513675E-4,1.5681243E-4,2.6078708E-4,7.069204E-6,1.7296709E-4,1.9101426E-5,2.1513213E-5,1.6314763E-5,3.0747033E-5,0E0,0E0,2.3529574E-5,0E0,0E0,1.1303637E-6,2.5918634E-6,1.1697723E-6,0E0,2.3619941E-6,1.6760605E-6,7.63376E-6,0E0,2.869696E-6,0E0,0E0,1.5135665E-6,0E0,0E0,0E0,0E0,0E0,0E0,0E0,0E0,3.0641968E-6,0E0,0E0,0E0,0E0,0E0,0E0],"parents":[2147483647,0,0,1,1,2,2,3,3,4,4,5,5,6,6,7,7,8,8,9,9,10,10,13,13,16,16,17,17,18,18,20,20,21,21,22,22,24,24,27,27,36,36],"right_children":[2,4,6,8,10,12,14,16,18,20,22,-1,-1,24,-1,-1,26,28,30,-1,32,34,36,-1,38,-1,-1,40,-1,-1,-1,-1,-1,-1,-1,-1,42,-1,-1,-1,-1,-1,-1],"split_conditions":[1.1260328E-3,1.8155584E-4,1.3E1,7.8760946E-5,3.548928E-4,5.7309803E1,7.7E1,3.6418758E-5,1.2908921E-4,2.4272359E-4,5.02332E-4,-0E0,9.964342E-5,3.4499587E-4,5.723795E-5,-3.5629607E-6,2.8298644E-4,1.042133E-4,1.5157662E-4,1.4330511E-6,1.006539E-4,3.0954162E5,6.0594797E-5,-0E0,7.9971294E5,-2.3031103E-6,-0E0,1.4222243E-4,-0E0,-8.650095E-8,3.2133255E-7,-0E0,3.3748563E-6,-0E0,6.568522E-6,-0E0,1.0794213E-4,2.81499E-5,-0E0,-1.1997286E-6,-0E0,-0E0,1.2480387E-5],"split_indices":[18,17,10,17,17,0,10,18,17,17,17,0,0,17,0,0,18,20,18,0,16,23,18,0,24,0,0,18,0,0,0,0,0,0,0,0,21,0,0,0,0,0,0],"split_type":[0,0,0,0,0,0,0,0,0,0,0,0,0,0,0,0,0,0,0,0,0,0,0,0,0,0,0,0,0,0,0,0,0,0,0,0,0,0,0,0,0,0,0],"sum_hessian":[4.56123E5,4.5099E5,5.133E3,3.52205E5,9.8785E4,1.341E3,3.792E3,1.93837E5,1.58368E5,7.4765E4,2.402E4,9.5E1,1.246E3,1.718E3,2.074E3,8.1971E4,1.11866E5,1.02049E5,5.6319E4,4.5827E4,2.8938E4,1.7048E4,6.972E3,7.9E1,1.639E3,1.115E5,3.66E2,1.00774E5,1.275E3,3.0054E4,2.6265E4,5.21E2,2.8417E4,1.1E2,1.6938E4,7.1E1,6.901E3,1.632E3,7E0,9.6125E4,4.649E3,5.6E1,6.845E3],"tree_param":{"num_deleted":"0","num_feature":"25","num_nodes":"43","size_leaf_vector":"1"}},{"base_weights":[1.9618136E-7,-1.22061765E-5,1.1235436E-3,-3.337209E-5,8.4608015E-5,7.828004E-4,8.699239E-5,-5.4750646E-5,-9.801169E-6,4.9709164E-5,1.6185474E-4,4.832512E-4,4.752395E-5,-3.4121863E-6,-4.4363303E-5,-2.0548923E-5,8.256011E-6,1.5320442E-6,6.4281325E-5,6.2650106E-6,2.3824521E-4,-0E0,2.5494051E-5,-2.2233357E-6,-0E0,-1.2252921E-6,-4.3058057E-7,-0E0,7.593543E-7,3.2381533E-6,-0E0,1.2182404E-5,-0E0],"categories":[],"categories_nodes":[],"categories_segments":[],"categories_sizes":[],"default_left":[0,0,0,0,0,0,0,0,0,0,0,0,0,0,0,0,0,0,0,0,0,0,0,0,0,0,0,0,0,0,0,0,0],"id":14,"left_children":[1,3,5,7,9,11,-1,13,15,17,19,21,-1,-1,23,25,27,-1,29,-1,31,-1,-1,-1,-1,-1,-1,-1,-1,-1,-1,-1,-1],"loss_changes":[6.478798E-3,9.210363E-4,8.1297057E-4,1.8086508E-4,1.9514014E-4,2.5787624E-5,0E0,1.574558E-5,3.597397E-5,6.1110622E-6,3.084872E-5,1.8267776E-5,0E0,0E0,1.0070653E-6,2.1531305E-6,3.5024077E-6,0E0,1.4124089E-6,0E0,9.075797E-6,0E0,0E0,0E0,0E0,0E0,0E0,0E0,0E0,0E0,0E0,0E0,0E0],"parents":[2147483647,0,0,1,1,2,2,3,3,4,4,5,5,7,7,8,8,9,9,10,10,11,11,14,14,15,15,16,16,18,18,20,20],"right_children":[2,4,6,8,10,12,-1,14,16,18,20,22,-1,-1,24,26,28,-1,30,-1,32,-1,-1,-1,-1,-1,-1,-1,-1,-1,-1,-1,-1],"split_conditions":[1.1260328E-3,2.0361395E-4,2.7004115E-3,7.892437E-5,3.5732696E-4,1.3407897E-4,8.699239E-5,3.5174533E-5,1.3764667E-4,2.443431E-4,5.055988E-4,3.4748047E-4,4.752395E-5,-3.4121863E-6,1.4769712E-3,1.182388E-4,1.6727691E-4,1.5320442E-6,1.974929E-4,6.2650106E-6,7.7E1,-0E0,2.5494051E-5,-2.2233357E-6,-0E0,-1.2252921E-6,-4.3058057E-7,-0E0,7.593543E-7,3.2381533E-6,-0E0,1.2182404E-5,-0E0],"split_indices":[18,15,15,15,15,20,0,17,17,15,15,15,0,0,17,15,17,0,20,0,10,0,0,0,0,0,0,0,0,0,0,0,0],"split_type":[0,0,0,0,0,0,0,0,0,0,0,0,0,0,0,0,0,0,0,0,0,0,0,0,0,0,0,0,0,0,0,0,0],"sum_hessian":[4.57046E5,4.51968E5,5.078E3,3.71732E5,8.0236E4,3.376E3,1.702E3,1.92706E5,1.79026E5,5.616E4,2.4076E4,1.427E3,1.949E3,7.9632E4,1.13074E5,1.15699E5,6.3327E4,2.7301E4,2.8859E4,1.7171E4,6.905E3,7.5E1,1.352E3,1.13058E5,1.6E1,8.0603E4,3.5096E4,2.9428E4,3.3899E4,2.8768E4,9.1E1,6.755E3,1.5E2],"tree_param":{"num_deleted":"0","num_feature":"25","num_nodes":"33","size_leaf_vector":"1"}},{"base_weights":[4.0853374E-7,-1.1511772E-5,1.0741288E-3,-3.173815E-5,8.067723E-5,7.508464E-4,8.2974024E-5,-4.9699738E-5,-6.472322E-6,4.746308E-5,1.5447833E-4,-0E0,7.6501485E-4,-3.107957E-6,-3.7877366E-5,-1.5803957E-5,9.357698E-6,1.4126142E-6,6.021113E-5,5.9429085E-6,2.2686807E-4,4.9965543E-4,9.591047E-4,-1.9050524E-6,-0E0,-9.291393E-7,-0E0,-0E0,6.8444535E-7,3.0342446E-6,-0E0,1.1601815E-5,-0E0,2.5200934E-5,-0E0,-0E0,4.8100635E-5],"categories":[],"categories_nodes":[],"categories_segments":[],"categories_sizes":[],"default_left":[0,0,0,0,0,0,0,0,0,0,0,0,0,0,0,0,0,0,0,0,0,0,0,0,0,0,0,0,0,0,0,0,0,0,0,0,0],"id":15,"left_children":[1,3,5,7,9,11,-1,13,15,17,19,-1,21,-1,23,25,27,-1,29,-1,31,33,35,-1,-1,-1,-1,-1,-1,-1,-1,-1,-1,-1,-1,-1,-1],"loss_changes":[5.944994E-3,8.3622045E-4,7.2300294E-4,1.6266224E-4,1.765645E-4,3.669469E-5,0E0,2.1578162E-5,2.3746992E-5,4.938367E-6,2.7231057E-5,0E0,2.5460613E-5,0E0,1.2372329E-6,3.1151721E-6,1.8251235E-6,0E0,1.3795798E-6,0E0,8.534698E-6,3.3233373E-6,3.0634692E-6,0E0,0E0,0E0,0E0,0E0,0E0,0E0,0E0,0E0,0E0,0E0,0E0,0E0,0E0],"parents":[2147483647,0,0,1,1,2,2,3,3,4,4,5,5,7,7,8,8,9,9,10,10,12,12,14,14,15,15,16,16,18,18,20,20,21,21,22,22],"right_children":[2,4,6,8,10,12,-1,14,16,18,20,-1,22,-1,24,26,28,-1,30,-1,32,34,36,-1,-1,-1,-1,-1,-1,-1,-1,-1,-1,-1,-1,-1,-1],"split_conditions":[1.1260328E-3,2.0361395E-4,2.7004115E-3,8.8468245E-5,3.5732696E-4,3.35649E-4,8.2974024E-5,4.476966E-5,1.437505E-4,2.4092112E-4,5.055988E-4,-0E0,5.321E3,-3.107957E-6,2.2048729E-4,1.34529E-4,1.5614291E-4,1.4126142E-6,1.974929E-4,5.9429085E-6,7.7E1,1.062E3,2.7047185E-5,-1.9050524E-6,-0E0,-9.291393E-7,-0E0,-0E0,6.8444535E-7,3.0342446E-6,-0E0,1.1601815E-5,-0E0,2.5200934E-5,-0E0,-0E0,4.8100635E-5],"split_indices":[18,15,15,15,15,21,0,15,18,15,15,0,8,0,19,15,19,0,20,0,10,8,20,0,0,0,0,0,0,0,0,0,0,0,0,0,0],"split_type":[0,0,0,0,0,0,0,0,0,0,0,0,0,0,0,0,0,0,0,0,0,0,0,0,0,0,0,0,0,0,0,0,0,0,0,0,0],"sum_hessian":[4.56182E5,4.51082E5,5.1E3,3.70811E5,8.0271E4,3.397E3,1.703E3,2.1442E5,1.56391E5,5.6293E4,2.3978E4,6.2E1,3.335E3,1.00277E5,1.14143E5,1.02365E5,5.4026E4,2.5585E4,3.0708E4,1.6998E4,6.98E3,1.628E3,1.707E3,1.13659E5,4.84E2,8.306E4,1.9305E4,1.904E4,3.4986E4,3.0605E4,1.03E2,6.831E3,1.49E2,1.613E3,1.5E1,7E0,1.7E3],"tree_param":{"num_deleted":"0","num_feature":"25","num_nodes":"37","size_leaf_vector":"1"}},{"base_weights":[4.568773E-7,-1.0899215E-5,1.0086063E-3,-3.0329737E-5,7.34675E-5,7.1325875E-4,7.69672E-5,-4.83099E-5,-8.010184E-6,4.8020058E-5,1.5612466E-4,-0E0,3.618523E-5,-3.154092E-6,-3.9462895E-5,-1.7601038E-5,5.7889165E-6,3.308855E-5,7.210196E-5,1.157389E-4,1.0242448E-5,-1.9885051E-6,-0E0,-9.563971E-7,-0E0,-0E0,5.7835865E-7,-0E0,1.6937978E-6,-0E0,7.313757E-5,-0E0,5.8596265E-6,3.69189E-6,-0E0],"categories":[],"categories_nodes":[],"categories_segments":[],"categories_sizes":[],"default_left":[0,0,0,0,0,0,0,0,0,0,0,0,0,0,0,0,0,0,0,0,0,0,0,0,0,0,0,0,0,0,0,0,0,0,0],"id":16,"left_children":[1,3,5,7,9,11,-1,13,15,17,19,-1,-1,-1,21,23,25,27,29,31,-1,-1,-1,-1,-1,-1,-1,-1,-1,-1,33,-1,-1,-1,-1],"loss_changes":[5.319949E-3,7.3466037E-4,5.851472E-4,1.4179497E-4,1.5505106E-4,2.8725364E-5,0E0,1.6008591E-5,2.3201828E-5,1.2747652E-5,4.7383364E-6,0E0,0E0,0E0,1.7487037E-6,1.3671015E-6,2.7309502E-6,1.1237316E-6,1.975568E-6,2.1420856E-6,0E0,0E0,0E0,0E0,0E0,0E0,0E0,0E0,0E0,0E0,1.9099025E-6,0E0,0E0,0E0,0E0],"parents":[2147483647,0,0,1,1,2,2,3,3,4,4,5,5,7,7,8,8,9,9,10,10,14,14,15,15,16,16,17,17,18,18,19,19,30,30],"right_children":[2,4,6,8,10,12,-1,14,16,18,20,-1,-1,-1,22,24,26,28,30,32,-1,-1,-1,-1,-1,-1,-1,-1,-1,-1,34,-1,-1,-1,-1],"split_conditions":[1.1260883E-3,1.9784122E-4,2.6478288E-3,8.145613E-5,3.8830648E-4,2.691131E-4,7.69672E-5,3.4050012E-5,1.3334413E-4,2.7056702E-4,4.8360025E-4,-0E0,3.618523E-5,-3.154092E-6,4.243978E-4,1.3477093E-4,1.5680223E-4,1.4774632E-4,1.3674406E-4,1.006539E-4,1.0242448E-5,-1.9885051E-6,-0E0,-9.563971E-7,-0E0,-0E0,5.7835865E-7,-0E0,1.6937978E-6,-0E0,6.1177835E-4,-0E0,5.8596265E-6,3.69189E-6,-0E0],"split_indices":[17,17,19,17,17,19,0,19,19,17,19,0,0,0,21,17,17,19,19,16,0,0,0,0,0,0,0,0,0,0,22,0,0,0,0],"split_type":[0,0,0,0,0,0,0,0,0,0,0,0,0,0,0,0,0,0,0,0,0,0,0,0,0,0,0,0,0,0,0,0,0,0,0],"sum_hessian":[4.55963E5,4.50787E5,5.176E3,3.67365E5,8.3422E4,3.448E3,1.728E3,2.00979E5,1.66386E5,6.4711E4,1.8711E4,4.4E1,3.404E3,7.1045E4,1.29934E5,1.02436E5,6.395E4,4.2509E4,2.2202E4,1.1355E4,7.356E3,1.2904E5,8.94E2,9.0471E4,1.1965E4,2.7523E4,3.6427E4,9.74E2,4.1535E4,2.55E2,2.1947E4,1.24E2,1.1231E4,2.1883E4,6.4E1],"tree_param":{"num_deleted":"0","num_feature":"25","num_nodes":"35","size_leaf_vector":"1"}},{"base_weights":[5.070893E-7,-8.354055E-6,1.1934583E-3,-2.1008404E-5,1.4415519E-4,1.6024486E-3,8.8876E-4,-3.8417373E-5,1.5555317E-5,1.1425892E-4,3.7386676E-4,7.50583E-6,8.5710926E-5,-0E0,9.0377603E-4,-5.0961247E-5,-2.2952632E-5,-0E0,3.13767E-5,4.4750627E-6,7.704076E-6,-0E0,1.886971E-5,-0E0,4.5961286E-5,-3.2101605E-6,-2.1928397E-6,-2.6150014E-5,-5.33024E-7,-2.269788E-7,1.6337957E-7,8.9822544E-7,2.0329044E-6,-1.3212858E-6,-0E0],"categories":[],"categories_nodes":[],"categories_segments":[],"categories_sizes":[],"default_left":[0,0,0,0,0,0,0,0,0,0,0,0,0,0,0,0,0,0,0,0,0,0,0,0,0,0,0,0,0,0,0,0,0,0,0],"id":17,"left_children":[1,3,5,7,9,11,13,15,17,19,21,-1,-1,-1,23,25,27,29,31,-1,-1,-1,-1,-1,-1,-1,-1,33,-1,-1,-1,-1,-1,-1,-1],"loss_changes":[4.93689E-3,8.6072145E-4,1.786421E-4,2.6856153E-4,1.8501119E-4,2.9041665E-5,3.1634467E-5,4.7940877E-5,3.392834E-5,5.717069E-6,4.1006715E-6,0E0,0E0,0E0,9.714975E-6,3.6717975E-6,1.479908E-6,1.0253824E-6,2.4985857E-6,0E0,0E0,0E0,0E0,0E0,0E0,0E0,0E0,1.1690936E-6,0E0,0E0,0E0,0E0,0E0,0E0,0E0],"parents":[2147483647,0,0,1,1,2,2,3,3,4,4,5,5,6,6,7,7,8,8,9,9,10,10,14,14,15,15,16,16,17,17,18,18,27,27],"right_children":[2,4,6,8,10,12,14,16,18,20,22,-1,-1,-1,24,26,28,30,32,-1,-1,-1,-1,-1,-1,-1,-1,34,-1,-1,-1,-1,-1,-1,-1],"split_conditions":[1.4769712E-3,3.0932826E-4,1.3E1,1.228631E-4,7.6100626E-4,2.7004115E-3,2.7533877E-4,6.6015E-5,1.810874E-4,4.450589E-4,3.5174533E-5,7.50583E-6,8.5710926E-5,-0E0,3.0954162E5,1.5194085E-5,1.0913255E-4,1.4334256E-4,2.1812355E-4,4.4750627E-6,7.704076E-6,-0E0,1.886971E-5,-0E0,4.5961286E-5,-3.2101605E-6,-2.1928397E-6,2.9869794E-4,-5.33024E-7,-2.269788E-7,1.6337957E-7,8.9822544E-7,2.0329044E-6,-1.3212858E-6,-0E0],"split_indices":[17,15,10,17,15,15,19,15,15,15,17,0,0,0,23,19,15,19,15,0,0,0,0,0,0,0,0,21,0,0,0,0,0,0,0],"split_type":[0,0,0,0,0,0,0,0,0,0,0,0,0,0,0,0,0,0,0,0,0,0,0,0,0,0,0,0,0,0,0,0,0,0,0],"sum_hessian":[4.55813E5,4.5237E5,3.443E3,4.18317E5,3.4053E4,1.328E3,2.115E3,2.85241E5,1.33076E5,3.0518E4,3.535E3,1.59E2,1.169E3,3.1E1,2.084E3,1.53922E5,1.31319E5,6.5907E4,6.7169E4,2.0369E4,1.0149E4,3.7E1,3.498E3,5.8E1,2.026E3,4.8828E4,1.05094E5,9.7755E4,3.3564E4,3.239E4,3.3517E4,3.1879E4,3.529E4,9.74E4,3.55E2],"tree_param":{"num_deleted":"0","num_feature":"25","num_nodes":"35","size_leaf_vector":"1"}},{"base_weights":[5.035617E-7,-9.83638E-6,9.281686E-4,-2.7555063E-5,6.8786474E-5,6.4600364E-4,7.106792E-5,-4.488344E-5,-8.16709E-6,3.747779E-5,1.2728096E-4,-0E0,6.631789E-4,-2.954008E-6,-1.8926851E-6,-1.6616554E-5,6.5640334E-6,1.8913291E-6,-0E0,4.970309E-6,1.9456781E-4,2.1384083E-5,4.1462536E-5,-9.0402676E-7,-0E0,-0E0,5.649682E-7,9.96005E-6,-0E0],"categories":[],"categories_nodes":[],"categories_segments":[],"categories_sizes":[],"default_left":[0,0,0,0,0,0,0,0,0,0,0,0,0,0,0,0,0,0,0,0,0,0,0,0,0,0,0,0,0],"id":18,"left_children":[1,3,5,7,9,11,-1,13,15,17,19,-1,21,-1,-1,23,25,-1,-1,-1,27,-1,-1,-1,-1,-1,-1,-1,-1],"loss_changes":[4.46992E-3,6.2457204E-4,5.073538E-4,1.1877614E-4,1.336234E-4,3.200816E-5,0E0,9.495852E-6,2.3040553E-5,1.1825832E-6,2.2089283E-5,0E0,2.935063E-6,0E0,0E0,1.605913E-6,1.9725862E-6,0E0,0E0,0E0,6.8437366E-6,0E0,0E0,0E0,0E0,0E0,0E0,0E0,0E0],"parents":[2147483647,0,0,1,1,2,2,3,3,4,4,5,5,7,7,8,8,9,9,10,10,12,12,15,15,16,16,20,20],"right_children":[2,4,6,8,10,12,-1,14,16,18,20,-1,22,-1,-1,24,26,-1,-1,-1,28,-1,-1,-1,-1,-1,-1,-1,-1],"split_conditions":[1.1260328E-3,2.0127797E-4,2.7004115E-3,7.892437E-5,3.3863584E-4,3.852128E-4,7.106792E-5,2.4995941E-5,1.3917926E-4,3.2798637E-4,5.055988E-4,-0E0,1.1453162E5,-2.954008E-6,-1.8926851E-6,1.3351288E-4,1.6321287E-4,1.8913291E-6,-0E0,4.970309E-6,7.7E1,2.1384083E-5,4.1462536E-5,-9.0402676E-7,-0E0,-0E0,5.649682E-7,9.96005E-6,-0E0],"split_indices":[18,15,15,15,15,21,0,19,17,20,15,0,23,0,0,18,17,0,0,0,10,0,0,0,0,0,0,0,0],"split_type":[0,0,0,0,0,0,0,0,0,0,0,0,0,0,0,0,0,0,0,0,0,0,0,0,0,0,0,0,0],"sum_hessian":[4.56429E5,4.51292E5,5.137E3,3.69331E5,8.1961E4,3.398E3,1.739E3,1.923E5,1.77031E5,5.4501E4,2.746E4,1.01E2,3.297E3,5.8972E4,1.33328E5,1.16816E5,6.0215E4,5.4327E4,1.74E2,2.0469E4,6.991E3,1.614E3,1.683E3,1.03577E5,1.3239E4,2.4445E4,3.577E4,6.842E3,1.49E2],"tree_param":{"num_deleted":"0","num_feature":"25","num_nodes":"29","size_leaf_vector":"1"}},{"base_weights":[2.237976E-7,-9.485445E-6,8.8387675E-4,-2.8084418E-5,5.4769025E-5,1.4482233E-3,6.581739E-4,-4.378291E-5,-1.135965E-5,3.0025814E-5,1.12417605E-4,4.5168595E-6,7.764628E-5,3.8595364E-4,8.371498E-4,-2.8112263E-6,-1.850129E-6,-1.778986E-5,-0E0,8.7754654E-7,3.9595758E-5,8.797539E-5,8.087934E-6,2.0254847E-5,-0E0,-0E0,4.28499E-5,-9.831491E-7,-8.864016E-8,-0E0,2.0309894E-6,-0E0,4.4568465E-6],"categories":[],"categories_nodes":[],"categories_segments":[],"categories_sizes":[],"default_left":[0,0,0,0,0,0,0,0,0,0,0,0,0,0,0,0,0,0,0,0,0,0,0,0,0,0,0,0,0,0,0,0,0],"id":19,"left_children":[1,3,5,7,9,11,13,15,17,19,21,-1,-1,23,25,-1,-1,27,-1,-1,29,31,-1,-1,-1,-1,-1,-1,-1,-1,-1,-1,-1],"loss_changes":[4.001444E-3,5.364625E-4,4.3419655E-4,8.665916E-5,1.2848325E-4,2.3344532E-5,6.0069724E-5,5.6914287E-6,1.425202E-5,2.7881251E-6,9.788695E-6,0E0,0E0,9.992189E-6,4.6999194E-6,0E0,0E0,1.3245481E-6,0E0,0E0,1.2090859E-6,2.553963E-6,0E0,0E0,0E0,0E0,0E0,0E0,0E0,0E0,0E0,0E0,0E0],"parents":[2147483647,0,0,1,1,2,2,3,3,4,4,5,5,6,6,7,7,8,8,9,9,10,10,13,13,14,14,17,17,20,20,21,21],"right_children":[2,4,6,8,10,12,14,16,18,20,22,-1,-1,24,26,-1,-1,28,-1,-1,30,32,-1,-1,-1,-1,-1,-1,-1,-1,-1,-1,-1],"split_conditions":[1.1260328E-3,1.7723542E-4,1.3E1,7.236945E-5,3.235943E-4,5.8395103E1,7.7E1,2.358356E-5,1.2495148E-4,2.1859905E-4,4.596011E-4,4.5168595E-6,7.764628E-5,1.062E3,5.5199913E1,-2.8112263E-6,-1.850129E-6,1.2342245E-4,-0E0,8.7754654E-7,1.445172E-4,4.0112775E5,8.087934E-6,2.0254847E-5,-0E0,-0E0,4.28499E-5,-9.831491E-7,-8.864016E-8,-0E0,2.0309894E-6,-0E0,4.4568465E-6],"split_indices":[18,18,10,18,21,6,10,21,21,18,18,0,0,8,6,0,0,18,0,0,21,23,0,0,0,0,0,0,0,0,0,0,0],"split_type":[0,0,0,0,0,0,0,0,0,0,0,0,0,0,0,0,0,0,0,0,0,0,0,0,0,0,0,0,0,0,0,0,0],"sum_hessian":[4.56197E5,4.51128E5,5.069E3,3.51066E5,1.00062E5,1.32E3,3.749E3,1.78004E5,1.73062E5,7.1227E4,2.8835E4,1.63E2,1.157E3,1.71E3,2.039E3,5.7584E4,1.2042E5,1.15597E5,5.7465E4,3.5458E4,3.5769E4,2.064E4,8.195E3,1.613E3,9.7E1,8.7E1,1.952E3,9.7904E4,1.7693E4,1.048E3,3.4721E4,2.13E2,2.0427E4],"tree_param":{"num_deleted":"0","num_feature":"25","num_nodes":"33","size_leaf_vector":"1"}},{"base_weights":[5.4230844E-7,-8.871735E-6,8.416419E-4,-2.3187227E-5,7.218799E-5,5.917802E-4,6.395156E-5,-3.683839E-5,-0E0,4.7555608E-5,1.3683233E-4,-0E0,3.0323887E-5,-2.390555E-6,-1.3444669E-6,-8.279814E-6,6.11166E-7,1.6069051E-6,3.2590692E-6,1.3817227E-4,-0E0,-5.184397E-7,-0E0,5.216523E-6,1.9670854E-4,-0E0,1.9770993E-4,9.924569E-6,-0E0],"categories":[],"categories_nodes":[],"categories_segments":[],"categories_sizes":[],"default_left":[0,0,0,0,0,0,0,0,0,0,0,0,0,0,0,0,0,0,0,0,0,0,0,0,0,0,0,0,0],"id":20,"left_children":[1,3,5,7,9,11,-1,13,15,17,19,-1,-1,-1,-1,21,-1,-1,-1,23,-1,-1,-1,-1,25,-1,27,-1,-1],"loss_changes":[3.6990433E-3,5.18993E-4,3.773931E-4,1.2103416E-4,8.778952E-5,2.746249E-5,0E0,1.8906081E-5,1.4405659E-5,3.6983402E-6,3.6973215E-6,0E0,0E0,0E0,0E0,1.5269643E-6,0E0,0E0,0E0,3.8433063E-6,0E0,0E0,0E0,0E0,1.114895E-6,0E0,1.0897347E-6,0E0,0E0],"parents":[2147483647,0,0,1,1,2,2,3,3,4,4,5,5,7,7,8,8,9,9,10,10,15,15,19,19,24,24,26,26],"right_children":[2,4,6,8,10,12,-1,14,16,18,20,-1,-1,-1,-1,22,-1,-1,-1,24,-1,-1,-1,-1,26,-1,28,-1,-1],"split_conditions":[1.1260328E-3,2.2040139E-4,2.7004115E-3,9.996774E-5,4.0287213E-4,2.3515166E-4,6.395156E-5,4.9269103E-5,1.5649095E-4,2.8212805E-4,7.7E1,-0E0,3.0323887E-5,-2.390555E-6,-1.3444669E-6,1.4506237E-4,6.11166E-7,1.6069051E-6,3.2590692E-6,5.387091E-4,-0E0,-5.184397E-7,-0E0,5.216523E-6,8.074445E-5,-0E0,1.4987518E-3,9.924569E-6,-0E0],"split_indices":[18,15,15,17,15,19,0,15,15,17,10,0,0,0,0,19,0,0,0,15,0,0,0,0,17,0,16,0,0],"split_type":[0,0,0,0,0,0,0,0,0,0,0,0,0,0,0,0,0,0,0,0,0,0,0,0,0,0,0,0,0],"sum_hessian":[4.56641E5,4.5147E5,5.171E3,3.84755E5,6.6715E4,3.438E3,1.733E3,2.41621E5,1.43134E5,4.9429E4,1.7286E4,9E1,3.348E3,1.10118E5,1.31503E5,8.633E4,5.6804E4,2.9394E4,2.0035E4,1.7146E4,1.4E2,6.9251E4,1.7079E4,1.1949E4,5.197E3,2.4E1,5.173E3,5.16E3,1.3E1],"tree_param":{"num_deleted":"0","num_feature":"25","num_nodes":"29","size_leaf_vector":"1"}},{"base_weights":[4.4280466E-7,-6.6961284E-6,9.766906E-4,-1.8773844E-5,1.01926635E-4,1.3217033E-3,7.1334536E-4,-3.401155E-5,5.4912566E-6,7.7463155E-5,2.66691E-4,1.1446606E-5,7.307446E-5,-0E0,7.2547357E-4,-2.2528934E-6,-2.4362787E-5,-4.2603997E-6,1.0372386E-6,2.086177E-6,4.6328028E-6,-0E0,2.6814366E-4,-0E0,7.374856E-4,-1.2369325E-6,-0E0,-4.1109774E-7,-0E0,-0E0,1.3533718E-5,-0E0,7.5785356E-4,-0E0,7.65517E-4,-0E0,3.859529E-5],"categories":[],"categories_nodes":[],"categories_segments":[],"categories_sizes":[],"default_left":[0,0,0,0,0,0,0,0,0,0,0,0,0,0,0,0,0,0,0,0,0,0,0,0,0,0,0,0,0,0,0,0,0,0,0,0,0],"id":21,"left_children":[1,3,5,7,9,11,13,15,17,19,21,-1,-1,-1,23,-1,25,27,-1,-1,-1,-1,29,-1,31,-1,-1,-1,-1,-1,-1,-1,33,-1,35,-1,-1],"loss_changes":[3.274034E-3,5.852572E-4,1.0546716E-4,1.5370872E-4,1.4470876E-4,3.0883588E-5,1.9294792E-5,2.0038598E-5,2.4682155E-5,7.859053E-6,2.47141E-6,0E0,0E0,0E0,4.2520696E-6,0E0,2.2041422E-6,2.273091E-6,0E0,0E0,0E0,0E0,1.2959354E-6,0E0,1.4564721E-6,0E0,0E0,0E0,0E0,0E0,0E0,0E0,1.52073335E-5,0E0,6.6768844E-6,0E0,0E0],"parents":[2147483647,0,0,1,1,2,2,3,3,4,4,5,5,6,6,7,7,8,8,9,9,10,10,14,14,16,16,17,17,22,22,24,24,32,32,34,34],"right_children":[2,4,6,8,10,12,14,16,18,20,22,-1,-1,-1,24,-1,26,28,-1,-1,-1,-1,30,-1,32,-1,-1,-1,-1,-1,-1,-1,34,-1,36,-1,-1],"split_conditions":[1.4769712E-3,2.6769564E-4,1.3E1,1.07544685E-4,5.6286075E-4,5.9775654E1,2.8414986E-4,5.014666E-5,1.7229748E-4,3.2880978E-4,2.5555228E-5,1.1446606E-5,7.307446E-5,-0E0,3.0954162E5,-2.2528934E-6,6.1177835E-4,1.4338485E-4,1.0372386E-6,2.086177E-6,4.6328028E-6,-0E0,1.9634125E-4,-0E0,6.02798E1,-1.2369325E-6,-0E0,-4.1109774E-7,-0E0,-0E0,1.3533718E-5,-0E0,3.396383E-4,-0E0,3.7E1,-0E0,3.859529E-5],"split_indices":[17,15,10,15,15,6,19,17,17,15,17,0,0,0,23,0,22,15,0,0,0,0,21,0,0,0,0,0,0,0,0,0,19,0,10,0,0],"split_type":[0,0,0,0,0,0,0,0,0,0,0,0,0,0,0,0,0,0,0,0,0,0,0,0,0,0,0,0,0,0,0,0,0,0,0,0,0],"sum_hessian":[4.55855E5,4.52445E5,3.41E3,4.08001E5,4.4444E4,1.31E3,2.1E3,2.53151E5,1.5485E5,3.9228E4,5.216E3,2.3E2,1.08E3,3.3E1,2.067E3,1.13194E5,1.39957E5,9.0462E4,6.4388E4,1.3666E4,2.5562E4,2.2E1,5.194E3,5.9E1,2.008E3,1.39338E5,6.19E2,5.7914E4,3.2548E4,7.9E1,5.115E3,1.04E2,1.904E3,1.2E1,1.892E3,2E1,1.872E3],"tree_param":{"num_deleted":"0","num_feature":"25","num_nodes":"37","size_leaf_vector":"1"}},{"base_weights":[4.601646E-7,-7.96536E-6,7.655613E-4,-2.0585594E-5,6.7819645E-5,5.394153E-4,1.184378E-3,-3.2905773E-5,5.1177295E-7,4.455863E-5,1.2389771E-4,-0E0,2.7624661E-5,-0E0,5.935205E-5,-2.0486732E-6,-1.0726393E-6,-6.509374E-6,1.1824123E-5,2.2454162E-6,-0E0,6.250931E-6,-0E0,-4.5476546E-7,-0E0,-0E0,7.3273026E-7],"categories":[],"categories_nodes":[],"categories_segments":[],"categories_sizes":[],"default_left":[0,0,0,0,0,0,0,0,0,0,0,0,0,0,0,0,0,0,0,0,0,0,0,0,0,0,0],"id":22,"left_children":[1,3,5,7,9,11,13,15,17,19,21,-1,-1,-1,-1,-1,-1,23,25,-1,-1,-1,-1,-1,-1,-1,-1],"loss_changes":[3.016971E-3,4.2677752E-4,3.0992716E-4,1.0406005E-4,6.568554E-5,2.3881788E-5,3.2603275E-6,1.6659935E-5,1.16521E-5,1.0918084E-6,2.4015026E-6,0E0,0E0,0E0,0E0,0E0,0E0,1.3934289E-6,1.4724646E-6,0E0,0E0,0E0,0E0,0E0,0E0,0E0,0E0],"parents":[2147483647,0,0,1,1,2,2,3,3,4,4,5,5,6,6,7,7,8,8,9,9,10,10,17,17,18,18],"right_children":[2,4,6,8,10,12,14,16,18,20,22,-1,-1,-1,-1,-1,-1,24,26,-1,-1,-1,-1,-1,-1,-1,-1],"split_conditions":[1.1260328E-3,2.2591543E-4,6.1177835E-4,1.0378565E-4,4.0287213E-4,8.4412255E-4,1.6704043E-4,6.1598774E-5,1.5862405E-4,1.834215E-4,7.7E1,-0E0,2.7624661E-5,-0E0,5.935205E-5,-2.0486732E-6,-1.0726393E-6,1.3882412E-4,1.6114436E-4,2.2454162E-6,-0E0,6.250931E-6,-0E0,-4.5476546E-7,-0E0,-0E0,7.3273026E-7],"split_indices":[18,15,22,17,15,21,19,15,17,22,10,0,0,0,0,0,0,15,19,0,0,0,0,0,0,0,0],"split_type":[0,0,0,0,0,0,0,0,0,0,0,0,0,0,0,0,0,0,0,0,0,0,0,0,0,0,0],"sum_hessian":[4.56256E5,4.51158E5,5.098E3,3.87885E5,6.3273E4,3.467E3,1.631E3,2.47874E5,1.40011E5,4.5984E4,1.7289E4,8.4E1,3.383E3,5E0,1.626E3,1.40306E5,1.07568E5,8.0937E4,5.9074E4,4.5812E4,1.72E2,1.7134E4,1.55E2,5.83E4,2.2637E4,1.376E4,4.5314E4],"tree_param":{"num_deleted":"0","num_feature":"25","num_nodes":"27","size_leaf_vector":"1"}},{"base_weights":[4.906304E-7,-6.0952216E-6,9.014117E-4,-1.7731512E-5,8.677432E-5,1.2015108E-3,6.6195976E-4,-3.1913612E-5,2.143857E-6,6.610279E-5,2.4136833E-4,-0E0,1.2590114E-3,-0E0,6.7137193E-4,-2.0596008E-6,-2.310332E-5,-6.4854316E-6,1.538846E-5,1.8621553E-6,4.1744615E-6,-0E0,1.2199357E-5,-0E0,6.419227E-5,-0E0,6.7573524E-4,-1.1713308E-6,-0E0,-4.4870194E-7,-0E0,-0E0,8.783133E-7,-0E0,3.4388184E-5],"categories":[],"categories_nodes":[],"categories_segments":[],"categories_sizes":[],"default_left":[0,0,0,0,0,0,0,0,0,0,0,0,0,0,0,0,0,0,0,0,0,0,0,0,0,0,0,0,0,0,0,0,0,0,0],"id":23,"left_children":[1,3,5,7,9,11,13,15,17,19,21,-1,23,-1,25,-1,27,29,31,-1,-1,-1,-1,-1,-1,-1,33,-1,-1,-1,-1,-1,-1,-1,-1],"loss_changes":[2.7988749E-3,4.828586E-4,5.8904057E-5,1.16770345E-4,1.2744303E-4,1.4232937E-5,1.4985155E-5,1.3068275E-5,1.9768271E-5,1.0121323E-5,4.255213E-6,0E0,3.0596275E-6,0E0,8.496456E-6,0E0,1.6262638E-6,1.7235152E-6,1.131144E-6,0E0,0E0,0E0,0E0,0E0,0E0,0E0,3.969122E-6,0E0,0E0,0E0,0E0,0E0,0E0,0E0,0E0],"parents":[2147483647,0,0,1,1,2,2,3,3,4,4,5,5,6,6,7,7,8,8,9,9,10,10,12,12,14,14,16,16,17,17,18,18,26,26],"right_children":[2,4,6,8,10,12,14,16,18,20,22,-1,24,-1,26,-1,28,30,32,-1,-1,-1,-1,-1,-1,-1,34,-1,-1,-1,-1,-1,-1,-1,-1],"split_conditions":[1.4769712E-3,2.5533317E-4,1.3E1,9.912546E-5,5.6286075E-4,2.0532402E6,2.6490146E-4,4.888505E-5,1.6113927E-4,3.2880978E-4,3.6418758E-5,-0E0,5.7309803E1,-0E0,5.9981725E-5,-2.0596008E-6,6.1177835E-4,1.3920963E-4,1.7185921E-4,1.8621553E-6,4.1744615E-6,-0E0,1.2199357E-5,-0E0,6.419227E-5,-0E0,3.0954162E5,-1.1713308E-6,-0E0,-4.4870194E-7,-0E0,-0E0,8.783133E-7,-0E0,3.4388184E-5],"split_indices":[17,15,10,15,15,23,19,18,17,15,18,0,0,0,18,0,22,18,15,0,0,0,0,0,0,0,23,0,0,0,0,0,0,0,0],"split_type":[0,0,0,0,0,0,0,0,0,0,0,0,0,0,0,0,0,0,0,0,0,0,0,0,0,0,0,0,0,0,0,0,0,0,0],"sum_hessian":[4.56629E5,4.53206E5,3.423E3,4.03701E5,4.9505E4,1.332E3,2.091E3,2.38529E5,1.65172E5,4.4238E4,5.267E3,1.1E2,1.222E3,2.5E1,2.066E3,1.10648E5,1.27881E5,9.544E4,6.9732E4,1.8795E4,2.5443E4,4.1E1,5.226E3,4.5E1,1.177E3,8E0,2.058E3,1.27339E5,5.42E2,7.1247E4,2.4193E4,1.2553E4,5.7179E4,6.3E1,1.995E3],"tree_param":{"num_deleted":"0","num_feature":"25","num_nodes":"35","size_leaf_vector":"1"}},{"base_weights":[5.6140277E-7,-5.684883E-6,8.5736386E-4,-1.6755535E-5,8.2272076E-5,-0E0,8.9217053E-4,-2.9246059E-5,3.9466327E-6,5.985685E-5,2.0540315E-4,-0E0,8.9526107E-4,-1.8307492E-6,-9.136182E-7,-3.2989017E-6,1.6680877E-5,1.6618517E-6,3.6807076E-6,-0E0,2.117332E-4,-0E0,4.509631E-5,-3.527572E-7,-0E0,-0E0,8.920333E-7,7.3209703E-6,1.7434095E-5],"categories":[],"categories_nodes":[],"categories_segments":[],"categories_sizes":[],"default_left":[0,0,0,0,0,0,0,0,0,0,0,0,0,0,0,0,0,0,0,0,0,0,0,0,0,0,0,0,0],"id":24,"left_children":[1,3,5,7,9,-1,11,13,15,17,19,-1,21,-1,-1,23,25,-1,-1,-1,27,-1,-1,-1,-1,-1,-1,-1,-1],"loss_changes":[2.5299278E-3,4.3493023E-4,6.351806E-5,1.0692201E-4,1.10567984E-4,0E0,5.074078E-6,1.5115322E-5,1.5077274E-5,4.9550436E-6,8.343661E-6,0E0,4.452886E-6,0E0,0E0,1.8164386E-6,1.1888915E-6,0E0,0E0,0E0,1.0716729E-5,0E0,0E0,0E0,0E0,0E0,0E0,0E0,0E0],"parents":[2147483647,0,0,1,1,2,2,3,3,4,4,6,6,7,7,8,8,9,9,10,10,12,12,15,15,16,16,20,20],"right_children":[2,4,6,8,10,-1,12,14,16,18,20,-1,22,-1,-1,24,26,-1,-1,-1,28,-1,-1,-1,-1,-1,-1,-1,-1],"split_conditions":[1.4277941E-3,2.5533317E-4,9.3731695E-5,1.0748771E-4,5.387091E-4,-0E0,3.5021803E-4,6.397215E-5,1.7412535E-4,3.1829093E-4,1.0526431E-4,-0E0,5.33498E1,-1.8307492E-6,-9.136182E-7,1.4182052E-4,1.5050595E-4,1.6618517E-6,3.6807076E-6,-0E0,1.126112E-3,-0E0,4.509631E-5,-3.527572E-7,-0E0,-0E0,8.920333E-7,7.3209703E-6,1.7434095E-5],"split_indices":[18,15,20,17,15,0,21,15,17,15,16,0,0,0,0,15,19,0,0,0,15,0,0,0,0,0,0,0,0],"split_type":[0,0,0,0,0,0,0,0,0,0,0,0,0,0,0,0,0,0,0,0,0,0,0,0,0,0,0,0,0],"sum_hessian":[4.56806E5,4.53385E5,3.421E3,4.0371E5,4.9675E4,1.82E2,3.239E3,2.54805E5,1.48905E5,4.2713E4,6.962E3,1.6E1,3.223E3,1.46987E5,1.07818E5,8.9901E4,5.9004E4,1.7031E4,2.5682E4,2.24E2,6.738E3,4.2E1,3.181E3,5.6148E4,3.3753E4,3.687E3,5.5317E4,5.058E3,1.68E3],"tree_param":{"num_deleted":"0","num_feature":"25","num_nodes":"29","size_leaf_vector":"1"}},{"base_weights":[4.889057E-7,-6.7877427E-6,6.621581E-4,-1.9210893E-5,5.082941E-5,1.08659E-3,4.889496E-4,-3.0213758E-5,-3.101658E-6,3.244139E-5,1.0340602E-4,6.9851008E-6,6.0899853E-5,-0E0,4.9409457E-4,-2.2246181E-6,-1.2652325E-6,-4.678749E-7,2.726275E-7,9.911677E-7,2.217028E-6,-0E0,5.202515E-6,-0E0,2.4928695E-5],"categories":[],"categories_nodes":[],"categories_segments":[],"categories_sizes":[],"default_left":[0,0,0,0,0,0,0,0,0,0,0,0,0,0,0,0,0,0,0,0,0,0,0,0,0],"id":25,"left_children":[1,3,5,7,9,11,13,15,17,19,21,-1,-1,-1,23,-1,-1,-1,-1,-1,-1,-1,-1,-1,-1],"loss_changes":[2.262933E-3,3.1985642E-4,2.1787174E-4,6.272168E-5,6.241625E-5,2.7558184E-5,1.2632925E-5,8.281422E-6,8.681218E-6,2.5397312E-6,1.5382539E-6,0E0,0E0,0E0,9.5724245E-6,0E0,0E0,0E0,0E0,0E0,0E0,0E0,0E0,0E0,0E0],"parents":[2147483647,0,0,1,1,2,2,3,3,4,4,5,5,6,6,7,7,8,8,9,9,10,10,14,14],"right_children":[2,4,6,8,10,12,14,16,18,20,22,-1,-1,-1,24,-1,-1,-1,-1,-1,-1,-1,-1,-1,-1],"split_conditions":[1.1260883E-3,2.0582513E-4,1.3E1,8.7678796E-5,3.9127152E-4,6.0280533E1,5.9981725E-5,1.3101199E-5,1.4338485E-4,2.5752466E-4,5.489598E-5,6.9851008E-6,6.0899853E-5,-0E0,2.691131E-4,-2.2246181E-6,-1.2652325E-6,-4.678749E-7,2.726275E-7,9.911677E-7,2.217028E-6,-0E0,5.202515E-6,-0E0,2.4928695E-5],"split_indices":[17,15,10,18,15,6,18,18,15,17,18,0,0,0,19,0,0,0,0,0,0,0,0,0,0],"split_type":[0,0,0,0,0,0,0,0,0,0,0,0,0,0,0,0,0,0,0,0,0,0,0,0,0],"sum_hessian":[4.56388E5,4.51275E5,5.113E3,3.7266E5,7.8615E4,1.313E3,3.8E3,2.17735E5,1.54925E5,5.9655E4,1.896E4,2.53E2,1.06E3,2.7E1,3.773E3,5.0493E4,1.67242E5,9.6236E4,5.8689E4,3.3033E4,2.6622E4,9.2E1,1.8868E4,2.9E1,3.744E3],"tree_param":{"num_deleted":"0","num_feature":"25","num_nodes":"25","size_leaf_vector":"1"}},{"base_weights":[3.8237388E-7,-5.07713E-6,7.532328E-4,-1.4757203E-5,7.4507465E-5,1.0382864E-3,5.2461086E-4,-2.680952E-5,3.2919963E-6,5.4294695E-5,1.5645185E-4,1.6469003E-4,5.8103684E-5,-0E0,5.7205034E-4,-1.8022596E-6,-9.694614E-7,-3.4690497E-6,7.804908E-7,1.3996174E-6,6.436183E-5,1.6308115E-4,-0E0,-0E0,9.324316E-6,-0E0,2.8796427E-5,-3.3780037E-7,-0E0,-0E0,3.2601845E-6,-0E0,8.456563E-6],"categories":[],"categories_nodes":[],"categories_segments":[],"categories_sizes":[],"default_left":[0,0,0,0,0,0,0,0,0,0,0,0,0,0,0,0,0,0,0,0,0,0,0,0,0,0,0,0,0,0,0,0,0],"id":26,"left_children":[1,3,5,7,9,11,13,15,17,19,21,23,-1,-1,25,-1,-1,27,-1,-1,29,31,-1,-1,-1,-1,-1,-1,-1,-1,-1,-1,-1],"loss_changes":[1.951417E-3,3.43129E-4,6.598036E-5,9.048252E-5,5.845513E-5,1.0526157E-5,6.5137865E-6,1.1331358E-5,1.4446704E-5,1.2219534E-6,1.0099975E-5,1.0275162E-6,0E0,0E0,2.2904132E-6,0E0,0E0,1.3960447E-6,0E0,0E0,1.30236E-6,8.632458E-6,0E0,0E0,0E0,0E0,0E0,0E0,0E0,0E0,0E0,0E0,0E0],"parents":[2147483647,0,0,1,1,2,2,3,3,4,4,5,5,6,6,7,7,8,8,9,9,10,10,11,11,14,14,17,17,20,20,21,21],"right_children":[2,4,6,8,10,12,14,16,18,20,22,24,-1,-1,26,-1,-1,28,-1,-1,30,32,-1,-1,-1,-1,-1,-1,-1,-1,-1,-1,-1],"split_conditions":[1.2724694E-3,2.5075153E-4,1.3E1,1.0282337E-4,5.1830814E-4,6.0280533E1,6.2392628E1,5.0410403E-5,1.7037669E-4,3.1542787E-4,1.4987518E-3,2.4537082E6,5.8103684E-5,-0E0,6.1179802E1,-1.8022596E-6,-9.694614E-7,1.3334413E-4,7.804908E-7,1.3996174E-6,8.667118E-5,3.3717337E-5,-0E0,-0E0,9.324316E-6,-0E0,2.8796427E-5,-3.3780037E-7,-0E0,-0E0,3.2601845E-6,-0E0,8.456563E-6],"split_indices":[19,19,10,19,19,6,6,19,19,19,16,24,0,0,0,0,0,19,0,0,16,16,0,0,0,0,0,0,0,0,0,0,0],"split_type":[0,0,0,0,0,0,0,0,0,0,0,0,0,0,0,0,0,0,0,0,0,0,0,0,0,0,0,0,0,0,0,0,0],"sum_hessian":[4.56571E5,4.53153E5,3.418E3,4.05133E5,4.802E4,1.325E3,2.093E3,2.46244E5,1.58889E5,3.9499E4,8.521E3,2.65E2,1.06E3,3.13E2,1.78E3,1.03697E5,1.42547E5,9.7342E4,6.1547E4,1.3684E4,2.5815E4,8.222E3,2.99E2,2.9E1,2.36E2,1.7E1,1.763E3,5.625E4,4.1092E4,3.56E2,2.5459E4,2.76E2,7.946E3],"tree_param":{"num_deleted":"0","num_feature":"25","num_nodes":"33","size_leaf_vector":"1"}},{"base_weights":[6.6347764E-7,-4.807182E-6,7.465013E-4,-1.5189401E-5,6.634401E-5,5.0017796E-5,5.4035714E-4,-2.6494274E-5,3.1866153E-7,4.825669E-5,1.8061211E-4,-0E0,5.502388E-4,-1.833625E-6,-1.0355421E-6,-2.9092772E-7,5.420251E-7,1.4698576E-6,3.2313187E-6,-0E0,1.8148278E-4,-0E0,5.846607E-4,-0E0,9.110022E-6,-0E0,5.9333915E-4,-0E0,5.9656304E-4,-0E0,2.993309E-5],"categories":[],"categories_nodes":[],"categories_segments":[],"categories_sizes":[],"default_left":[0,0,0,0,0,0,0,0,0,0,0,0,0,0,0,0,0,0,0,0,0,0,0,0,0,0,0,0,0,0,0],"id":27,"left_children":[1,3,5,7,9,-1,11,13,15,17,19,-1,21,-1,-1,-1,-1,-1,-1,-1,23,-1,25,-1,-1,-1,27,-1,29,-1,-1],"loss_changes":[1.9384113E-3,3.2984273E-4,2.6452239E-5,7.220515E-5,9.390566E-5,0E0,3.2644602E-6,7.994298E-6,1.106818E-5,5.8921287E-6,1.175431E-6,0E0,2.3522298E-6,0E0,0E0,0E0,0E0,0E0,0E0,0E0,1.1131197E-6,0E0,8.198025E-6,0E0,0E0,0E0,2.2976892E-6,0E0,1.2695673E-6,0E0,0E0],"parents":[2147483647,0,0,1,1,2,2,3,3,4,4,6,6,7,7,8,8,9,9,10,10,12,12,20,20,22,22,26,26,28,28],"right_children":[2,4,6,8,10,-1,12,14,16,18,20,-1,22,-1,-1,-1,-1,-1,-1,-1,24,-1,26,-1,-1,-1,28,-1,30,-1,-1],"split_conditions":[1.4769712E-3,2.4092112E-4,1.3E1,9.6625605E-5,5.387091E-4,5.0017796E-5,3.0954162E5,3.4616758E-5,1.5862405E-4,3.2624442E-4,2.5555228E-5,-0E0,6.19898E1,-1.833625E-6,-1.0355421E-6,-2.9092772E-7,5.420251E-7,1.4698576E-6,3.2313187E-6,-0E0,1.0794213E-4,-0E0,3.1274196E-4,-0E0,9.110022E-6,-0E0,6.495228E-5,-0E0,3.2845428E5,-0E0,2.993309E-5],"split_indices":[17,15,10,15,15,0,23,15,17,17,17,0,0,0,0,0,0,0,0,0,21,0,21,0,0,0,15,0,23,0,0],"split_type":[0,0,0,0,0,0,0,0,0,0,0,0,0,0,0,0,0,0,0,0,0,0,0,0,0,0,0,0,0,0,0],"sum_hessian":[4.56895E5,4.53436E5,3.459E3,3.96924E5,5.6512E4,1.331E3,2.128E3,2.33302E5,1.63622E5,4.9546E4,6.966E3,6.5E1,2.063E3,7.8266E4,1.55036E5,9.7341E4,6.6281E4,2.5862E4,2.3684E4,3.1E1,6.935E3,2.29E2,1.834E3,2.1E1,6.914E3,3E1,1.804E3,1.3E1,1.791E3,9E0,1.782E3],"tree_param":{"num_deleted":"0","num_feature":"25","num_nodes":"31","size_leaf_vector":"1"}},{"base_weights":[4.515928E-7,-5.8364103E-6,5.8261945E-4,-1.699083E-5,4.1983447E-5,4.0388227E-4,8.9328154E-4,-2.8883433E-5,-5.820291E-6,1.2612965E-6,8.342124E-5,-0E0,2.0634103E-5,1.3250446E-5,1.0264668E-3,-1.9251554E-6,-1.2035313E-6,-5.5218715E-7,1.1458396E-7,8.446334E-5,-0E0,-0E0,5.1608E-5,2.8497789E-6,5.8350956E-6],"categories":[],"categories_nodes":[],"categories_segments":[],"categories_sizes":[],"default_left":[0,0,0,0,0,0,0,0,0,0,0,0,0,0,0,0,0,0,0,0,0,0,0,0,0],"id":28,"left_children":[1,3,5,7,9,11,13,15,17,-1,19,-1,-1,-1,21,-1,-1,-1,-1,23,-1,-1,-1,-1,-1],"loss_changes":[1.7274356E-3,2.3811414E-4,1.5000033E-4,4.534627E-5,4.7201233E-5,1.1715514E-5,7.559196E-6,1.7810526E-6,9.087995E-6,0E0,2.8063223E-6,0E0,0E0,0E0,7.894589E-6,0E0,0E0,0E0,0E0,2.2874883E-6,0E0,0E0,0E0,0E0,0E0],"parents":[2147483647,0,0,1,1,2,2,3,3,4,4,5,5,6,6,7,7,8,8,10,10,14,14,19,19],"right_children":[2,4,6,8,10,12,14,16,18,-1,20,-1,-1,-1,22,-1,-1,-1,-1,24,-1,-1,-1,-1,-1],"split_conditions":[1.1260328E-3,1.9928935E-4,6.1177835E-4,7.2703486E-5,3.6872135E-4,8.4412255E-4,6.2392628E1,1.3896532E-5,1.3118038E-4,1.2612965E-6,7.7E1,-0E0,2.0634103E-5,1.3250446E-5,3.35649E-4,-1.9251554E-6,-1.2035313E-6,-5.5218715E-7,1.1458396E-7,4.7932562E-4,-0E0,-0E0,5.1608E-5,2.8497789E-6,5.8350956E-6],"split_indices":[18,15,22,15,15,21,6,15,17,0,10,0,0,0,21,0,0,0,0,15,0,0,0,0,0],"split_type":[0,0,0,0,0,0,0,0,0,0,0,0,0,0,0,0,0,0,0,0,0,0,0,0,0],"sum_hessian":[4.56132E5,4.51089E5,5.043E3,3.67466E5,8.3623E4,3.407E3,1.636E3,1.73644E5,1.93822E5,6.1263E4,2.236E4,7.5E1,3.332E3,4.18E2,1.218E3,5.0974E4,1.2267E5,1.25401E5,6.8421E4,2.2205E4,1.55E2,6E0,1.212E3,1.3666E4,8.539E3],"tree_param":{"num_deleted":"0","num_feature":"25","num_nodes":"25","size_leaf_vector":"1"}},{"base_weights":[5.490927E-7,-4.4158414E-6,6.8242906E-4,-1.2433922E-5,7.0244656E-5,9.080128E-4,4.9107155E-4,-2.1773605E-5,6.6044004E-6,5.190464E-5,1.8222994E-4,-0E0,4.883958E-5,-0E0,2.605031E-5,-1.4060296E-6,-6.0856354E-7,-0E0,7.4992954E-7,-0E0,2.6679197E-6,-0E0,1.8618738E-4,-0E0,9.357222E-6],"categories":[],"categories_nodes":[],"categories_segments":[],"categories_sizes":[],"default_left":[0,0,0,0,0,0,0,0,0,0,0,0,0,0,0,0,0,0,0,0,0,0,0,0,0],"id":29,"left_children":[1,3,5,7,9,11,13,15,17,19,21,-1,-1,-1,-1,-1,-1,-1,-1,-1,-1,-1,23,-1,-1],"loss_changes":[1.6140012E-3,2.6556078E-4,8.442788E-6,7.4512405E-5,6.437347E-5,1.35476E-5,7.37299E-6,1.2970413E-5,8.556081E-6,2.6409762E-6,3.2836397E-6,0E0,0E0,0E0,0E0,0E0,0E0,0E0,0E0,0E0,0E0,0E0,1.2696983E-6,0E0,0E0],"parents":[2147483647,0,0,1,1,2,2,3,3,4,4,5,5,6,6,7,7,8,8,9,9,10,10,22,22],"right_children":[2,4,6,8,10,12,14,16,18,20,22,-1,-1,-1,-1,-1,-1,-1,-1,-1,-1,-1,24,-1,-1],"split_conditions":[1.5281546E-3,2.7056702E-4,1.3E1,1.2001842E-4,5.61441E-4,2.7004115E-3,6.1539803E1,6.850544E-5,1.7736095E-4,2.344257E-4,2.98486E-4,-0E0,4.883958E-5,-0E0,2.605031E-5,-1.4060296E-6,-6.0856354E-7,-0E0,7.4992954E-7,-0E0,2.6679197E-6,-0E0,3.377094E-5,-0E0,9.357222E-6],"split_indices":[15,17,10,15,17,15,0,15,15,15,19,0,0,0,0,0,0,0,0,0,0,0,15,0,0],"split_type":[0,0,0,0,0,0,0,0,0,0,0,0,0,0,0,0,0,0,0,0,0,0,0,0,0],"sum_hessian":[4.56712E5,4.53266E5,3.446E3,4.10519E5,4.2747E4,1.34E3,2.106E3,2.78934E5,1.31585E5,3.75E4,5.247E3,1.68E2,1.172E3,2.08E2,1.898E3,1.61662E5,1.17272E5,6.8038E4,6.3547E4,1.088E3,3.6412E4,1.26E2,5.121E3,1.6E1,5.105E3],"tree_param":{"num_deleted":"0","num_feature":"25","num_nodes":"25","size_leaf_vector":"1"}},{"base_weights":[5.573329E-7,-4.169998E-6,6.579163E-4,-1.3211291E-5,5.5693377E-5,-0E0,6.733481E-4,-2.3115112E-5,-0E0,3.9161067E-5,1.3876712E-4,-0E0,3.3779612E-5,-1.7677129E-6,-9.553602E-7,-5.133963E-6,4.5869197E-7,1.1844126E-6,2.5937138E-6,-0E0,7.0352667E-6,-3.752218E-7,-0E0],"categories":[],"categories_nodes":[],"categories_segments":[],"categories_sizes":[],"default_left":[0,0,0,0,0,0,0,0,0,0,0,0,0,0,0,0,0,0,0,0,0,0,0],"id":30,"left_children":[1,3,5,7,9,-1,11,13,15,17,19,-1,-1,-1,-1,21,-1,-1,-1,-1,-1,-1,-1],"loss_changes":[1.4833322E-3,2.4087307E-4,3.2855198E-5,5.37959E-5,6.182329E-5,0E0,1.8560095E-6,5.820053E-6,8.153279E-6,2.1514861E-6,2.628978E-6,0E0,0E0,0E0,0E0,1.0535127E-6,0E0,0E0,0E0,0E0,0E0,0E0,0E0],"parents":[2147483647,0,0,1,1,2,2,3,3,4,4,6,6,7,7,8,8,9,9,10,10,15,15],"right_children":[2,4,6,8,10,-1,12,14,16,18,20,-1,-1,-1,-1,22,-1,-1,-1,-1,-1,-1,-1],"split_conditions":[1.4277941E-3,2.375527E-4,2.140607E-4,9.293606E-5,5.055988E-4,-0E0,4.8623917E1,1.3101199E-5,1.5669149E-4,3.1589824E-4,8.074445E-5,-0E0,3.3779612E-5,-1.7677129E-6,-9.553602E-7,1.2984299E-4,4.5869197E-7,1.1844126E-6,2.5937138E-6,-0E0,7.0352667E-6,-3.752218E-7,-0E0],"split_indices":[18,15,19,18,15,0,6,18,18,17,17,0,0,0,0,15,0,0,0,0,0,0,0],"split_type":[0,0,0,0,0,0,0,0,0,0,0,0,0,0,0,0,0,0,0,0,0,0,0],"sum_hessian":[4.56292E5,4.52884E5,3.408E3,3.94911E5,5.7973E4,8.2E1,3.326E3,2.29685E5,1.65226E5,4.9356E4,8.617E3,1.8E1,3.308E3,5.0503E4,1.79182E5,9.9515E4,6.5711E4,2.5811E4,2.3545E4,1.03E2,8.514E3,6.5282E4,3.4233E4],"tree_param":{"num_deleted":"0","num_feature":"25","num_nodes":"23","size_leaf_vector":"1"}},{"base_weights":[5.671728E-7,-3.784885E-6,6.0196203E-4,-1.1776038E-5,5.64786E-5,8.365991E-4,4.067542E-4,-2.1094833E-5,2.0238024E-6,3.9688137E-5,1.142232E-4,-0E0,8.7428093E-4,-0E0,2.2267499E-5,-1.5012242E-6,-8.002084E-7,-1.4068512E-7,5.57729E-7,-0E0,2.0049845E-6,1.18461816E-4,-0E0,-0E0,4.533503E-5,-0E0,1.2236001E-4,1.8498379E-4,3.7578343E-6,9.37236E-6,-0E0],"categories":[],"categories_nodes":[],"categories_segments":[],"categories_sizes":[],"default_left":[0,0,0,0,0,0,0,0,0,0,0,0,0,0,0,0,0,0,0,0,0,0,0,0,0,0,0,0,0,0,0],"id":31,"left_children":[1,3,5,7,9,11,13,15,17,19,21,-1,23,-1,-1,-1,-1,-1,-1,-1,-1,25,-1,-1,-1,-1,27,29,-1,-1,-1],"loss_changes":[1.2539392E-3,2.1358649E-4,3.3024116E-5,5.3507178E-5,3.458315E-5,2.4277833E-6,6.2550534E-6,6.4810156E-6,7.787123E-6,1.0113508E-6,5.862821E-6,0E0,2.2643362E-6,0E0,0E0,0E0,0E0,0E0,0E0,0E0,0E0,4.055706E-6,0E0,0E0,0E0,0E0,2.3856119E-6,1.9000945E-6,0E0,0E0,0E0],"parents":[2147483647,0,0,1,1,2,2,3,3,4,4,5,5,6,6,7,7,8,8,9,9,10,10,12,12,21,21,26,26,27,27],"right_children":[2,4,6,8,10,12,14,16,18,20,22,-1,24,-1,-1,-1,-1,-1,-1,-1,-1,26,-1,-1,-1,-1,28,30,-1,-1,-1],"split_conditions":[1.2724694E-3,2.4419115E-4,1.3E1,1.0184983E-4,4.8360025E-4,2.0532402E6,6.2392628E1,4.0727828E-5,1.6704043E-4,6.696366E-5,1.4987518E-3,-0E0,5.789335E1,-0E0,2.2267499E-5,-1.5012242E-6,-8.002084E-7,-1.4068512E-7,5.57729E-7,-0E0,2.0049845E-6,3.3717337E-5,-0E0,-0E0,4.533503E-5,-0E0,6.1126606E5,8.026555E5,3.7578343E-6,9.37236E-6,-0E0],"split_indices":[19,19,10,19,19,23,6,19,19,16,16,0,6,0,0,0,0,0,0,0,0,16,0,0,0,0,24,23,0,0,0],"split_type":[0,0,0,0,0,0,0,0,0,0,0,0,0,0,0,0,0,0,0,0,0,0,0,0,0,0,0,0,0,0,0],"sum_hessian":[4.56239E5,4.52797E5,3.442E3,4.0125E5,5.1547E4,1.329E3,2.113E3,2.43837E5,1.57413E5,4.1278E4,1.0269E4,1.09E2,1.22E3,3.19E2,1.794E3,8.1401E4,1.62436E5,9.5739E4,6.1674E4,2.14E2,4.1064E4,9.965E3,3.04E2,8.3E1,1.137E3,3.54E2,9.611E3,3.219E3,6.392E3,3.189E3,3E1],"tree_param":{"num_deleted":"0","num_feature":"25","num_nodes":"31","size_leaf_vector":"1"}},{"base_weights":[4.6398176E-7,-3.7527589E-6,5.978032E-4,-1.2026564E-5,5.0630842E-5,-0E0,6.2121503E-4,-2.1411877E-5,-0E0,1.704999E-6,1.1765518E-4,-0E0,3.1187967E-5,-1.3831901E-6,-7.7422845E-7,-2.7394557E-7,3.8154107E-7,1.2010498E-4,-0E0,8.6540225E-5,2.2508863E-4,-0E0,4.3993364E-6,-0E0,1.1501606E-5],"categories":[],"categories_nodes":[],"categories_segments":[],"categories_sizes":[],"default_left":[0,0,0,0,0,0,0,0,0,0,0,0,0,0,0,0,0,0,0,0,0,0,0,0,0],"id":32,"left_children":[1,3,5,7,9,-1,11,13,15,-1,17,-1,-1,-1,-1,-1,-1,19,-1,21,23,-1,-1,-1,-1],"loss_changes":[1.2073894E-3,1.9970223E-4,2.8386945E-5,4.4257184E-5,4.9241164E-5,0E0,2.6994385E-6,3.871166E-6,7.2228677E-6,0E0,3.8391154E-6,0E0,0E0,0E0,0E0,0E0,0E0,4.604837E-6,0E0,1.0106087E-6,2.2170352E-6,0E0,0E0,0E0,0E0],"parents":[2147483647,0,0,1,1,2,2,3,3,4,4,6,6,7,7,8,8,10,10,17,17,19,19,20,20],"right_children":[2,4,6,8,10,-1,12,14,16,-1,18,-1,-1,-1,-1,-1,-1,20,-1,22,24,-1,-1,-1,-1],"split_conditions":[1.4277941E-3,2.375527E-4,9.3731695E-5,8.932093E-5,4.7932562E-4,-0E0,3.5021803E-4,4.4292476E-5,1.5156588E-4,1.704999E-6,9.0305484E-4,-0E0,3.1187967E-5,-1.3831901E-6,-7.7422845E-7,-2.7394557E-7,3.8154107E-7,1.126112E-3,-0E0,1.228631E-4,8.59411E-5,-0E0,4.3993364E-6,-0E0,1.1501606E-5],"split_indices":[18,15,20,18,15,0,21,17,17,0,20,0,0,0,0,0,0,15,0,17,16,0,0,0,0],"split_type":[0,0,0,0,0,0,0,0,0,0,0,0,0,0,0,0,0,0,0,0,0,0,0,0,0],"sum_hessian":[4.5576E5,4.524E5,3.36E3,3.94258E5,5.8142E4,1.75E2,3.185E3,2.20913E5,1.73345E5,4.7837E4,1.0305E4,1.9E1,3.166E3,9.93E4,1.21613E5,1.01769E5,7.1576E4,1.0155E4,1.5E2,8.418E3,1.737E3,1.44E2,8.274E3,3.2E1,1.705E3],"tree_param":{"num_deleted":"0","num_feature":"25","num_nodes":"25","size_leaf_vector":"1"}},{"base_weights":[5.3861874E-7,-4.5399274E-6,4.710203E-4,-1.3196982E-5,3.3284447E-5,3.119929E-4,7.418122E-4,-2.180516E-5,-3.2766352E-6,1.0734441E-6,7.198975E-5,-0E0,1.598462E-5,-0E0,3.7225476E-5,-1.542888E-6,-9.021637E-7,-3.3650764E-7,1.3325193E-7,-0E0,3.6526228E-6],"categories":[],"categories_nodes":[],"categories_segments":[],"categories_sizes":[],"default_left":[0,0,0,0,0,0,0,0,0,0,0,0,0,0,0,0,0,0,0,0,0],"id":33,"left_children":[1,3,5,7,9,11,13,15,17,-1,19,-1,-1,-1,-1,-1,-1,-1,-1,-1,-1],"loss_changes":[1.1373297E-3,1.4579797E-4,1.13365124E-4,2.9043127E-5,2.8116207E-5,8.340576E-6,3.835303E-6,1.6622071E-6,4.039558E-6,0E0,2.0715524E-6,0E0,0E0,0E0,0E0,0E0,0E0,0E0,0E0,0E0,0E0],"parents":[2147483647,0,0,1,1,2,2,3,3,4,4,5,5,6,6,7,7,8,8,10,10],"right_children":[2,4,6,8,10,12,14,16,18,-1,20,-1,-1,-1,-1,-1,-1,-1,-1,-1,-1],"split_conditions":[1.1260328E-3,1.9988159E-4,6.1177835E-4,7.8102625E-5,3.9984338E-4,5.042492E-4,3.35649E-4,1.5194085E-5,1.4222243E-4,1.0734441E-6,6.0594797E-5,-0E0,1.598462E-5,-0E0,3.7225476E-5,-1.542888E-6,-9.021637E-7,-3.3650764E-7,1.3325193E-7,-0E0,3.6526228E-6],"split_indices":[18,17,22,17,17,16,21,19,18,0,18,0,0,0,0,0,0,0,0,0,0],"split_type":[0,0,0,0,0,0,0,0,0,0,0,0,0,0,0,0,0,0,0,0,0],"sum_hessian":[4.56472E5,4.51388E5,5.084E3,3.6947E5,8.1918E4,3.437E3,1.647E3,1.9242E5,1.7705E5,6.474E4,1.7178E4,8.2E1,3.355E3,5E0,1.642E3,4.8682E4,1.43738E5,1.22613E5,5.4437E4,1.08E2,1.707E4],"tree_param":{"num_deleted":"0","num_feature":"25","num_nodes":"21","size_leaf_vector":"1"}},{"base_weights":[5.080932E-7,-3.371278E-6,5.4865325E-4,-9.04754E-6,6.316232E-5,-0E0,5.71138E-4,-1.664845E-5,7.3530264E-6,4.8562477E-5,1.6268328E-4,1.5620052E-4,3.193029E-5,-1.1123706E-6,-4.5150196E-7,-0E0,6.533102E-7,-0E0,2.4761462E-6,-0E0,1.66654E-4,-0E0,1.642833E-4,-0E0,8.444456E-6,8.688044E-6,-0E0],"categories":[],"categories_nodes":[],"categories_segments":[],"categories_sizes":[],"default_left":[0,0,0,0,0,0,0,0,0,0,0,0,0,0,0,0,0,0,0,0,0,0,0,0,0,0,0],"id":34,"left_children":[1,3,5,7,9,-1,11,13,15,17,19,21,-1,-1,-1,-1,-1,-1,-1,-1,23,-1,25,-1,-1,-1,-1],"loss_changes":[1.0254922E-3,1.657535E-4,2.5333837E-5,5.315938E-5,2.8620823E-5,0E0,1.0171323E-5,9.261763E-6,5.374514E-6,1.497865E-6,3.5268167E-6,1.1351221E-6,0E0,0E0,0E0,0E0,0E0,0E0,0E0,0E0,1.5725818E-6,0E0,1.1620523E-6,0E0,0E0,0E0,0E0],"parents":[2147483647,0,0,1,1,2,2,3,3,4,4,6,6,7,7,8,8,9,9,10,10,11,11,20,20,22,22],"right_children":[2,4,6,8,10,-1,12,14,16,18,20,22,-1,-1,-1,-1,-1,-1,-1,-1,24,-1,26,-1,-1,-1,-1],"split_conditions":[1.4277941E-3,3.0655455E-4,1.042133E-4,1.2664136E-4,7.605992E-4,-0E0,6.2392628E1,6.625335E-5,1.7736095E-4,2.344257E-4,5.9981725E-5,4.474E-1,3.193029E-5,-1.1123706E-6,-4.5150196E-7,-0E0,6.533102E-7,-0E0,2.4761462E-6,-0E0,2.691131E-4,-0E0,6.28898E1,-0E0,8.444456E-6,8.688044E-6,-0E0],"split_indices":[18,17,20,15,17,0,6,18,15,15,18,4,0,0,0,0,0,0,0,0,19,0,0,0,0,0,0],"split_type":[0,0,0,0,0,0,0,0,0,0,0,0,0,0,0,0,0,0,0,0,0,0,0,0,0,0,0],"sum_hessian":[4.56609E5,4.5322E5,3.389E3,4.18979E5,3.4241E4,1.84E2,3.205E3,2.90461E5,1.28518E5,3.0738E4,3.503E3,6.56E2,2.549E3,1.59853E5,1.30608E5,5.6338E4,7.218E4,5.7E2,3.0168E4,3.8E1,3.465E3,2.1E1,6.35E2,3.6E1,3.429E3,6.06E2,2.9E1],"tree_param":{"num_deleted":"0","num_feature":"25","num_nodes":"27","size_leaf_vector":"1"}},{"base_weights":[4.8647183E-7,-4.033069E-6,4.2208444E-4,-1.1343793E-5,3.3210134E-5,2.7899354E-4,6.6689274E-4,-1.9285186E-5,-1.6604727E-6,1.1278197E-6,7.0853224E-5,-0E0,1.4294559E-5,-0E0,6.6931173E-4,-1.3790745E-6,-7.813566E-7,-2.6643423E-7,1.9711827E-7,-0E0,3.5966948E-6,-0E0,6.750662E-4,3.3924585E-5,-0E0],"categories":[],"categories_nodes":[],"categories_segments":[],"categories_sizes":[],"default_left":[0,0,0,0,0,0,0,0,0,0,0,0,0,0,0,0,0,0,0,0,0,0,0,0,0],"id":35,"left_children":[1,3,5,7,9,11,13,15,17,-1,19,-1,-1,-1,21,-1,-1,-1,-1,-1,-1,-1,23,-1,-1],"loss_changes":[9.1011287E-4,1.2051001E-4,8.275657E-5,2.704523E-5,1.9411578E-5,6.6079956E-6,2.9671937E-6,1.8248465E-6,3.7644452E-6,0E0,1.6397171E-6,0E0,0E0,0E0,2.8544455E-6,0E0,0E0,0E0,0E0,0E0,0E0,0E0,1.3643294E-6,0E0,0E0],"parents":[2147483647,0,0,1,1,2,2,3,3,4,4,5,5,6,6,7,7,8,8,10,10,14,14,22,22],"right_children":[2,4,6,8,10,12,14,16,18,-1,20,-1,-1,-1,22,-1,-1,-1,-1,-1,-1,-1,24,-1,-1],"split_conditions":[1.1260328E-3,2.130143E-4,6.1177835E-4,8.216339E-5,4.2700348E-4,8.7360817E-4,1.974929E-4,1.7479257E-5,1.4687795E-4,1.1278197E-6,5.9981725E-5,-0E0,1.4294559E-5,-0E0,2.237E-1,-1.3790745E-6,-7.813566E-7,-2.6643423E-7,1.9711827E-7,-0E0,3.5966948E-6,-0E0,7.990279E1,3.3924585E-5,-0E0],"split_indices":[18,17,22,17,17,19,20,18,18,0,18,0,0,0,4,0,0,0,0,0,0,0,6,0,0],"split_type":[0,0,0,0,0,0,0,0,0,0,0,0,0,0,0,0,0,0,0,0,0,0,0,0,0],"sum_hessian":[4.557E5,4.50633E5,5.067E3,3.78935E5,7.1698E4,3.457E3,1.61E3,2.02519E5,1.76416E5,5.7954E4,1.3744E4,8.4E1,3.373E3,5E0,1.605E3,5.3604E4,1.48915E5,1.17401E5,5.9015E4,9.3E1,1.3651E4,2.1E1,1.584E3,1.571E3,1.3E1],"tree_param":{"num_deleted":"0","num_feature":"25","num_nodes":"25","size_leaf_vector":"1"}},{"base_weights":[3.6106974E-7,-3.1022757E-6,4.9289875E-4,-9.487781E-6,4.5149558E-5,1.1541429E-4,5.6309067E-4,-1.6838612E-5,1.2124077E-6,1.4878603E-6,9.6198826E-5,-0E0,1.2489133E-4,-0E0,5.869616E-4,-1.0189628E-6,-4.5022762E-7,-1.4175595E-7,3.6911635E-7,4.9064092E-6,-0E0,6.9377406E-6,-0E0,-0E0,2.9586896E-5],"categories":[],"categories_nodes":[],"categories_segments":[],"categories_sizes":[],"default_left":[0,0,0,0,0,0,0,0,0,0,0,0,0,0,0,0,0,0,0,0,0,0,0,0,0],"id":36,"left_children":[1,3,5,7,9,11,13,15,17,-1,19,-1,21,-1,23,-1,-1,-1,-1,-1,-1,-1,-1,-1,-1],"loss_changes":[8.2765595E-4,1.360372E-4,2.1880609E-5,3.3179633E-5,2.7572372E-5,1.3161598E-6,2.201047E-5,3.824338E-6,4.4042827E-6,0E0,2.4219917E-6,0E0,1.1279571E-6,0E0,2.1017622E-6,0E0,0E0,0E0,0E0,0E0,0E0,0E0,0E0,0E0,0E0],"parents":[2147483647,0,0,1,1,2,2,3,3,4,4,5,5,6,6,7,7,8,8,10,10,12,12,14,14],"right_children":[2,4,6,8,10,12,14,16,18,-1,20,-1,22,-1,24,-1,-1,-1,-1,-1,-1,-1,-1,-1,-1],"split_conditions":[1.4277941E-3,2.513282E-4,6.2665035E1,9.951339E-5,4.7932562E-4,3.5549668E-4,9.3731695E-5,6.7772344E-5,1.5669149E-4,1.4878603E-6,9.0305484E-4,-0E0,4.2E1,-0E0,2.237E-1,-1.0189628E-6,-4.5022762E-7,-1.4175595E-7,3.6911635E-7,4.9064092E-6,-0E0,6.9377406E-6,-0E0,-0E0,2.9586896E-5],"split_indices":[18,15,6,18,15,19,20,17,18,0,20,0,5,0,4,0,0,0,0,0,0,0,0,0,0],"split_type":[0,0,0,0,0,0,0,0,0,0,0,0,0,0,0,0,0,0,0,0,0,0,0,0,0],"sum_hessian":[4.56478E5,4.5309E5,3.388E3,4.01968E5,5.1122E4,7.55E2,2.633E3,2.43816E5,1.58152E5,4.0785E4,1.0337E4,2.6E1,7.29E2,1.46E2,2.487E3,1.5913E5,8.4686E4,8.5715E4,7.2437E4,1.0186E4,1.51E2,6.49E2,8E1,3.4E1,2.453E3],"tree_param":{"num_deleted":"0","num_feature":"25","num_nodes":"25","size_leaf_vector":"1"}},{"base_weights":[4.703014E-7,-2.8595432E-6,4.7777797E-4,-7.709809E-6,5.6829987E-5,-0E0,4.8899045E-4,-1.4247779E-5,6.768043E-6,2.1760743E-6,1.3660171E-4,-0E0,4.9427204E-4,-9.574222E-7,-3.663521E-7,-0E0,6.3855373E-7,7.16493E-6,-0E0,-0E0,2.4831837E-5],"categories":[],"categories_nodes":[],"categories_segments":[],"categories_sizes":[],"default_left":[0,0,0,0,0,0,0,0,0,0,0,0,0,0,0,0,0,0,0,0,0],"id":37,"left_children":[1,3,5,7,9,-1,11,13,15,-1,17,-1,19,-1,-1,-1,-1,-1,-1,-1,-1],"loss_changes":[7.7264995E-4,1.2620435E-4,1.5716942E-5,4.054173E-5,1.6470243E-5,0E0,2.6301132E-6,7.3364354E-6,4.014879E-6,0E0,3.919675E-6,0E0,1.385808E-6,0E0,0E0,0E0,0E0,0E0,0E0,0E0,0E0],"parents":[2147483647,0,0,1,1,2,2,3,3,4,4,6,6,7,7,8,8,10,10,12,12],"right_children":[2,4,6,8,10,-1,12,14,16,-1,18,-1,20,-1,-1,-1,-1,-1,-1,-1,-1],"split_conditions":[1.4277941E-3,3.1829093E-4,3.7567396E-4,1.2657446E-4,7.6100626E-4,-0E0,5.4401342E-5,6.974101E-5,1.8809707E-4,2.1760743E-6,9.0305484E-4,-0E0,5.28998E1,-9.574222E-7,-3.663521E-7,-0E0,6.3855373E-7,7.16493E-6,-0E0,-0E0,2.4831837E-5],"split_indices":[18,15,21,18,15,0,20,15,18,0,20,0,0,0,0,0,0,0,0,0,0],"split_type":[0,0,0,0,0,0,0,0,0,0,0,0,0,0,0,0,0,0,0,0,0],"sum_hessian":[4.56256E5,4.52888E5,3.368E3,4.20403E5,3.2485E4,8.7E1,3.281E3,2.94375E5,1.26028E5,2.8916E4,3.569E3,5.9E1,3.222E3,1.63879E5,1.30496E5,6.6018E4,6.001E4,3.434E3,1.35E2,2.5E1,3.197E3],"tree_param":{"num_deleted":"0","num_feature":"25","num_nodes":"21","size_leaf_vector":"1"}},{"base_weights":[4.6678235E-7,-3.4861303E-6,3.6990547E-4,-9.989993E-6,2.8597473E-5,2.3599839E-4,5.765894E-4,-1.5635218E-5,-1.867284E-7,7.8684565E-7,2.5380496E-6,-0E0,2.3994314E-4,-0E0,2.9013696E-5,-1.2338202E-6,-6.27672E-7,-1.6747917E-7,1.6996862E-7,-0E0,1.2053616E-5],"categories":[],"categories_nodes":[],"categories_segments":[],"categories_sizes":[],"default_left":[0,0,0,0,0,0,0,0,0,0,0,0,0,0,0,0,0,0,0,0,0],"id":38,"left_children":[1,3,5,7,9,11,13,15,17,-1,-1,-1,19,-1,-1,-1,-1,-1,-1,-1,-1],"loss_changes":[7.036329E-4,9.237955E-5,5.9838E-5,1.934242E-5,1.43080615E-5,4.2381726E-6,1.5731785E-6,2.7815804E-6,1.635585E-6,0E0,0E0,0E0,1.2411183E-6,0E0,0E0,0E0,0E0,0E0,0E0,0E0,0E0],"parents":[2147483647,0,0,1,1,2,2,3,3,4,4,5,5,6,6,7,7,8,8,12,12],"right_children":[2,4,6,8,10,12,14,16,18,-1,-1,-1,20,-1,-1,-1,-1,-1,-1,-1,-1],"split_conditions":[1.1260883E-3,2.1236885E-4,2.6387132E-3,9.6625605E-5,3.5732696E-4,2.691131E-4,2.237E-1,1.3896532E-5,1.5461532E-4,7.8684565E-7,2.5380496E-6,-0E0,3.377094E-5,-0E0,2.9013696E-5,-1.2338202E-6,-6.27672E-7,-1.6747917E-7,1.6996862E-7,-0E0,1.2053616E-5],"split_indices":[17,15,17,15,15,19,4,15,15,0,0,0,15,0,0,0,0,0,0,0,0],"split_type":[0,0,0,0,0,0,0,0,0,0,0,0,0,0,0,0,0,0,0,0,0],"sum_hessian":[4.56729E5,4.51627E5,5.102E3,3.78098E5,7.3529E4,3.391E3,1.711E3,2.33459E5,1.44639E5,4.9386E4,2.4143E4,3.7E1,3.354E3,1.7E1,1.694E3,5.1097E4,1.82362E5,9.1672E4,5.2967E4,1E1,3.344E3],"tree_param":{"num_deleted":"0","num_feature":"25","num_nodes":"21","size_leaf_vector":"1"}},{"base_weights":[4.3225938E-7,-3.3434683E-6,3.5562043E-4,-9.726544E-6,2.5762654E-5,6.0151966E-4,2.4075022E-4,-8.541195E-7,-2.950042E-6,6.4958465E-7,2.2898837E-6,-0E0,3.395924E-5,-0E0,1.2106465E-5,-3.2432425E-7,5.349943E-8],"categories":[],"categories_nodes":[],"categories_segments":[],"categories_sizes":[],"default_left":[0,0,0,0,0,0,0,0,0,0,0,0,0,0,0,0,0],"id":39,"left_children":[1,3,5,7,9,11,13,-1,15,-1,-1,-1,-1,-1,-1,-1,-1],"loss_changes":[6.471526E-4,8.22254E-5,5.9063896E-5,1.6583315E-5,1.4164274E-5,1.7400744E-5,1.0249059E-6,0E0,3.401427E-6,0E0,0E0,0E0,0E0,0E0,0E0,0E0,0E0],"parents":[2147483647,0,0,1,1,2,2,3,3,4,4,5,5,6,6,8,8],"right_children":[2,4,6,8,10,12,14,-1,16,-1,-1,-1,-1,-1,-1,-1,-1],"split_conditions":[1.126112E-3,2.0430064E-4,1.3E1,7.212737E-5,3.3625093E-4,6.0280533E1,2.237E-1,-8.541195E-7,1.2774342E-4,6.4958465E-7,2.2898837E-6,-0E0,3.395924E-5,-0E0,1.2106465E-5,-3.2432425E-7,5.349943E-8],"split_indices":[15,17,10,15,17,6,4,0,15,0,0,0,0,0,0,0,0],"split_type":[0,0,0,0,0,0,0,0,0,0,0,0,0,0,0,0,0],"sum_hessian":[4.56286E5,4.51209E5,5.077E3,3.72873E5,7.8336E4,1.338E3,3.739E3,1.71717E5,2.01156E5,5.089E4,2.7446E4,2.51E2,1.087E3,2.5E1,3.714E3,1.20248E5,8.0908E4],"tree_param":{"num_deleted":"0","num_feature":"25","num_nodes":"17","size_leaf_vector":"1"}},{"base_weights":[4.633144E-7,-3.0822025E-6,3.3660882E-4,-8.852803E-6,2.6895388E-5,2.1323898E-4,2.6129424E-5,-1.3869108E-5,-0E0,8.9328586E-7,2.812991E-6,-0E0,1.0847608E-5,-1.1327822E-6,-5.5261427E-7,-1.2569423E-7,1.7254068E-7],"categories":[],"categories_nodes":[],"categories_segments":[],"categories_sizes":[],"default_left":[0,0,0,0,0,0,0,0,0,0,0,0,0,0,0,0,0],"id":40,"left_children":[1,3,5,7,9,11,-1,13,15,-1,-1,-1,-1,-1,-1,-1,-1],"loss_changes":[5.7751726E-4,7.630504E-5,4.2403874E-5,1.6963657E-5,1.1170883E-5,4.154572E-6,0E0,2.6581874E-6,1.197383E-6,0E0,0E0,0E0,0E0,0E0,0E0,0E0,0E0],"parents":[2147483647,0,0,1,1,2,2,3,3,4,4,5,5,7,7,8,8],"right_children":[2,4,6,8,10,12,-1,14,16,-1,-1,-1,-1,-1,-1,-1,-1],"split_conditions":[1.1260883E-3,2.1595908E-4,2.6387132E-3,9.951339E-5,4.3079784E-4,5.9981725E-5,2.6129424E-5,1.3101199E-5,1.5117669E-4,8.9328586E-7,2.812991E-6,-0E0,1.0847608E-5,-1.1327822E-6,-5.5261427E-7,-1.2569423E-7,1.7254068E-7],"split_indices":[17,15,17,18,15,18,0,18,15,0,0,0,0,0,0,0,0],"split_type":[0,0,0,0,0,0,0,0,0,0,0,0,0,0,0,0,0],"sum_hessian":[4.56585E5,4.51526E5,5.059E3,3.81437E5,7.0089E4,3.366E3,1.693E3,2.43603E5,1.37834E5,5.6211E4,1.3878E4,2.6E1,3.34E3,5.0517E4,1.93086E5,7.9445E4,5.8389E4],"tree_param":{"num_deleted":"0","num_feature":"25","num_nodes":"17","size_leaf_vector":"1"}},{"base_weights":[4.4267804E-7,-2.294891E-6,3.953498E-4,-6.9351727E-6,3.996933E-5,2.1564047E-6,4.5521892E-4,-1.2560596E-5,2.87643E-6,1.378335E-6,8.964252E-5,-0E0,2.3782186E-5,-8.4324614E-7,-3.7007044E-7,-0E0,3.9876423E-7,4.6500268E-6,-0E0],"categories":[],"categories_nodes":[],"categories_segments":[],"categories_sizes":[],"default_left":[0,0,0,0,0,0,0,0,0,0,0,0,0,0,0,0,0,0,0],"id":41,"left_children":[1,3,5,7,9,-1,11,13,15,-1,17,-1,-1,-1,-1,-1,-1,-1,-1],"loss_changes":[5.3294085E-4,8.558062E-5,2.1736778E-5,2.3626424E-5,1.4586229E-5,0E0,1.4809135E-5,3.5112353E-6,2.7586207E-6,0E0,3.0598421E-6,0E0,0E0,0E0,0E0,0E0,0E0,0E0,0E0],"parents":[2147483647,0,0,1,1,2,2,3,3,4,4,6,6,7,7,8,8,10,10],"right_children":[2,4,6,8,10,-1,12,14,16,-1,18,-1,-1,-1,-1,-1,-1,-1,-1],"split_conditions":[1.4277941E-3,2.724535E-4,6.2665035E1,1.1173569E-4,5.387091E-4,2.1564047E-6,9.3731695E-5,5.7362948E-5,1.7537449E-4,1.378335E-6,9.0305484E-4,-0E0,2.3782186E-5,-8.4324614E-7,-3.7007044E-7,-0E0,3.9876423E-7,4.6500268E-6,-0E0],"split_indices":[18,15,6,18,15,0,20,18,18,0,20,0,0,0,0,0,0,0,0],"split_type":[0,0,0,0,0,0,0,0,0,0,0,0,0,0,0,0,0,0,0],"sum_hessian":[4.56609E5,4.53215E5,3.394E3,4.10511E5,4.2704E4,7.36E2,2.658E3,2.67394E5,1.43117E5,3.5784E4,6.92E3,1.58E2,2.5E3,1.35206E5,1.32188E5,8.113E4,6.1987E4,6.783E3,1.37E2],"tree_param":{"num_deleted":"0","num_feature":"25","num_nodes":"19","size_leaf_vector":"1"}},{"base_weights":[4.594248E-7,-2.778604E-6,3.0652955E-4,-7.446871E-6,2.798988E-5,1.8532372E-4,4.991248E-4,-1.23911705E-5,6.632864E-7,9.1895794E-7,5.0420243E-5,-0E0,9.503231E-6,-0E0,2.9534061E-5,-8.65592E-7,-4.207473E-7,-4.1953772E-8,2.5752465E-7,2.6125765E-6,-0E0],"categories":[],"categories_nodes":[],"categories_segments":[],"categories_sizes":[],"default_left":[0,0,0,0,0,0,0,0,0,0,0,0,0,0,0,0,0,0,0,0,0],"id":42,"left_children":[1,3,5,7,9,11,13,15,17,-1,19,-1,-1,-1,-1,-1,-1,-1,-1,-1,-1],"loss_changes":[4.826797E-4,6.276603E-5,5.0538743E-5,1.6998085E-5,5.326543E-6,3.1071977E-6,1.645027E-5,2.3742032E-6,1.3871722E-6,0E0,2.1562446E-6,0E0,0E0,0E0,0E0,0E0,0E0,0E0,0E0,0E0,0E0],"parents":[2147483647,0,0,1,1,2,2,3,3,4,4,5,5,6,6,7,7,8,8,10,10],"right_children":[2,4,6,8,10,12,14,16,18,-1,20,-1,-1,-1,-1,-1,-1,-1,-1,-1,-1],"split_conditions":[1.1260328E-3,2.375527E-4,6.1177835E-4,1.0644613E-4,4.3079784E-4,5.042492E-4,6.2392628E1,4.510365E-5,1.7229748E-4,9.1895794E-7,6.1177835E-4,-0E0,9.503231E-6,-0E0,2.9534061E-5,-8.65592E-7,-4.207473E-7,-4.1953772E-8,2.5752465E-7,2.6125765E-6,-0E0],"split_indices":[18,15,22,17,15,16,6,17,17,0,22,0,0,0,0,0,0,0,0,0,0],"split_type":[0,0,0,0,0,0,0,0,0,0,0,0,0,0,0,0,0,0,0,0,0],"sum_hessian":[4.56381E5,4.51281E5,5.1E3,3.94654E5,5.6627E4,3.45E3,1.65E3,2.52841E5,1.41813E5,4.2764E4,1.3863E4,8.4E1,3.366E3,4.25E2,1.225E3,1.01759E5,1.51082E5,8.9547E4,5.2266E4,1.3698E4,1.65E2],"tree_param":{"num_deleted":"0","num_feature":"25","num_nodes":"21","size_leaf_vector":"1"}},{"base_weights":[4.5883965E-7,-2.6623015E-6,2.930679E-4,-7.6067445E-6,2.3560815E-5,5.008041E-4,1.9428917E-4,-6.810402E-7,-1.3381526E-6,7.414728E-7,2.3432242E-6,-0E0,6.055753E-4,-0E0,1.9655569E-4,-2.1169231E-7,1.4882283E-7,-0E0,6.1700173E-4,-0E0,9.891248E-6,-0E0,3.1043346E-5],"categories":[],"categories_nodes":[],"categories_segments":[],"categories_sizes":[],"default_left":[0,0,0,0,0,0,0,0,0,0,0,0,0,0,0,0,0,0,0,0,0,0,0],"id":43,"left_children":[1,3,5,7,9,11,13,-1,15,-1,-1,-1,17,-1,19,-1,-1,-1,21,-1,-1,-1,-1],"loss_changes":[4.4629167E-4,5.6973422E-5,3.627615E-5,1.2952982E-5,7.758023E-6,1.3310229E-5,2.3066532E-6,0E0,2.5720724E-6,0E0,0E0,0E0,3.3732504E-6,0E0,1.0005606E-6,0E0,0E0,0E0,1.7225975E-6,0E0,0E0,0E0,0E0],"parents":[2147483647,0,0,1,1,2,2,3,3,4,4,5,5,6,6,8,8,12,12,14,14,18,18],"right_children":[2,4,6,8,10,12,14,-1,16,-1,-1,-1,18,-1,20,-1,-1,-1,22,-1,-1,-1,-1],"split_conditions":[1.126112E-3,2.1685802E-4,1.3E1,7.609643E-5,4.123792E-4,6.2028435E1,7.5273776E-5,-6.810402E-7,1.4778523E-4,7.414728E-7,2.3432242E-6,-0E0,2.237E-1,-0E0,2.237E-1,-2.1169231E-7,1.4882283E-7,-0E0,2.7004115E-3,-0E0,9.891248E-6,-0E0,3.1043346E-5],"split_indices":[15,17,10,17,17,6,18,0,15,0,0,0,4,0,4,0,0,0,15,0,0,0,0],"split_type":[0,0,0,0,0,0,0,0,0,0,0,0,0,0,0,0,0,0,0,0,0,0,0],"sum_hessian":[4.56872E5,4.51713E5,5.159E3,3.83262E5,6.8451E4,1.335E3,3.824E3,1.8746E5,1.95802E5,5.2917E4,1.5534E4,3.86E2,9.49E2,2.8E1,3.796E3,1.31036E5,6.4766E4,2.6E1,9.23E2,2.3E1,3.773E3,7E0,9.16E2],"tree_param":{"num_deleted":"0","num_feature":"25","num_nodes":"23","size_leaf_vector":"1"}},{"base_weights":[4.7305832E-7,-1.942634E-6,3.5021073E-4,-5.5407613E-6,3.916676E-5,-0E0,1.7986611E-5,-1.0804981E-5,3.0796762E-6,1.3929094E-6,4.53142E-6,-7.1654244E-7,-2.9231353E-7,-0E0,3.6955862E-7],"categories":[],"categories_nodes":[],"categories_segments":[],"categories_sizes":[],"default_left":[0,0,0,0,0,0,0,0,0,0,0,0,0,0,0],"id":44,"left_children":[1,3,5,7,9,-1,-1,11,13,-1,-1,-1,-1,-1,-1],"loss_changes":[4.2044884E-4,6.364675E-5,1.1308381E-5,1.9777519E-5,8.065152E-6,0E0,0E0,2.6541638E-6,2.4766523E-6,0E0,0E0,0E0,0E0,0E0,0E0],"parents":[2147483647,0,0,1,1,2,2,3,3,4,4,7,7,8,8],"right_children":[2,4,6,8,10,-1,-1,12,14,-1,-1,-1,-1,-1,-1],"split_conditions":[1.4277941E-3,3.0655455E-4,3.7567396E-4,1.1310763E-4,5.6028966E-4,-0E0,1.7986611E-5,6.122171E-5,1.7185659E-4,1.3929094E-6,4.53142E-6,-7.1654244E-7,-2.9231353E-7,-0E0,3.6955862E-7],"split_indices":[18,17,21,17,19,0,0,18,18,0,0,0,0,0,0],"split_type":[0,0,0,0,0,0,0,0,0,0,0,0,0,0,0],"sum_hessian":[4.56432E5,4.53018E5,3.414E3,4.18796E5,3.4222E4,9.1E1,3.323E3,2.67216E5,1.5158E5,2.9651E4,4.571E3,1.44384E5,1.22832E5,7.9929E4,7.1651E4],"tree_param":{"num_deleted":"0","num_feature":"25","num_nodes":"15","size_leaf_vector":"1"}},{"base_weights":[4.4151315E-7,-1.8187354E-6,3.3168696E-4,-5.2068312E-6,3.871705E-5,4.6817618E-4,1.7518626E-4,-9.814057E-6,4.5315487E-6,1.3206921E-6,8.365755E-5,-0E0,4.7797512E-4,-0E0,1.9735095E-4,-9.1923215E-7,-3.8104855E-7,-0E0,4.1694486E-7,-0E0,4.264676E-6,2.2504071E-7,2.879177E-5,-0E0,1.17607005E-5],"categories":[],"categories_nodes":[],"categories_segments":[],"categories_sizes":[],"default_left":[0,0,0,0,0,0,0,0,0,0,0,0,0,0,0,0,0,0,0,0,0,0,0,0,0],"id":45,"left_children":[1,3,5,7,9,11,13,15,17,-1,19,-1,21,-1,23,-1,-1,-1,-1,-1,-1,-1,-1,-1,-1],"loss_changes":[3.7480507E-4,5.888537E-5,8.0798345E-6,1.9393934E-5,7.0587157E-6,5.641923E-6,1.3199417E-5,2.8954455E-6,1.772401E-6,0E0,1.21821E-6,0E0,8.499919E-6,0E0,1.300939E-5,0E0,0E0,0E0,0E0,0E0,0E0,0E0,0E0,0E0,0E0],"parents":[2147483647,0,0,1,1,2,2,3,3,4,4,5,5,6,6,7,7,8,8,10,10,12,12,14,14],"right_children":[2,4,6,8,10,12,14,16,18,-1,20,-1,22,-1,24,-1,-1,-1,-1,-1,-1,-1,-1,-1,-1],"split_conditions":[1.5281546E-3,3.1589824E-4,6.6E1,1.2774342E-4,5.61441E-4,3.2710966E5,3.3734788E-4,1.3101199E-5,1.8285742E-4,1.3206921E-6,5.7362948E-5,-0E0,6.2392628E1,-0E0,6.36998E1,-9.1923215E-7,-3.8104855E-7,-0E0,4.1694486E-7,-0E0,4.264676E-6,2.2504071E-7,2.879177E-5,-0E0,1.17607005E-5],"split_indices":[15,17,10,15,17,24,18,18,18,0,18,0,6,0,0,0,0,0,0,0,0,0,0,0,0],"split_type":[0,0,0,0,0,0,0,0,0,0,0,0,0,0,0,0,0,0,0,0,0,0,0,0,0],"sum_hessian":[4.56549E5,4.53156E5,3.393E3,4.20479E5,3.2677E4,1.47E3,1.923E3,2.92409E5,1.2807E5,2.7402E4,5.275E3,3.5E1,1.435E3,6.9E1,1.854E3,5.0286E4,2.42123E5,6.4762E4,6.3308E4,3.3E1,5.242E3,4.21E2,1.014E3,3.14E2,1.54E3],"tree_param":{"num_deleted":"0","num_feature":"25","num_nodes":"25","size_leaf_vector":"1"}},{"base_weights":[4.2553756E-7,-2.2656518E-6,2.567631E-4,-7.00356E-6,1.7935525E-5,4.4114538E-4,1.6545871E-4,-6.15691E-7,-1.8362498E-6,4.2301485E-7,1.5188768E-6,-0E0,5.0586276E-4,-0E0,1.6836425E-4,-1.9186207E-7,5.22366E-8,-0E0,2.6760647E-5,-0E0,8.527697E-6],"categories":[],"categories_nodes":[],"categories_segments":[],"categories_sizes":[],"default_left":[0,0,0,0,0,0,0,0,0,0,0,0,0,0,0,0,0,0,0,0,0],"id":46,"left_children":[1,3,5,7,9,11,13,-1,15,-1,-1,-1,17,-1,19,-1,-1,-1,-1,-1,-1],"loss_changes":[3.4050824E-4,4.2127576E-5,2.56465E-5,8.7320295E-6,5.757076E-6,9.973504E-6,2.916524E-6,0E0,1.4147229E-6,0E0,0E0,0E0,3.8774742E-6,0E0,2.0116713E-6,0E0,0E0,0E0,0E0,0E0,0E0],"parents":[2147483647,0,0,1,1,2,2,3,3,4,4,5,5,6,6,8,8,12,12,14,14],"right_children":[2,4,6,8,10,12,14,-1,16,-1,-1,-1,18,-1,20,-1,-1,-1,-1,-1,-1],"split_conditions":[1.1260883E-3,1.9689066E-4,1.3E1,7.199022E-5,3.0796533E-4,2.160129E6,5.9981725E-5,-6.15691E-7,1.4063116E-4,4.2301485E-7,1.5188768E-6,-0E0,5.8395103E1,-0E0,2.691131E-4,-1.9186207E-7,5.22366E-8,-0E0,2.6760647E-5,-0E0,8.527697E-6],"split_indices":[17,18,10,17,18,23,18,0,17,0,0,0,6,0,19,0,0,0,0,0,0],"split_type":[0,0,0,0,0,0,0,0,0,0,0,0,0,0,0,0,0,0,0,0,0],"sum_hessian":[4.56702E5,4.51572E5,5.13E3,3.69793E5,8.1779E4,1.335E3,3.795E3,1.72829E5,1.96964E5,5.0988E4,3.0791E4,2.81E2,1.054E3,2.7E1,3.768E3,1.36717E5,6.0247E4,9.9E1,9.55E2,2.7E1,3.741E3],"tree_param":{"num_deleted":"0","num_feature":"25","num_nodes":"21","size_leaf_vector":"1"}},{"base_weights":[4.5389154E-7,-1.6082947E-6,3.065185E-4,-4.7434714E-6,3.392313E-5,3.7505836E-7,3.5316E-4,-8.768852E-6,3.9696133E-6,1.0758819E-6,6.8010704E-5,-0E0,3.6969216E-4,-6.002959E-7,-2.0165781E-7,-0E0,3.3059004E-7,-0E0,3.479218E-6,-0E0,1.871007E-5],"categories":[],"categories_nodes":[],"categories_segments":[],"categories_sizes":[],"default_left":[0,0,0,0,0,0,0,0,0,0,0,0,0,0,0,0,0,0,0,0,0],"id":47,"left_children":[1,3,5,7,9,-1,11,13,15,-1,17,-1,19,-1,-1,-1,-1,-1,-1,-1,-1],"loss_changes":[3.1835827E-4,4.751331E-5,1.1028955E-5,1.51615095E-5,5.474558E-6,0E0,1.0269054E-5,2.9055682E-6,1.1641134E-6,0E0,1.3215213E-6,0E0,3.2678072E-6,0E0,0E0,0E0,0E0,0E0,0E0,0E0,0E0],"parents":[2147483647,0,0,1,1,2,2,3,3,4,4,6,6,7,7,8,8,10,10,12,12],"right_children":[2,4,6,8,10,-1,12,14,16,-1,18,-1,20,-1,-1,-1,-1,-1,-1,-1,-1],"split_conditions":[1.4277941E-3,3.0655455E-4,6.2665035E1,1.2657446E-4,5.3580623E-4,3.7505836E-7,9.3731695E-5,6.837821E-5,1.7037669E-4,1.0758819E-6,5.9981725E-5,-0E0,2.237E-1,-6.002959E-7,-2.0165781E-7,-0E0,3.3059004E-7,-0E0,3.479218E-6,-0E0,1.871007E-5],"split_indices":[18,17,6,18,17,0,20,17,19,0,18,0,4,0,0,0,0,0,0,0,0],"split_type":[0,0,0,0,0,0,0,0,0,0,0,0,0,0,0,0,0,0,0,0,0],"sum_hessian":[4.56089E5,4.52713E5,3.376E3,4.18593E5,3.412E4,7.45E2,2.631E3,2.94167E5,1.24426E5,2.7168E4,6.952E3,1.55E2,2.476E3,